5445 32
， -0.2516538 -0.04513063 0.13890603 0.064071774 -0.0916351 0.074164495 -0.07995482 -0.25845733 -0.11504318 0.15376699 0.01172067 0.2942262 0.35011193 0.031780455 0.07004332 -0.07849806 0.00043957192 -0.08129367 0.17746185 0.044647254 0.079245456 -0.06915149 0.0013621999 -0.22992961 -0.050723076 -0.04082311 -0.14154579 -0.30034548 0.21523903 -0.17524678 -0.13635159 -0.347258
。 -0.23204781 -0.019615391 0.12748851 0.059769213 -0.07146658 0.07188223 -0.08152937 -0.22278003 -0.094059706 0.13077219 0.004524492 0.26264644 0.30297738 0.0072949696 0.06935034 -0.07632611 0.0061254767 -0.046490643 0.13034718 0.033919517 0.097495936 -0.054417204 2.797092e-05 -0.20154111 -0.028160686 -0.0526491 -0.14212528 -0.26185033 0.17124361 -0.15405731 -0.114854746 -0.2823285
<BOS> -0.10752841 -0.007849762 0.05048079 0.014283587 -0.03169699 0.04296094 -0.014403942 -0.103115566 -0.039420716 0.066970594 0.018905502 0.12240525 0.1488736 -0.0055231536 0.029009398 -0.030208198 -0.003254415 -0.029011888 0.07410092 0.00070746185 0.02534366 -0.009870106 0.008167381 -0.08401928 -0.008692514 -0.023673706 -0.066936046 -0.11213968 0.07512074 -0.05151581 -0.04403936 -0.14358538
<EOS> -0.08269299 -0.002718977 0.055508383 0.04084392 -0.039116327 0.016900402 -0.012433015 -0.09146857 -0.055260595 0.04101633 0.021761142 0.114915535 0.12593372 0.012662241 0.02812141 -0.0156508 -0.0009905031 -0.018701548 0.05769838 -0.0008997609 0.043920536 -0.012237418 0.0004412284 -0.08749646 -0.017634338 -0.007909325 -0.06986939 -0.08835927 0.09110414 -0.053568427 -0.054188985 -0.1353688
为 -0.04225152 -0.020684676 0.009603219 0.0051085204 -0.022655277 0.0012631947 -0.006412288 -0.0529817 -0.034783244 0.023949511 -0.005747434 0.06683437 0.066876225 0.014982468 0.00056359253 -0.027994357 -0.009426919 -0.01165126 0.023727331 0.009434794 0.032375038 -0.013549981 -0.012730192 -0.046013612 -0.012128124 -0.016478766 -0.023385936 -0.036655813 0.04821663 -0.034109302 -0.016204301 -0.07085479
亦 -0.047742628 -0.0021582744 0.025290957 0.0139080975 -0.010690946 0.011705612 -0.01077066 -0.035751894 -0.014786116 0.016653122 0.016994528 0.06405285 0.07722847 0.005704653 0.024819434 -0.0071915523 0.015416889 -0.014185259 0.037401665 0.0071671577 0.0307241 -0.019844327 0.006994363 -0.046030786 -0.0045801224 -0.024679469 -0.030213976 -0.067595966 0.032707714 -0.028948871 -0.012390236 -0.056577742
有 -0.023844952 -0.0033002808 0.025351575 0.005865243 0.0005273489 0.011669946 0.001363848 -0.03983544 -0.0033401342 0.038177896 -0.0124553 0.048798274 0.06162952 0.012487019 0.026532104 -0.0075123445 0.006143912 0.0011088817 0.036315024 0.0037261117 0.017523153 -0.025365686 0.00095619715 -0.042867906 -0.010599681 -0.02019585 -0.008177739 -0.037531342 0.020536827 -0.021236561 -0.009971346 -0.047504727
与 -0.039847896 0.005857911 0.0076207947 0.014793414 -0.028612386 0.014575083 -0.02876301 -0.056175645 -0.011334714 0.012625008 -0.0016382241 0.057496212 0.059623096 -0.00280301 0.017363291 -0.019813007 0.0043473053 -0.017704455 0.03303001 -0.0018883204 0.014755789 -0.02251075 -0.0016488004 -0.026480403 0.0019086745 3.332991e-05 -0.039187524 -0.04149653 0.031654634 -0.044787105 -0.008910287 -0.07409904
不 -0.049327213 -0.0057588597 0.03197743 0.009176035 -0.0036320514 0.024947075 -0.013279726 -0.02715982 -0.021420695 0.032071564 0.0053485036 0.062441263 0.052854486 -0.006206282 -0.00019103101 -0.007888294 0.005838147 -0.001248159 0.035476476 -0.004322393 0.011867187 -0.009645504 0.004090964 -0.027597496 -0.007844324 -0.018761175 -0.024574202 -0.04088315 0.025382021 -0.036728844 -0.017314248 -0.060354445
我 -0.032969825 0.0008225434 0.030204035 0.0072927773 -0.020024419 0.012095401 -0.021309044 -0.041689195 -0.010685811 0.032480072 0.0054963045 0.04518408 0.0524912 -0.006030549 0.01972338 0.0001634493 -0.0011685365 -0.026979646 0.035685975 -0.008158777 0.028645098 -0.015599047 0.0033733745 -0.040590502 -0.013923524 -0.019628111 -0.0096338615 -0.062766165 0.019621462 -0.01998932 -0.037552822 -0.050506853
谁 -0.045486968 -0.02056319 0.014415754 0.00748739 -0.0047503547 0.0021642605 -0.022759026 -0.03505358 -0.019514948 0.016740695 0.003909612 0.05749215 0.053827923 0.008331313 0.011528257 -0.01216217 0.00055363536 0.0007714743 0.01226748 0.012294963 0.0054564103 -0.021850888 -0.0020061934 -0.044729806 -0.012917054 -0.009308963 -0.013283656 -0.053136937 0.0491054 -0.010890914 -0.009928986 -0.0573374
已 -0.03739734 -0.012523083 0.027119888 -0.0004597444 -0.008426315 -0.000853057 0.0011654414 -0.045884475 -0.021696357 0.023229653 0.01760427 0.037290234 0.047473878 -0.0032064926 0.015717749 -0.01633112 0.0035760861 -0.018990904 0.035191413 0.01962007 0.014537369 -0.0056237364 -0.01103031 -0.028845143 -0.019261392 -0.0046948176 -0.012615115 -0.05078651 0.04797735 -0.03262354 -0.035561837 -0.073937744
在 -0.049609963 -0.009751138 0.011610925 0.012365793 -0.003662789 0.018224474 -0.02123524 -0.045236275 -0.024712415 0.006761126 0.0056597525 0.026355697 0.04718476 0.0024480764 0.024017718 -0.020419283 -0.015199197 -0.014492094 0.01188512 0.0074396934 0.019115612 0.0005394592 -0.015492239 -0.015811253 -0.006894523 -0.00083135365 -0.01842812 -0.051384263 0.029737106 -0.0128006395 -0.029913396 -0.060752217
是 -0.042033724 -0.0013164913 0.009877566 0.019871471 -0.00420684 0.00442296 -0.013071006 -0.047932245 -0.028137118 0.021914985 0.012117953 0.02912547 0.052855726 0.0024435495 -0.002501619 0.004402555 -0.0028592069 -0.00032462014 0.015384538 -0.00785381 0.017454209 -0.0066323755 -0.012523234 -0.0319572 0.0008321512 -0.0104862945 -0.011881922 -0.04604154 0.013757406 -0.030754216 -0.032782596 -0.05780582
无 -0.031272497 -0.003148335 0.011589221 -0.0026667877 0.0047017536 0.024894431 -0.01448965 -0.031490244 -0.023793899 0.012480189 0.0039041636 0.040490348 0.03393216 0.010902386 0.017153352 0.0027457292 -0.00791545 0.002657771 0.010548477 0.0054203044 -0.0021752222 -0.020346215 -0.01282468 -0.012981558 -0.007026413 -0.002329881 -0.025252633 -0.044479053 0.040306877 -0.013614064 -0.012932422 -0.028995339
人 -0.01408323 0.0112633025 0.02351532 -0.0063771657 -0.017133422 0.00876577 -0.017852068 -0.02838145 -0.0102827605 0.01368832 0.008435705 0.009347892 0.011881097 0.0031796382 -0.008385096 -0.001994388 0.007954053 -0.016115634 0.019468185 0.012695336 0.011364051 -0.019779684 -0.004945069 -0.02580117 -0.002344897 -0.0026251643 -0.010111604 -0.034183845 0.0059644254 0.0017054951 -0.01746638 -0.030653339
来 -0.04096374 0.00055656885 0.0019885628 -0.0036713367 -0.017899664 0.022959199 -0.0031806463 -0.021396449 -0.0077561988 0.024544511 -0.005899027 0.045184493 0.04819785 0.005558892 -0.0034954222 -0.024409126 -0.0034244182 -0.00790455 0.028654478 -0.0012017913 0.013376162 0.0019229752 -0.0043109297 -0.02678906 -0.016401786 0.0026663337 -0.002243782 -0.021794751 0.008853403 -0.022390915 -0.027028607 -0.046919312
月 -0.03720067 0.006123346 0.019717317 0.013041176 -0.0029480972 0.023939067 -0.021441743 -0.03862408 -0.0072256327 0.030240221 0.014739275 0.04798783 0.04671623 -0.002377133 0.008564901 -0.018952983 -0.015104279 -0.019836122 0.023339227 0.006496499 0.006275457 -0.006423237 0.00039849215 -0.030005755 -0.003979688 0.0068318597 -0.012782957 -0.04804923 0.03917216 -0.018692091 -0.022832077 -0.04222085
中 -0.022447614 0.0121886 0.009338974 0.009752773 -0.010433175 0.0010370136 0.0018040931 -0.03311619 -0.0039610397 0.024540037 -0.00094646844 0.04330096 0.04309178 -0.0040025255 0.022305476 -0.005038331 -0.0041282806 -0.005021501 0.009858619 -0.003165723 -0.0039026502 -0.019912796 0.007493832 -0.025403664 -0.004387863 -0.015521959 -0.026816644 -0.017065324 0.018423859 -0.020970382 -0.018980125 -0.049115382
还 -0.028301712 0.009622879 0.02121222 0.003342408 -0.0029395153 0.012927381 -0.009335136 -0.025264435 -0.012394093 0.02636535 -0.0028152554 0.01921116 0.035175007 0.011255165 0.013982704 -0.013648472 -0.0014932815 -0.012309631 0.015906341 -0.0037368243 0.00970035 -0.0077181295 -0.0089991465 -0.022237627 0.0002309081 -0.004805862 -0.020581262 -0.01839084 0.015202272 0.0021792883 -0.0043993667 -0.021253482
不可 -0.0085115405 6.789554e-05 0.011041926 -0.006441769 -0.012981571 0.018295106 -0.020732982 -0.013582228 0.0019029329 0.0021844497 0.0023253462 0.0068100933 0.0335631 -0.0025337525 0.002196946 -0.0014016217 -0.006504962 0.0040875585 0.027011838 -0.0036515302 -0.008200736 0.0022941313 0.0077615934 -0.027437799 -0.0038556978 0.0035524603 -0.004758502 -0.012393222 0.01782729 -0.022721065 -0.02346205 -0.03579912
下 -0.010997781 -0.0005841577 -0.0068289484 0.0055394997 -0.015988331 0.003533623 -0.0016074852 -0.013728966 -0.009629038 0.01531387 0.01567136 0.03217606 0.019858602 -0.0067834994 0.019435953 -0.018400686 0.007881334 0.0037008268 0.022070216 0.006780474 0.0015433704 -0.003706163 -0.0014541774 -0.0028716575 -0.005696607 -0.0055921716 -0.017054752 -0.026883805 -0.0026046783 -0.016450036 -0.015382005 -0.024778472
吾 -0.017042562 -0.010760913 0.0038840426 0.0042855446 0.00637106 0.0070507033 -0.011911601 -0.0117437 -0.0075751245 -9.9386154e-05 0.007353098 0.019288152 0.019415129 -0.008652968 0.0063874894 -0.00668722 0.0011524509 -0.011252669 0.02140137 0.008401473 -0.0027765622 -0.01686364 -0.0040990287 -0.029243443 -0.009694335 -0.01304734 -0.0041729095 -0.028724989 0.018154439 -0.013945154 -0.013825913 -0.039157543
去 -0.017992962 -0.00042375224 0.021007802 -0.0033999283 -0.01225575 -0.00043879365 -0.019100405 -0.011025691 -0.0024353222 0.022984946 0.01753818 0.020514036 0.046504237 -0.0003224106 4.7359932e-05 -0.006060705 -0.011745306 -0.0147435935 0.011106794 -0.012157288 0.02424939 -0.0002653888 0.012814859 -0.006711326 0.009042485 -0.0124128405 -0.024086693 -0.0237306 0.01966496 -0.027423285 -0.004959135 -0.03601575
上 -0.035719387 -0.009456711 0.022062702 0.0010337685 -0.006662007 0.003052748 -0.015620501 -0.035930876 -0.010439025 0.02141971 0.012971334 0.010832503 0.034529015 0.007079238 0.020178918 -0.014309059 -0.010478081 -0.011444283 0.012046593 -0.007588585 0.015790585 0.0020885256 0.013028347 -0.007215938 -0.014504386 -0.006165008 -0.003417595 -0.036948375 0.008088175 -0.02382657 -0.012382941 -0.04332078
未 -0.005926744 -0.01004042 -0.006387397 0.0040776264 -0.013380244 0.008848913 -0.005159988 -0.016406653 -0.019339245 0.014275696 -0.010313374 0.004898011 0.025845714 -0.00045956046 0.015088039 -0.0042147883 -0.004445545 0.010872694 0.011313519 -0.0033898312 -0.0065037417 -0.0067042727 -0.0121571105 -0.026033012 -0.010863029 0.002193255 -0.009525813 -0.017077504 0.0034509676 0.00065364566 -0.010925549 -0.013382368
心 -0.00015427453 -0.0049133645 -0.004731759 0.007222161 -0.008155558 0.007580221 0.007814768 -0.008893567 0.008268841 0.0054030064 0.013255446 0.020643566 0.029500304 0.008104981 0.013152233 0.00580426 0.005348532 -0.0014499305 0.022362309 -0.00943438 -0.008864326 0.012399178 -0.004849744 -0.001428004 -0.004036152 -0.0077473726 -0.021999547 -0.009217781 0.013102541 -0.021318665 -0.00027024464 -0.02911501
道 -0.018011482 -0.014950529 0.011079144 -0.010505817 -0.0018572449 0.013943822 0.0019025747 -0.0043577515 -0.014125115 -0.005060152 -0.0026660508 0.017931832 0.026357789 -0.011403746 -0.0006170606 -0.0069307517 0.0073318575 0.011933466 -0.004723671 -0.006081307 0.018017832 0.011338696 0.0021407923 -0.004913337 -0.0036626786 -0.010308439 -0.023040336 -0.031930413 0.0071167415 -0.021139642 -0.018840699 -0.0037307704
多 -0.029840106 0.0015022302 0.0024673764 0.0017004065 -0.01721809 0.0074040066 -0.005350705 -0.023575254 -0.021128617 0.000403054 -6.66974e-05 0.029998645 0.027242647 0.0044536064 0.0023967645 0.0059197694 0.0022925744 0.0017838107 0.028907396 -0.004568234 0.017741699 0.004924897 -0.0022324342 -0.03232621 -0.01604643 -0.01676878 -0.016334785 -0.02877023 0.01976673 -0.025123995 -0.020391565 -0.018540373
见 -0.023033088 0.009892368 0.01903983 0.017635543 -0.013800892 0.018514907 -0.015792169 -0.03445734 -0.010357243 0.0036486152 -0.0058951867 0.021164076 0.03436898 -0.008632338 0.022331871 0.0041708206 0.009826992 0.0015375267 -0.001433557 0.013458819 0.022058401 -0.010518523 -0.013819882 -0.0037783352 0.00887423 -0.008129134 -0.0056189215 -0.031614218 0.005106582 -0.01327537 -0.023122704 -0.0128450245
日 -0.0156059535 0.009151626 0.02196057 -0.0056416965 -0.0049380944 -0.003442229 0.00054348056 -0.01690448 -0.022956312 0.007943373 0.015639361 0.018646786 0.029970597 0.0051397984 0.0029423463 -0.018899038 4.5576915e-05 -0.0021336537 0.0072639706 -0.006414627 0.020456517 -0.00028121157 0.0076240497 -0.025251979 -0.015503913 0.01169377 -0.017944323 -0.034204025 0.018553173 -0.008272986 -0.010464966 -0.03401278
如 -0.035661552 -0.009025381 0.02592318 0.012995196 -0.018687002 0.0073085763 -0.0037718308 -0.01603398 -0.014099728 0.01055511 0.003595753 0.027526578 0.020976465 0.016543122 0.00045558932 -0.014930715 -0.003407494 -0.014667265 0.02569251 0.01325126 -0.0011053211 -0.017690688 0.0066344813 -0.02243846 0.0036243529 -0.012266195 -0.026092317 -0.04083158 0.028556848 -0.020017415 -0.02424994 -0.041632082
暮 -0.002400911 0.012193058 0.0004719649 0.01929821 0.007993758 -0.0010110609 -0.017764289 -0.018543283 0.004778547 0.019183619 -0.009836359 0.025813479 0.006459281 -0.010984389 0.007053565 -0.0023612152 -0.0037002782 -0.0014082424 -0.0014215694 0.0033517536 0.000562886 0.00230133 0.008572985 -0.023540204 0.0020372947 -0.0032452764 -0.008542325 -0.01075256 -0.0016715116 0.0013838403 0.008230766 -0.010312674
皆 -0.00938305 -0.014478653 0.02277203 0.011886717 -0.0007889119 0.009027464 -0.013453013 -0.030015452 0.005580332 0.02148486 0.00020619179 0.03405846 0.02831948 0.00016980976 -0.006705309 0.0017724552 -0.015147742 -0.009902814 0.012705121 -0.007962347 0.005955512 -0.0046524494 -0.001821681 -0.02317516 -0.017005712 -0.018869175 0.0010979283 -0.008041317 0.02070083 -0.025472404 0.00062478875 -0.039745152
听 -0.012433835 -0.011868764 -0.00397843 0.017383013 -0.020220118 0.016539788 0.005647407 -0.030661445 -0.009642073 0.015867932 -0.003558977 0.015062989 0.030456765 -0.00024253 0.018335355 -0.008022525 -0.013292435 0.00982452 0.0014521661 0.017673055 0.004654111 -0.007414727 0.008311954 0.00056649535 0.01234533 -0.011156149 0.0008895142 -0.012328605 0.027020361 -0.018446937 -0.0017137311 -0.027773317
之 -0.022390403 -0.015863838 -0.004410597 0.016485974 0.009777326 0.012089602 -0.019668456 -0.007222604 -0.0042655733 0.021979066 0.003642298 0.0272085 0.011562351 0.016639203 -0.0004821661 0.0013324894 -0.004354188 0.008660262 0.003539756 0.005874202 -0.0013156823 0.0015993528 0.010477239 -0.0074909306 0.0061237914 -0.012924348 -0.015479653 -0.02283645 0.02638948 -0.010444196 -0.012094473 -0.034771383
知 -0.008845291 -0.0012403552 0.001893078 0.00087018765 -0.013461777 -0.001926467 -0.0047927485 -0.0022016126 -0.0014229977 0.024547355 0.012329547 0.024058798 0.024191163 0.0111954985 -0.00039471392 -0.010199397 -0.012657677 -0.010314537 -0.00016973342 0.0040150965 0.014783402 -0.011039362 -0.0066836793 0.0013632551 0.010268786 0.011367417 0.0044831675 -0.012668733 0.015117788 -0.0033417197 -0.016135897 -0.03290926
更 -0.002167365 -0.01394188 -0.0038186258 0.004509682 -0.011431197 0.016875107 -0.00010780785 -0.005825509 -0.00870646 0.012972755 -0.005687753 0.0122695435 0.018928807 0.014540907 0.019300105 0.006638487 0.0055060103 0.0010477558 -0.0069109346 0.0062362505 -0.010173904 0.010179408 0.00013462592 -0.018531734 -0.006529131 0.0054567666 -0.023296311 -0.02935362 0.013549505 -0.021459205 -0.021052565 -0.0036680566
同 -0.0142415725 -0.002666237 0.01473375 -0.00031764456 -0.0004387196 0.0036154513 -0.0069526555 -0.0018213389 -0.0036478073 -0.0058228616 0.006691251 0.02454257 0.015705599 -0.014015145 -0.0015769862 -0.0021598146 0.010822777 -0.0064589884 0.016036758 -0.014525439 -0.004439828 -0.0029281427 0.0061447695 -0.010733326 -0.007202137 0.0024004348 -0.002570229 0.004699345 0.019811654 -0.014784169 -0.0047867354 -0.0200285
久 -0.02338788 -0.0145545555 0.008900348 0.0006939081 -0.009897696 -0.00035842138 0.0077295387 -0.001427964 -0.02000403 0.024929708 -2.8211904e-05 0.0148360245 0.014892811 0.00029727028 -0.0051453593 -0.007877918 -0.003952862 0.009552463 0.022200117 -0.010803644 0.00758169 -0.014048889 0.014789511 -0.0029512658 -0.007433423 -0.0011216303 -0.014311446 -0.0036544332 0.028002407 -0.019062607 0.0014611603 -0.035082813
年 -0.013533001 0.0026657488 -0.0013031326 0.019207872 -0.0060264873 0.0062535536 -0.007186991 -0.011375851 -0.003609163 0.021158163 0.013275143 0.03426656 0.029969439 -0.004255284 0.013834431 -0.021806436 -0.010307824 -0.0034286252 0.024638178 -0.008025375 0.0068130577 -0.014060007 -0.011590309 -0.024787212 -0.010244683 0.00087902194 -0.012452747 -0.022534145 0.023781048 -0.017813222 -0.014302234 -0.020336771
出 -0.00184012 -0.00088907906 0.0051864358 0.0018287293 -0.007801158 0.006734546 -0.016161399 -0.016057987 -0.00052467093 -0.005287796 0.012190388 0.004547929 0.026712017 0.010942012 0.013065184 0.002273597 -0.014239433 0.007265969 0.021024821 -0.0034692767 0.013108237 -0.005583726 0.013448816 -0.005703817 -0.016239436 -0.00045332607 -0.018697487 -0.011851701 -0.0038154288 -0.011244469 -0.015738374 -0.004931275
岂 -0.006926917 -0.010881969 0.006658877 0.01184125 -0.0137928575 0.010746181 0.004693093 -0.008647287 -0.0010559293 -0.0013125902 0.0034056734 0.013146399 0.035231143 0.0119245 -0.0033680098 -0.017457735 0.012704058 -0.0015894292 0.000195513 -0.005074637 -0.008289508 -0.017063921 0.0132991355 -0.029269934 -0.012718634 0.009284911 -0.024458878 -0.011629238 0.0013226888 -0.0055114934 0.006453947 -0.019786553
远 -0.0013679551 0.007844365 0.013436142 0.015204794 -0.0166199 0.0010703242 -0.019837538 -0.012479975 -0.005921487 0.0040369593 0.011554032 0.024243925 0.03290654 0.010089952 0.012768329 -0.016350687 0.015732199 0.008045696 0.01668394 0.00451712 0.0071039675 -0.0004670235 -0.0017633442 -0.012530497 -0.007988441 -0.0068402984 0.0036785775 -0.0018224925 0.021014377 -0.009585857 0.0077614076 -0.020702565
君不见 -0.02378761 0.012844195 0.008795568 0.012956579 0.0014222255 -0.006356501 -0.016348878 -0.0008043895 -0.008857438 0.016937679 -0.007845761 0.01855142 0.031350564 0.00200971 -0.0004962736 -0.0053249085 0.0014778759 -0.00089980516 0.022073425 0.0017488521 -0.005677732 -0.005149565 -0.0062258625 -0.0092508 0.00026429427 0.010987182 -0.0056084837 -0.016350374 0.006111533 -0.0032973192 -0.0063547543 -0.021550804
前 -0.005295416 0.011888588 0.018766256 0.01673783 0.0008116023 0.0122751305 -0.012385476 -0.016855074 -0.011358354 0.0066184397 0.014386624 0.0066837585 0.032563463 0.0022749004 0.004722429 -0.0008531492 -0.007741627 -0.019003449 0.016191449 -0.009366609 0.01847349 -0.01736355 -0.0009326521 -0.01209821 -0.013717667 -0.016385358 -0.00046994252 -0.0044781743 0.011050968 -0.0029779568 -0.010952367 -0.0047678975
事 -0.016424885 0.0059864027 0.017540844 0.006267277 -0.011225052 -0.009730784 0.0103722615 -0.006841928 -0.014840196 0.0062453942 0.015901212 0.004520397 0.020398522 -0.004482547 0.010634386 -0.020669125 0.006116645 -0.0014601286 0.007339702 0.01109788 -0.0070374203 -0.006413693 0.006924067 -0.018828334 0.0020565006 0.012437924 -0.0071559725 -0.0049310047 0.011696006 -0.02022969 -0.0024255426 -0.012795505
地 -0.017168244 0.009495423 0.015917553 0.015493131 -0.0054609994 0.006955656 0.009339988 -0.020212624 0.001336538 0.01295063 0.00996432 0.012473171 0.018079573 0.0051066834 0.00675698 -0.018049445 -0.013280545 0.0028198624 0.009276587 -0.0034288513 0.006499181 -0.0119234575 -0.013026118 0.0013998236 -0.004997891 -0.012050049 -0.011021641 -0.0034733731 0.019127838 -0.010101488 -0.005915586 -0.021558713
云 -0.01610304 0.0043829284 0.01824775 0.009457592 0.004836147 0.010963869 -0.0052331453 -0.021172669 -0.004222792 0.0019685691 -0.00076628535 0.028340185 0.024107836 0.008481946 0.016859498 -0.013571382 0.00058278744 -0.012621884 0.020426575 0.012054707 0.0025172515 -0.009294613 -0.0055240914 -0.014477735 -0.0043085837 -0.014511818 -0.016638873 -0.031671107 0.008103182 -0.024795383 -0.015881153 -0.03391584
深 -0.0153582245 -0.016962659 0.00561228 0.014284633 -0.015294685 -0.0033297578 -0.01945273 0.0033684906 -0.003428163 -0.006541185 0.004687938 0.028773095 0.023514148 -0.002942833 0.0022319204 0.008511679 0.013109669 0.0083134975 0.020912748 0.0021612942 -0.002055971 -0.015706992 0.01523612 -0.0032544043 0.011160341 -0.010484461 -0.0042012604 -0.013604394 0.020204937 -0.014560149 0.0041468376 -0.008326221
死 -0.014190863 -0.0019494469 0.0047486955 -0.006344176 -0.012954094 -0.0013936682 -0.017110987 -0.026022375 -0.012479001 -0.004445315 0.005025887 0.005290069 0.007920692 -0.0070070345 -0.003721307 0.002354054 0.015487273 -0.018793061 0.024594743 0.015062458 0.012925403 0.0050572474 0.015686866 -0.01403283 -0.009881046 0.0026444527 -0.0103399325 -0.0056406916 0.020935778 -0.017596671 0.004318947 -0.011198322
旧 -0.02565589 0.010613752 -0.0015343768 -0.0019151325 -0.009482237 0.0024296923 0.0049909954 -0.006068964 -0.00038397912 0.010931407 -0.008144374 0.023536192 0.02106716 0.012530433 -0.001853643 -0.00520611 0.0063223005 -0.014348171 0.012422856 -0.0024032686 0.0202103 -0.0054724077 -0.013034548 -0.014706469 -0.0056563173 0.009138766 -0.0037622298 -0.0062387143 0.010554382 -0.01343107 0.006066455 -0.024949076
都 -0.018153846 0.00090911903 -0.009326114 0.0066524493 -0.010766292 0.014335023 -0.016152905 -0.006379281 -0.011115293 0.002995981 0.008540495 0.012115273 0.011422463 0.01276815 0.0014319257 -0.006381234 0.010362455 -0.005762538 0.013294675 -0.009340011 0.013982688 0.00014109403 0.0006324932 0.0025802555 -0.016264996 -0.0061981436 -0.0075920834 0.0019188024 0.014858179 -0.017193286 -0.0055451603 -0.011180333
寒 -0.0065232553 -0.0093707945 0.015736565 0.016194005 0.006251762 0.0154705765 -0.008632288 -0.017293066 -0.015630526 0.020163015 -0.0025621515 0.009193609 0.008728318 0.011743728 0.0019452642 -0.008525903 0.013412025 0.006168036 0.0005248397 -0.008771626 0.0051612407 -0.0030766304 0.011255269 -0.020333936 -0.011860028 0.013391391 -0.012134103 0.0027093994 0.017051449 -0.014725729 -0.019048914 -0.0045483303
不知 -0.024760295 -0.0073983823 0.0061839675 0.01638567 -0.003011314 0.0036622956 0.008558407 -0.005717448 0.002831709 -0.002749455 -0.010382165 0.000749461 0.02544219 -0.007766398 -0.009665775 -0.017950308 -0.013704686 -0.01811355 0.008074445 0.0031970316 -0.0070153703 0.0018444326 0.00845318 -0.020679513 0.0036413753 0.011336453 -0.019929016 -0.023288073 0.017395979 -0.018729176 -0.0076670125 -0.019173512
回 -0.009398903 -0.0018340764 0.0021244187 0.009346373 -0.0042777676 0.0068667335 -0.014967321 0.0041733226 0.003481205 -0.00012876854 0.009410778 0.012535853 0.015142785 0.012475666 -0.0034696402 -0.0074312985 0.0019535369 -0.0011699498 -0.0038947826 0.011783595 0.017080892 0.008388409 0.012863252 -0.0062460015 0.0045689396 -0.015066177 0.00916092 -0.011752711 0.0066849724 -0.009279882 -0.0043909363 -0.019491429
对 -0.008470054 -0.0088951 0.0026554803 0.00565967 -0.012498862 0.016089797 0.01291815 -0.015674045 -0.012632557 0.007129506 0.0074196076 0.0168697 0.008183299 0.014089951 -0.0063471375 0.0063515813 -0.0052042906 -0.0060546887 0.003586922 -0.011618306 0.005814288 0.011389964 0.0046769823 -0.016375812 0.0010859148 -0.010826589 0.008257543 -0.019356076 0.020894289 -0.0012635005 -0.018161459 -0.0048594205
主人 -0.018408163 -0.016872255 0.014119709 0.01796786 -0.0061451183 0.0089392 -0.01263609 0.0033273892 -0.004861292 0.0024696977 0.0021473127 0.0057227765 0.024371019 0.008005402 0.0054375185 -0.017880926 -0.008507115 -0.008867458 0.011165853 -0.0029103365 0.012839701 0.0010211797 0.009978603 -0.019955855 0.0006266576 0.0060547283 -0.0124815935 -0.018678643 -0.0007428926 -0.008492377 -0.013281517 -0.01006193
醉 -0.021348543 -0.0072968164 0.01887451 -0.0025685646 -0.0019874945 0.013078718 -0.0047092964 -0.014646673 0.0035131553 0.0043951613 0.01081197 0.00089117046 0.01846891 0.010589898 0.017097093 -0.0073588965 0.009098688 -0.0027687605 -0.009033585 0.012225326 -0.008552464 -0.013432784 -0.001138571 -0.008669138 0.0024404838 -0.0014084439 -0.013482975 -0.011883648 0.0070453943 -0.019708134 -0.013862975 -0.0133106
何 0.00078680244 0.012511718 0.00047599294 0.00439337 0.00852193 -0.010346041 -0.01837373 -0.013444071 -0.0005878432 0.007623169 -0.0013610546 0.0022232109 0.014091735 0.012516032 0.0005584065 -0.014691536 -0.0012102502 0.010872143 0.0065361722 -0.006262715 0.012259887 -0.011931415 0.0010317485 -0.00093693857 -0.010037636 -0.0076834997 0.0017849018 -0.0012451658 0.01877327 -0.0048198714 -0.003208515 -0.016226728
开 -0.0192408 -0.015616391 0.016991518 -0.0057208207 -0.020275192 0.01706984 -0.00041188239 -0.01145048 -0.010894902 0.011768341 0.004651663 0.021944253 0.033270538 -0.0069420454 -0.006301154 -0.0055127977 -0.0072851167 -0.016089428 0.012904664 -0.00254702 0.008197646 0.006628743 0.0070662536 -0.0020433548 0.002682397 0.0007537254 -0.023660967 -0.015046881 0.008738892 0.00065744336 -0.0089641325 -0.0115730725
坐 -0.00972395 -0.0016193353 -0.0040466283 0.010636872 -0.019148061 -0.0021443532 0.0034221527 -0.00737224 0.0028014942 -0.0018296391 0.014325665 0.0075271083 0.013016699 0.012624072 -0.007896849 -0.015220849 0.011333556 -0.0025094603 0.024846809 0.0058955476 -0.0056433673 0.0028314826 -0.015892187 -0.014467319 0.0018019277 0.00056000357 -0.01900366 -0.01869599 0.0049185846 -0.0071344567 -0.020448186 -0.035228312
里 -0.013588556 -0.0043524974 -0.0020772712 0.0059756753 -0.007652315 0.013916994 0.00503275 -0.0026521182 0.010031869 0.013024598 -0.009099964 0.012231146 0.003350596 0.012870137 0.015485096 0.006683241 -0.00496612 0.0044168225 0.0072256005 0.0030645633 0.017858533 -0.005054274 0.012074425 -0.021174088 0.0046438673 -0.006886605 0.0055599716 -0.017589532 0.017480258 0.008494013 2.885882e-06 -0.0060887295
春 -0.013434019 -0.009146836 -0.010123777 0.009738789 0.011925349 -0.007972152 -0.012432288 0.00094864314 -0.001599355 -0.0039853076 -0.012415718 0.007842804 0.012542914 0.002156157 0.004179979 -0.017516026 -6.580192e-05 -0.011605309 0.0026390706 0.0026286591 0.003401045 0.010183817 -0.009913216 -0.0073036444 -0.012360965 0.011461841 0.005005771 -0.018705107 0.002659874 -0.013687676 0.0016963347 -0.015510235
却 0.0030658399 0.011302264 0.005160051 0.009642827 -0.011880369 0.013994265 -0.007342704 -0.019452484 -0.014240775 0.007732177 -0.012321487 0.0066001615 0.0058780354 0.00885796 -0.0023573746 0.009826981 -0.014178674 -0.008218144 0.010872641 -0.011516762 -0.0063207084 0.010749141 -0.0008152811 -0.0035266853 -0.0110700745 -0.011280568 -0.0047860933 -0.028470023 0.017299823 -0.0060554654 -0.009352077 -0.022718744
欲 -0.0060064285 0.009420346 -0.0022402788 0.001793396 -0.012853689 0.0018646864 -0.012430872 -0.00094113755 -0.015882054 -0.0028526327 -0.0029689488 0.01739677 0.023387546 0.013700692 0.018994633 -0.018507509 0.0042913835 0.0013651452 0.014526591 -0.0058932053 0.010217121 -0.012788052 0.009817138 -0.014895653 0.009907011 0.005042267 0.0029598663 -0.030341255 0.016968418 -0.0052605057 -0.020917954 -0.019832084
罢 -0.016683707 -0.0022361611 0.0110952435 0.012595056 0.008959171 -0.0026358762 -0.0036792185 -0.028172418 0.0006282767 0.004983078 -0.007165846 0.020720074 0.024928737 0.015424103 0.00744715 0.0099711325 -0.0039565912 0.0020827937 0.007988022 0.0020457453 0.01955198 -0.008324068 -0.0051867687 -0.023474345 0.009885892 -0.014364729 -0.010090582 -0.021047132 0.0150460275 -0.014823411 -0.0060444325 -0.029118871
故人 0.00035377662 -0.015478623 0.0060373317 0.0029219033 -0.018722016 -0.00639073 -0.018026235 -0.009216077 0.0044249147 0.010994249 -0.012369036 0.025904192 0.02951355 0.009859353 0.015490175 -0.002664528 -0.0056208493 -0.017885597 0.0043706293 0.014480513 0.0008538901 0.010996675 0.0066266665 0.0002844581 0.007559933 -0.013449691 -0.010835634 -0.028358957 0.014447339 -0.007233799 -0.0006988818 -0.015799312
白日 -0.016142568 0.0043616444 0.013830224 -0.0047036908 -0.008794299 -0.010649371 0.0015560215 0.004020894 -0.012510287 0.0016721861 0.009474454 0.02741626 0.009146096 -0.009179512 0.009219015 0.008663094 0.012790554 0.0058699236 0.0026306058 -0.004141983 0.016218388 -0.01678024 -0.0036375744 -0.0046027103 -0.014579268 -0.009140473 -0.0039749425 -0.017290244 -0.004427003 -0.015970875 0.0032319862 7.144541e-05
归 -0.025138829 -0.008387382 -0.005496201 0.0011989278 -0.011827883 0.008608917 0.010674545 -0.004424448 -0.010682941 0.0104676075 0.010410496 0.0028022355 0.029472854 0.012550309 0.003944349 -0.012132834 0.011962428 -0.014915297 0.023040755 -0.0022023555 -0.0090729995 0.008495253 0.0064171017 -0.015278587 0.0044057523 -0.00015098507 0.0070037073 -0.008144067 0.023708802 -0.010303927 0.0067746243 -0.011067065
望 -0.004976687 0.0030122136 0.007288246 0.011683921 0.0036316405 0.0033949367 -0.002155197 -0.008630011 0.0008365985 0.016166924 -0.006537427 0.0028969527 0.0004403319 0.007813785 0.011042546 0.0032739402 -0.007040527 -0.0016234809 0.020219289 0.010117561 -0.0087222885 -0.0054231123 -0.011103637 -0.00021491617 -0.006363854 0.0048378995 -0.010368489 -0.019951323 0.01639477 -0.021755349 -0.020043839 -0.002783678
何处 -0.00587713 -0.011629003 0.0128696 0.0120685585 0.0043873857 0.01282198 0.0033796635 -0.021688309 -0.013949639 0.0008680937 -0.0032781297 0.010069031 0.019974966 -0.00015743964 0.0018367927 -0.00550701 -0.0008544449 -0.013980144 0.022457507 -0.002542827 0.010464015 -0.006287494 0.013513029 -0.0032465372 0.0006942649 -0.008790601 -0.0066116075 -0.0031563647 -0.002718213 -0.018277777 0.0046086824 -0.021538818
至 0.0005688618 0.013476824 0.012435947 0.015963335 0.00021870542 0.005440961 -0.017470859 -0.018362975 0.0045002 -0.00672451 -0.012493228 0.01225427 0.0006199175 0.0076992167 0.0032486122 -0.009775339 0.0027345088 0.0065310746 0.011789917 -0.013574352 0.015488643 0.0031058302 0.006875226 -0.0091476 -0.00180491 -0.010844565 0.0052138404 -0.011611855 0.007847994 -0.0016526406 -0.016820781 -0.016252875
得 -0.0071282773 -0.013811028 -0.0065581435 0.018326556 -0.018445944 0.004696997 -0.016425107 -0.008190605 -0.017922305 0.01807017 -0.0023463997 0.016076611 0.0074680313 -0.01341494 0.01857264 -0.0078109656 0.014973104 -0.0034240428 -0.00077676796 0.012269187 -0.0020599868 -0.014009676 0.0034531257 -0.0040275403 -0.016302956 -0.0061470885 -0.015338589 -0.020106578 0.017410982 -0.005452126 -0.018532028 -0.0011483855
才 0.0019302707 -0.011505499 -0.0016133082 -0.009145195 -0.00019007262 -0.004547181 0.0048670056 -0.026287412 0.0051621166 0.0032165921 0.015730822 0.013814786 0.027327318 -0.013054728 -0.009912243 -0.016550269 -0.003080202 -0.013541037 -0.003320657 0.0032106226 0.0046556783 0.0057982136 0.010844279 -0.019508896 -0.016809568 -0.0041841515 -0.0073260437 -0.02577912 0.023587957 -0.018175337 0.002166426 -0.005099239
时 -0.014688392 -0.01229727 0.016210498 0.009582622 0.0019557218 -0.0031545649 -0.0073512127 -0.024084143 -0.0043292735 0.0028623668 -0.001968013 0.007975066 0.003107269 0.012973264 0.0060576885 0.004888741 -0.0019027229 0.004090079 0.008591019 0.00062301825 0.01868869 -0.009356712 0.0115399035 -0.0017908165 0.007855191 0.007977706 0.0059717353 -0.007074081 0.023310665 0.0043709353 -0.011414048 -0.024182348
不见 -0.017988514 0.00057613 0.012443289 -0.00039545543 -0.00066738675 -0.007906955 -0.00063054246 -0.012240536 -0.0066481843 0.011667892 -0.009971834 -0.0042487425 0.001212487 -0.014022861 0.011559889 0.0107505685 -0.008070261 0.0044688717 -0.0018441074 -0.0040390375 -0.00045681655 -0.009662812 -0.0006139346 -0.018898385 -0.009086472 -0.007702894 -0.0086532645 -0.005055796 0.020617958 -0.0067464723 -0.01777792 -0.001838608
万里 0.0025537445 0.008132225 -0.0030960026 -0.0024629086 0.009211623 -0.008639973 -0.006923014 0.0003893357 0.008929312 0.008463986 -0.0113762645 0.0029500267 0.011462935 -0.011736661 0.017183986 -0.012905612 -0.0146781625 -0.015336059 0.007467749 -0.00023834073 -0.0009305672 -0.002118698 -0.003938911 -0.0046483525 0.00288751 -0.013092355 0.007941781 -0.024220543 0.0007310123 -0.021756127 0.008409025 -0.024940547
但 -0.017902026 0.0062958547 -0.0016250061 0.01027842 -0.0067862496 -0.01060745 -0.012616092 -0.018997304 -0.019150592 -0.00058395823 0.012787387 0.027469274 0.028361298 -0.012392362 -0.008426477 -0.014207211 0.011562957 0.0043584877 0.014233462 0.009245637 0.00093296735 0.0006850122 0.0021971874 -0.024102887 0.0064902385 0.009957745 -0.008551286 -0.027357714 0.003963519 0.0012796072 -0.019626642 -0.0207256
飞 -0.020052163 0.003844365 -0.004728966 0.016501281 0.007700509 -0.010337251 -0.0063413596 0.0014319832 -0.00424973 0.015514812 0.0062288404 0.012011106 0.016696556 0.008324499 -0.0078123356 -0.0143568795 0.013382634 0.010243367 -0.0032018267 -0.010997879 0.0019473048 -0.007847162 0.00032464956 -0.011010396 0.012272225 0.003954246 -0.021378044 -0.0007035073 0.0016035505 -0.009916669 0.007154476 -0.028760063
高 -0.0138957435 -0.01345814 0.0074172947 0.0026287886 0.0123683065 0.016323974 -0.00642048 -0.014872568 -0.011311377 -0.0011340643 -0.013677579 0.007572156 0.009044488 -0.014673681 -0.0034717743 -0.009219653 0.0041577057 -0.0030121861 0.012268027 -0.005495659 0.014708621 0.0012038855 0.013059138 0.008279004 -0.003616182 -0.01342409 -0.011983352 0.006671743 -0.007525646 -0.01913705 -0.00051439053 -0.016779283
将 -0.026288496 0.006589479 0.003765314 -0.0013438722 0.0115807215 -0.0029915827 -0.01773784 -0.026996303 0.0038833653 0.0028104277 -0.013851916 0.016654396 0.010206469 -0.014100046 0.008128752 -0.014823148 -0.009793329 0.0011788359 -0.0019540077 0.005992904 0.013141895 -0.012163751 -0.01008239 0.0043408917 0.010415687 0.0005962568 -0.016049318 0.0011492419 0.0024917077 -0.02276046 -0.009509037 -0.02660916
行 -0.012286041 0.005308937 -0.0022098292 0.012773199 -0.016843947 0.0058599063 0.0107235 -0.0043676645 -0.0021017268 0.013531436 -0.009428294 0.023569154 0.016284943 -0.014784833 0.014969716 -0.01844083 0.0019993267 0.0064759827 0.0021866115 0.014209785 0.018677272 -0.0089472635 0.0055421907 -0.005688171 -0.01594704 -0.012300317 -0.01108302 -0.025551487 -0.00789038 -0.014533723 -0.008714975 -0.025554152
且 -0.00717573 -0.0050354647 0.0029831259 0.0019610683 -0.015536804 -0.004798646 -0.0059665465 -0.005612126 0.0031646264 -0.0052550794 0.0067980387 0.0022305315 0.022295183 0.013115907 0.004043944 0.0073366584 0.008436246 -0.0023191513 0.0045018937 -0.011815954 -0.008713019 -0.0048891082 0.010141954 -0.022990583 0.002302741 -0.009323246 -0.011022778 -0.000341936 -0.004991315 0.0035825355 -0.021042867 -0.021178227
生 -0.021189982 -0.006744899 0.018014643 0.003327227 0.0030277332 -0.010063948 -0.0101818815 -0.0035485516 -0.009826606 -0.0048402646 0.00034365046 0.021463215 0.004095063 -0.014478475 0.00560553 -0.0022138648 -0.00053258863 0.004072599 -0.00719049 0.009970007 0.009193596 -0.006774926 0.013684617 -0.0218446 -0.0082435245 -0.007584248 -0.008829278 -0.022082375 -0.002963772 -0.019920416 -0.01253365 -0.0140499715
妾 -0.0050500995 -0.009648653 -0.009843419 0.0014464053 -0.0041659893 0.0073248325 -0.017497087 0.0002483937 0.010332659 0.0038454048 0.0049596876 0.01724881 0.017003426 0.012521745 0.018189348 -0.01598659 -0.0058415695 -0.0036045578 -0.00087955757 -0.006526352 0.017360458 -0.00011741992 -0.014863291 -0.022519697 -0.0093102725 -0.008501783 0.009742311 0.0051259506 0.012843534 -0.020406527 -0.0009454179 0.0035606571
春风 -0.008475797 -0.0010442556 0.01157638 -0.004221185 0.0039728037 -0.00580558 -0.013956216 -0.018472847 -0.00030800543 0.0152144255 0.002390311 0.0059466334 0.0008701252 -0.012106691 -0.002945002 0.009850436 -0.0033570463 0.0130912755 -0.006715177 0.0010389114 0.0007483584 0.0011674783 -0.0020638064 -0.003428436 0.009068667 -0.013673497 -0.0155044645 -0.010877769 0.021771196 -0.008405302 -0.0125671355 -0.024175487
起 0.005132079 -0.002485041 0.0060750875 0.0029516853 -0.010964924 0.015568927 0.01126704 0.0061895954 0.010038477 0.003915078 0.01250035 0.021092992 0.011035875 0.00446239 0.0049070925 -0.011557224 -0.003251533 0.0077689355 -0.0049608294 -0.0030688439 0.0022962163 0.0008384941 -0.006904196 0.003344603 0.0012569217 -0.0114549 -0.016598754 -0.00313124 0.018979767 -0.017424276 0.008694661 -0.006909363
可怜 -0.0021025243 0.0030615192 -0.0054399227 0.018013688 0.0057436735 0.012755401 0.0021622952 -0.011979909 -0.008506698 0.0005722351 0.01447636 0.0045722625 0.02488184 -0.009312271 0.017703017 -0.017148556 -0.009705158 -0.009593073 0.02118257 -0.007670752 0.006007509 0.002945013 0.0013238329 -0.01014751 0.0051818467 -0.0024969508 -0.014027719 -0.011062322 0.02309772 0.0026587697 -0.016959425 -0.02808692
间 -0.022730442 0.010341528 0.014841746 0.014568432 0.010212004 -0.00988314 -0.014708504 0.0016751069 -0.018684492 0.002490656 0.0075780917 0.0015919541 0.016546551 0.016039422 -0.011687314 -0.012018666 0.014396438 -0.011632233 0.014900262 0.005422981 0.0038125783 0.0027740875 0.0034194873 0.007596755 -0.01314532 -0.005856228 -0.014290471 -0.024652151 0.014219202 -0.011826591 -0.0020768237 -0.016072549
美人 -0.010515752 0.014209191 -0.008623463 -0.0050674705 0.01154499 -0.010777891 0.0024144056 -0.018732512 0.0034038683 0.012085557 -0.0078605525 0.0038968546 0.02099571 0.0073694624 0.006793696 0.0068478123 0.014018616 0.011329162 0.017664678 0.0075717545 0.0054278667 0.00081976934 -0.010353771 -0.011081514 -0.005785503 -0.0028173926 -0.015833762 0.0009805202 0.0057728947 -0.011243004 -0.01938933 -0.018366124
乃 -0.015039437 0.0032363583 0.0190428 0.012322377 -0.01608143 0.012590248 0.0065198247 -0.012499473 -0.015311445 0.02134086 0.008587179 0.014562127 -0.0009998509 0.0024663794 -0.0046157185 0.0030578559 -0.0137796635 -0.017921126 0.01709563 -0.012894025 0.014221762 -0.004920074 0.008797959 -0.020506749 0.005793477 0.0031947107 -0.020536503 -0.001223328 -0.00016052261 0.005461292 -0.010069268 -0.010572566
西 -0.012594265 0.0038527045 0.00468829 0.0051997653 -0.012296709 0.011882836 0.010207495 -0.0005083336 0.003381973 -0.001503664 0.0070283283 0.022524746 0.017381655 -0.0019899532 -0.004700652 0.008561578 -0.009215531 0.006862079 0.011597912 0.005947461 0.014061475 -0.0017006778 -0.008189255 -0.01417063 -0.014937001 -8.3844076e-05 0.0020383263 -0.020443933 -0.004049988 0.0011731853 -0.0011516501 -0.013970263
高台 -0.0059721596 -0.011003626 0.011311768 0.0119564915 -0.002956177 -0.0010085454 -0.011537577 -0.0033423004 0.008653257 0.0012945366 0.007090591 0.0049844678 0.0016330774 0.00901582 -0.00564404 -0.014762546 -0.0012497514 -0.015468141 0.013255742 0.010525067 -0.012753965 -0.0123076895 -0.013965257 -0.01801936 -0.009500074 -0.009108457 -6.064956e-05 -0.0050938353 0.015346167 0.0044083386 -0.009016298 -0.00027368462
度 -0.01100793 -0.0053963265 -0.0075205034 0.010696667 8.702564e-05 0.0080395965 -0.008085708 -0.014818481 0.0078032324 0.004749038 0.0036560344 0.0026164914 0.009970191 -0.0022411314 0.0046671196 -0.015217001 -0.002571358 0.008251512 0.017539622 0.014891961 0.0080781495 0.008041311 0.005269489 -0.020674957 -0.012119092 -0.011634396 0.0019633777 -0.011390811 -0.003826364 -0.015724124 -0.005928063 -0.0049914024
邑 -0.013732094 -0.004090967 0.018246898 0.0020938416 0.013242162 0.0033270966 -0.017277954 0.008501873 0.011468258 0.004287848 0.011731249 0.013176902 0.0016051304 -0.0076791253 -0.00815562 -0.0035642947 -0.014414468 0.0077745933 -0.0069820937 -0.0023438032 -0.0030285288 0.008312712 -0.01040917 -0.0028606383 0.0122135505 -0.0032351022 -0.009626062 0.0044580223 0.007277548 -0.0059826165 -0.0018983632 -0.024665765
江山 -0.009753062 -0.006811571 -0.005147815 0.010179353 -0.015758768 -0.00017547634 -0.011061535 -0.001723834 -0.0146439895 0.0126498975 -0.010886237 0.029096875 0.023861354 0.013702283 0.01780753 -0.008216359 0.0042630807 -0.0076725273 0.013895782 0.0059595746 -0.0013731436 0.001820556 -0.0037918405 -0.0075788293 0.004904398 0.0075164987 -0.021620614 0.0010342916 0.0027279167 -0.018355383 0.005446717 -0.02797804
自 -0.0150154205 0.00044560982 -0.003463682 -0.011552816 -0.0040975213 0.0031249416 -0.0028267354 -0.007627633 -0.01811284 0.0006441298 0.014624692 0.014820373 0.021990087 -0.008609062 0.014669493 0.008535431 -0.012491568 -0.0072352933 0.0027948623 -0.010087698 -0.008404957 0.011807155 -0.015358486 0.00024757264 0.012393003 0.0014681901 0.00910726 -0.016103713 0.022900132 -0.020743467 -0.00854959 -0.022566754
能 -0.024897665 -0.0031282308 0.0037501247 0.008597303 0.010012148 0.0085320035 0.0077746734 -0.02114572 -0.008345955 0.013934616 0.0030035991 -1.988042e-05 0.005104449 0.0072017848 0.018250082 -0.0036770492 -0.0063954373 -0.008171973 -0.006967248 0.01497064 0.008046685 -0.009883095 0.0077732876 -0.012242365 -0.005974135 -0.005295869 0.0056172917 -0.009117666 0.024078093 0.005917639 0.005332818 -0.014362649
恨 -0.009425339 -0.003137238 0.008902881 0.012605049 0.004327147 -0.012095293 -0.012334676 -0.0058147935 -0.0007577116 -0.00070775166 -0.003102828 0.025543407 0.016324032 0.0047341376 0.0024473162 -0.0021825116 0.010664996 -0.0005574834 0.010605712 -0.0027333423 0.010894339 -0.012677106 -0.009622017 -0.002295819 0.009559619 -0.01433152 -0.01231258 0.0006226586 0.0054311487 0.00798253 0.009379808 -0.017626062
竹 -0.023195092 -0.010259983 -0.008518766 0.0025600768 -0.0012970839 -0.006143765 0.0017440283 -0.027057674 -0.015531037 0.013051811 0.00234851 0.0069708247 0.013157261 0.012640235 -0.0040185396 -0.01063537 -0.003004695 -0.0011105146 0.011129936 -0.000872904 0.011392266 -0.0056041116 0.010137512 -0.02031199 -0.0051869205 0.0047365525 -0.014643121 -0.0040807077 -0.0021963618 -0.016122106 -0.00986594 -0.030921288
可 -0.0023607793 0.004174979 0.009649719 -0.0055545787 0.00076547574 0.0081934985 -0.005210674 -0.004812254 0.0070902808 -0.0016448722 -0.0071537537 0.02811616 0.019217378 -0.00502473 0.0009599209 0.0034922939 0.013937964 0.0077806897 0.019186284 0.011323628 -0.0049603595 -0.0094729625 -0.011444751 -0.01616009 -0.010515389 0.009177337 -0.018949484 -0.0019569173 -0.0038662702 -0.0027201963 -0.0088669 -0.02959522
好 0.0020459828 0.013226442 -0.006878237 -0.008457004 -0.00014718504 -0.0086006755 -0.0059119947 0.0032838793 0.0075031524 0.016176034 0.01010083 0.015313731 0.022657765 0.0057283933 -0.0015550466 -0.018268704 -0.014988355 0.00915949 0.021181291 0.0018157224 0.0084216725 -0.012509729 -0.0006308731 -0.010274942 0.0006184287 -0.015872426 -0.0014567458 0.0016794866 -0.0024487404 -0.022735948 -0.013132166 -0.0051487777
尽 -0.0062260698 -0.014975093 -0.008016193 -0.002461862 0.00011656634 0.019492207 -0.014329818 -0.02624107 -0.003123236 0.012414218 -0.013584687 0.009197026 0.019004717 -0.0061915666 0.0019665582 -0.010794782 -0.0023325686 -0.0059325416 0.015231844 0.0020919174 -0.004063496 -0.018386941 0.01046556 -0.00498187 0.0044647553 -0.0046225945 -0.0177053 0.0011624101 0.0034053358 -0.007577768 -0.009408765 -0.021762922
颇 -0.015116017 -0.002581767 -0.00037813646 -0.008536631 0.007216803 0.018644052 -0.002550713 -0.004020906 0.004279507 -0.00037780323 -0.0102096535 0.026732065 0.01580816 0.00159084 0.011058851 -0.013338554 0.009618859 0.004292301 0.012077762 -0.0032549726 -0.000768266 0.009469161 0.0019813962 -0.0017239067 0.011496026 0.00066368835 -0.020974532 -0.0020526757 0.019050345 0.004899164 -0.0011715345 -0.0090322755
新 -0.01440915 0.0020433876 -0.004288649 0.005353592 -0.003655466 0.0036600856 -0.0025537156 0.0011736901 -0.008295572 0.013614262 -0.0018615547 0.012220389 0.026858065 0.00016662834 0.017786348 -0.016609259 -0.01520367 -0.000449983 -0.0028824583 0.010788085 0.0055818986 0.0026610682 0.013897971 -0.020350868 0.0038544037 -0.0019097235 0.005475407 -0.026994713 0.010502857 0.0015659535 0.0067654047 -0.029496366
寄 -0.0106192855 0.008699852 0.010731988 -0.009511485 0.009492239 0.012777954 -0.015795013 -0.00655733 0.0027018206 0.013308691 -0.0033752166 0.007213484 0.02309834 0.008283203 -0.0020959456 -0.004586593 0.009844766 -0.008487186 0.019567758 0.0066056484 0.012672493 0.0027539204 0.008244608 -0.0046301074 0.0041190046 0.012730543 0.0012776449 -0.01730356 0.023776265 -0.009343198 -0.016535182 -0.029081183
崒 -0.020718468 -0.0046861507 0.022261286 0.00974168 0.0014872669 0.0127718095 -0.0038367733 -0.0152083775 0.006596752 0.001340754 -0.012800851 0.022307867 0.0052537317 -0.008416366 0.004504049 -0.0046249414 -0.013245459 -0.014932507 -0.0056959507 -0.00021052304 -0.0071806544 0.0034191688 -0.010571762 0.0010673625 0.01085768 0.0029711816 -0.019758284 0.0007691813 0.018507812 -0.019329915 -0.005161628 -0.016856808
飞去 0.0029090024 -0.0048640477 0.012312566 -0.0059698 0.001694638 -0.0055545657 -0.0009327863 -0.009300397 -0.008913658 0.018897358 -0.013765302 0.012757985 0.009297743 -0.0094403345 0.008947437 -0.0041000335 -0.0045600845 0.0039572255 0.0021988824 0.016574023 0.0039035024 0.0050185495 0.00081736024 -0.023515012 -0.008875936 -0.015423397 -0.0006257358 -0.020869272 0.00067797047 -0.013777283 -0.012635104 -0.03004559
雨 -0.019767098 -0.016266605 -0.0050858157 -0.0030908114 0.005281375 0.0016691377 0.009663916 -0.017428052 0.00061630085 -0.0047592544 -0.01440947 0.023031408 0.009023521 -0.014284526 0.0061224448 -0.0088934805 0.0036269813 -0.0063581113 0.006728732 -0.013606002 -0.0099988775 -0.004270519 -0.015618025 -0.0104619935 0.010962764 -0.0032713022 0.006588038 -0.016721794 0.0001989626 -0.0064353733 0.0043532876 -0.018074263
钱 0.0021104855 -0.009655602 0.010882446 0.00041109667 -0.010932398 0.0075730495 -0.01415825 -0.016884131 -0.0094088465 0.008945473 0.008297904 0.0019667698 0.011170447 -0.0048314636 -0.0014087118 0.009550317 0.010495585 0.009237327 0.022491178 -0.004738665 -0.00977942 -0.00982474 -0.0016293915 -0.013238794 -0.010527386 -0.011351285 -0.017912172 -0.011821527 0.016505437 -0.020109488 -0.021175357 -0.027360363
花 -0.022870034 0.01324106 0.010437877 0.011898049 0.0024098312 0.0019568317 -0.01636369 -0.013011642 0.00012898805 0.016055204 0.014311141 0.010290143 0.015449709 0.015803955 -0.0007763648 -0.0141231995 -0.0016521278 -0.013535528 -0.009190996 -0.0050074044 -0.007902149 0.00590461 -0.004573589 -0.002743531 0.007520863 -0.016301263 0.006023432 0.000110360445 0.013242748 -0.003957985 0.00601423 -0.011904577
头 -0.0010974362 0.011032542 -0.008673148 -0.0071476414 -0.01764669 -0.0075558894 -0.014054236 -0.021690318 -0.0077649546 0.02178702 -0.013823261 0.0131728845 0.027913185 -0.011196937 0.00612514 0.009468214 0.00076781533 0.0036454669 -0.0050023873 -0.0019860414 0.011539116 -0.0009430782 0.0018015433 -0.022102617 -0.014925885 -0.015552023 -0.0054277144 -0.011257331 0.01767895 -0.0032495004 0.006849926 -0.025424222
千金 -0.021450814 -0.012226039 0.010113175 -0.0059740823 -0.010807877 0.009454164 0.012706555 0.0041881604 -0.00631183 0.0067851027 -0.012214326 0.008104565 0.018186191 -0.0077639706 0.006121018 0.008135195 0.0071185767 -0.012441761 0.015777808 0.0147798415 -0.011781055 0.009806835 -0.0042610876 -0.014588894 -0.008610821 -0.0057597538 -0.009684368 -0.013607624 0.002145083 -0.018492071 -0.00558283 0.0014071795
主父 -0.016033458 0.007118045 0.016313968 -0.008905885 -0.0061348155 -0.0012749314 -0.01327565 -0.014808203 0.011797633 -0.00091432733 0.006303246 0.019729413 0.017130591 -0.013023654 0.01466735 0.010206332 0.006623593 0.01356254 0.011598052 -0.004964756 0.0038076781 -0.0033635516 -0.015269244 -0.0020996393 -0.00016471265 -0.0023766933 0.008939612 -0.004747301 0.019413924 0.0046173246 0.0008974847 0.009271863
天 -0.00016669542 -0.013303944 0.016513765 0.0042256834 0.0056164428 0.012232264 -0.010742347 -0.017601619 -0.01698731 0.014119763 -0.014860737 0.009263227 0.020307705 -0.013969389 0.01415088 0.00080337207 -0.0042945766 -0.017633762 0.021042774 -0.011310716 0.012756769 -0.0042501227 -0.013052411 -0.00057502545 0.011775847 -0.0116124395 0.0062823268 -0.018027522 0.0030356194 -0.017079642 -0.017173158 -0.009665322
歌 0.0024757432 -0.0061611966 -0.0059039835 0.0075511304 0.007886993 0.0053336723 -0.004341775 -0.009991708 -0.008622498 -0.0049405573 0.0014753084 0.010589632 0.016313625 0.0032999595 0.011528876 0.011041165 -0.0040079686 -0.016769964 0.014447907 -0.0048428155 0.00789698 -0.0014205907 0.009307466 0.008382319 9.348022e-05 -0.014875454 -0.0108304545 -0.01110206 0.010171923 0.0042954404 -0.016865542 -0.004716827
早 -0.013322874 0.00649526 0.012949467 -0.00831434 -0.0051617757 0.0030131796 0.0050391564 0.0027923435 -0.011073303 0.00034566422 0.0052721063 0.006082702 0.008541859 -0.0072478033 -0.0053370884 0.0017677387 -0.014174868 0.0024943252 -0.002743786 -0.004209162 -0.005022773 -0.0054556937 -0.007832473 -0.0007740625 -1.9074825e-05 0.010416023 -0.0075971032 -0.024192631 0.009620174 -0.016345361 -0.0035101953 -0.014848072
馀 -0.008790257 -0.005148712 0.00022481066 0.010901805 -0.003098404 0.017309435 -0.00071923324 -0.021779047 -0.013752926 -0.0034130854 -0.007865184 -0.0033525613 0.018668933 0.0013797876 0.0064714425 -0.0023202961 -0.0003209634 -0.013491767 0.006421111 0.013410598 0.008030902 -0.014314693 -0.014868244 -0.010938231 -0.005400601 0.0059166164 -0.015996536 -0.0002677946 0.01149869 -0.010094932 -0.0074800244 -0.028561672
不肯 -0.018838132 0.0027800077 0.012599554 0.01558273 -0.011683065 -0.0027798214 0.0123610385 -0.016212545 0.0051681423 -0.0030127938 0.0088836895 0.019340385 -0.0028479157 -0.012325707 0.012016147 0.0009331176 -0.007631048 0.0035249041 0.008839822 0.008976414 -0.003896368 0.0062552886 -0.010856649 0.0063145254 -0.010452225 0.0051879203 -0.02056101 -0.009567897 -0.00670419 -0.000122048834 -0.007416319 -0.022879113
如何 0.006486791 -0.014678262 0.010948454 -0.002478349 0.0032968526 0.0002312068 -0.012517267 -0.01849291 0.012001765 -0.008910849 0.004256505 0.00070653524 0.0076700407 -0.009596073 0.007336641 0.005306472 -0.002864708 -0.000894982 0.005901485 -0.0007557971 -0.008310114 -0.008360625 0.005448361 0.0034875686 -0.004885351 -0.015290712 -0.0074256877 -0.015946079 0.02216003 -0.0020772861 0.0018042604 -0.01300069
颜色 0.0049695396 0.014369284 0.0082191825 0.007691202 -0.005894236 0.015680797 0.004830747 -0.017558916 0.00013839285 0.0056019993 -0.015026912 0.011637328 0.001094057 -0.010960685 -0.004722405 -0.0017502699 -0.011382025 0.006309793 0.0014143946 -0.012759967 0.004007133 0.0017822419 -0.0044895215 -0.0045425813 -0.0064494796 0.00858107 -0.003758278 0.0018379503 -0.00024414656 -0.02036125 -0.019827837 -0.020529918
又 -0.01876946 -0.013557249 0.00896897 -0.007814988 0.008627472 0.00100703 -0.01633772 0.00937253 -0.009831224 0.0024653997 0.012264693 0.009518335 0.01115507 0.0037709714 -0.0008816352 -0.013821038 0.0033421374 -0.0013464717 0.014215628 -0.009465796 0.0011901371 0.0013303455 0.01449967 -0.01595408 -0.008747305 0.005932612 -0.0034005283 -0.007922149 0.0016384667 -0.005320317 -0.013569398 -0.008839859
成 -0.026872896 -0.0017988873 0.002934164 -0.0068347617 0.008596802 0.004109276 -0.0117502045 -0.0039373646 -0.008435806 -0.004191561 0.015046895 0.025814869 0.002954974 -0.006876159 0.009965075 -0.010555824 0.012710298 -0.012065704 -0.0063500768 -0.0063673197 0.013737008 0.0028543638 -2.2990096e-05 -0.0055500474 -0.0027370537 -0.01588413 0.00044727215 -0.012406937 0.011693541 -0.012445786 -0.00469905 -0.030161237
向 -0.01186434 -0.0031201667 -0.0037890503 -0.013188891 0.007483831 -0.010450296 0.011314387 0.0008118246 -0.0077215144 -0.0024213304 -0.010971305 -0.007928915 -0.009293136 -0.006617722 0.0095130075 -3.6275207e-05 0.009885356 -0.008077109 -0.013555013 -0.0091264965 -0.010643105 -0.012518091 -0.014138407 0.009346602 0.0073450054 -0.013171689 -0.005221835 -0.008600913 -0.0014005452 -0.015035813 -0.0035711585 -0.007612896
黄金 -0.004559309 -0.0147648435 0.009710965 -0.01075175 -0.0054659615 0.015332662 -0.0019104973 -0.0029521072 -0.009530651 0.009241552 0.01630191 0.023896663 0.016137483 -0.007114492 0.015520061 0.008257033 -0.00074697 -0.009651082 0.02156687 0.0061596027 -0.007959597 -0.004451094 0.010470325 0.0019669638 0.010125549 -0.0062588733 -0.0046588015 -0.0031351517 0.008683649 -0.014147488 -0.018372623 -0.030855523
长安 -0.0059431884 -0.0073513133 0.017428644 0.014867839 -0.0037482698 0.011925651 -0.004131205 -0.013112374 -0.0047449544 0.010486881 -0.013940143 0.0142949475 0.0053747557 0.0058451057 0.0018928779 -0.01896619 -0.007933999 -0.0035161173 0.020733032 0.012060048 -0.009771544 -0.016768813 0.002797746 -0.007975872 -0.017195655 -0.014653972 -0.019116784 -0.025567645 0.005060394 0.0036254553 0.005938735 -0.02681742
相 0.006173679 0.0045920378 -0.003641376 -0.0069026356 -0.011474561 0.0065351264 -0.0042558797 -0.010119647 0.0028872108 0.011832107 -0.014620971 0.0163471 0.004822008 -0.0073201754 0.009388268 -0.006751894 0.0056731356 -0.0046108714 0.010873534 0.00076124794 -0.008666445 0.0030463182 0.011853682 -0.007940509 -0.0025547626 0.0066715055 0.0010065405 -0.00031635078 0.01684836 -0.009415953 -0.014207954 -0.0011264283
正 -0.008543822 -0.004195566 -0.011637975 -0.0065683895 -0.003953729 -0.000710676 0.00023593286 -0.009477462 -0.002832931 -0.005666807 0.015692035 0.015169901 0.0026491764 0.0060642003 0.0005259112 -0.016884713 0.009463954 -0.001185538 -0.0010499128 -0.008598798 0.013931629 0.0017577681 0.0017442656 -0.008582163 0.0030604175 0.012263781 -0.016123336 -0.013287988 0.017164497 -0.0070193238 -0.018749623 -0.0011090024
者 -0.017658819 0.004793231 0.004390647 -0.010328751 0.0121849915 -0.0023560529 0.01219042 0.0032853216 0.0046230666 0.009439627 -0.009910706 -0.0039695157 0.012741284 -0.0058059967 0.0017308338 -0.005806862 -0.015070229 -0.012097777 0.011317163 -0.014643567 0.016860291 0.0100046275 -0.012095491 -0.014230697 0.012592693 0.007441295 -0.0032443055 -0.005523419 0.014671366 -0.002764034 0.00023715514 -0.01987017
穷 -0.013006354 -0.015320475 0.013539431 0.0153821 -0.017328676 -0.0076845856 -0.006167941 -0.015238147 -0.017860668 -0.0047746464 0.002429115 -0.0072002946 0.023792354 0.014631246 -0.0036309457 -0.0025022666 -0.010225306 0.0025554968 0.0012549259 -0.014060107 0.014972727 0.008512389 0.000115503404 -0.008087558 -0.011846112 0.0046341666 0.0004655455 0.0045472267 0.0073513035 0.0044712625 0.0055559087 -0.00963153
动 0.0031935188 -0.0028413604 0.02046141 0.0025142625 0.011770359 0.016549835 0.004793432 -0.0007754746 0.0002867222 0.017092464 0.01537734 0.016365988 0.016196411 0.006162159 0.016696086 -0.010942133 0.013047026 -0.00030957692 0.018358015 0.007511543 0.017429026 -0.015603595 -0.007149351 -0.020700077 -0.0054038838 -0.0008956313 -0.014169421 -0.010635336 -0.0031752407 -0.020799018 -0.016516805 -0.006178841
鬼神 -0.017079933 0.012436936 -0.012711424 -0.0075863083 -0.01710201 0.00923448 0.0011336132 0.000506672 -0.00838044 0.011719767 -0.013298643 0.0043675825 0.015626682 0.012884357 0.0018797278 -0.0037897276 -0.009586715 0.0008563696 -0.0115165245 -0.01435162 -0.0064518508 0.0127212405 -0.0072802855 -0.011960565 0.0014913583 0.0018497763 0.004686003 -0.019430721 0.012024604 0.0015148687 -0.009200796 -0.008829788
鳞 -0.016967019 -0.0010621585 0.019066786 0.017078392 0.004110727 0.008487556 0.0065749283 -0.021234047 0.007904423 0.013140226 -0.005332178 0.025510957 0.024817089 -0.011508181 0.0008456868 -0.01618177 -0.0011984635 -0.005494884 0.008697185 0.0037851403 0.014639325 0.011654033 -0.010480021 -0.022884578 0.009029729 0.0124960095 -0.011626943 0.0022911802 0.019567074 -0.020692462 -0.015937028 -0.010042284
和 -0.018794628 -0.0006132613 0.019221444 0.008001546 -0.014056283 0.008065455 -0.01631271 0.0021584174 -0.005855682 -0.004758889 -0.0032809025 0.006160141 0.026204683 -0.0042421385 0.013325364 -0.004880944 0.013396748 -0.0046241153 0.009922584 -0.0042782146 0.009814134 -0.001644023 -0.008564226 -0.022345914 -0.004018197 -0.013373321 -5.3490832e-05 -0.017511837 -0.0018897917 -0.010504304 -0.003692528 -0.0015992085
作 -0.015355396 0.012596418 0.009117361 -0.013027824 -0.013948718 0.0025833696 -0.0091106715 -0.007931994 0.008490097 0.017610753 -0.013090591 0.004290892 0.00068023696 0.0024907098 -0.011419184 0.0003636342 0.008173398 -0.005897252 0.0057329712 0.005287836 0.013276778 -0.010563392 0.009501199 -0.02295233 0.0055538365 0.012637617 -0.0033300058 -0.011586074 0.0016695271 -0.002537675 -0.017073037 -0.021270957
从 -0.0070520793 -0.014158146 -0.011455903 -0.00612079 -0.014994822 -0.005676135 0.00032535623 0.0039269067 -0.012744697 0.016346637 0.0048077926 -0.007350236 4.2020998e-05 0.012532465 0.0041795517 -0.0101979105 -0.015139957 0.010726065 0.0029369441 -0.01489814 -0.0016081921 0.0113209225 0.0035772568 -0.005794605 0.01381799 -0.012151948 -0.012209194 0.005130458 -0.0034003197 -0.015230433 -0.010592205 -0.0023491795
连 -0.026243128 -0.010233926 0.0072581307 -0.0015831662 -0.009971069 -0.01169717 -0.017660897 -0.019993586 -0.009516268 0.012463258 -0.0077726333 -9.9749566e-05 0.030881852 -0.0049016834 -0.009360013 -0.012203056 0.0036932563 0.010359057 -0.00036721988 0.005390709 0.006262047 0.012871116 -0.010706432 -0.015002417 -0.009923333 -0.007879409 -0.00013872674 -0.023202889 0.020816157 -0.011589734 -0.0038230028 -0.028234886
不得 0.005902873 0.003371264 0.0017707729 0.006862474 0.012139771 0.0042196065 0.004343433 -0.022582637 -0.013875565 0.017507346 0.0019794104 0.017862972 0.028180106 -0.013567589 -0.008611678 -0.0026820323 -0.014891622 -0.012231012 0.0113667315 0.0018097284 0.018107656 0.0019305857 -0.014848728 -0.002209811 -0.0029744827 -0.006487288 -0.016691681 -0.0148401065 0.0021572686 0.006711237 -0.011710605 -0.021880819
千里 -0.020462837 0.01316372 0.020651933 0.010337393 -0.0016829725 0.018995501 -0.006233947 -0.007975687 -0.0013628975 -0.0034135624 -0.008665545 0.013977768 0.020723132 -0.0123714665 -0.0040253154 -0.014257156 -0.009562744 -0.012845989 -0.0002805119 -0.0010575597 -0.0033919665 0.0013737055 -0.015834395 -0.007969383 0.009619592 -0.0013780821 -0.0107692415 -0.0087124705 0.0042308834 -0.011458107 -0.0133450255 -0.029847784
随 -0.020070344 0.009363533 0.018671887 -0.0019064893 -0.0048031006 -0.010130949 -0.016157938 -0.0037047586 -0.007834946 0.008357649 0.013106733 0.027482633 0.000171988 -0.00799992 0.013514203 0.011249431 0.0031055124 0.0008331715 0.014505535 0.0038918313 0.017126773 0.005051672 0.011552905 -0.012422044 -0.015051305 0.01059166 -0.0138217835 0.002167713 0.020330653 -0.012395118 -0.019199524 -0.017862454
传 -0.013861118 -0.009235173 0.00631178 0.004301896 0.00461015 -0.003674451 -0.00954389 -0.016660618 0.009857237 0.008590909 -0.010003653 0.00861934 0.010629375 0.0014247379 0.004455778 -0.004950733 -0.0015519623 -0.015073986 0.0039457073 -0.0068925885 0.010041748 -0.01053344 0.0026394152 -0.020475885 0.011890101 -0.012010167 -0.0070431232 -0.008135368 0.00599102 0.008597077 -0.007987485 -0.012952047
长 0.0044319583 0.009748291 -0.006437257 0.013964503 -0.011937337 0.009549983 -0.013686316 -0.002677956 -0.0026282913 0.016216183 0.012228733 0.0063273446 0.01182866 -0.00686629 0.012127558 -0.013787645 -0.0051156385 -0.0020171083 0.014250869 -0.0063232253 0.0039547365 0.008409581 0.008292046 -0.007619281 -0.013999884 0.004265344 -0.002312267 -0.018390406 0.021587104 -0.016616907 0.0063421773 -0.0028914998
棹 -0.011873275 0.0008802924 0.015495111 0.008485757 -0.01707421 0.01229403 -0.0125557855 0.00093442074 0.007821556 -0.00932357 0.006910009 0.012871721 0.008286337 -0.0050281025 0.0033328517 -0.00455094 -0.009129256 -0.0012970215 -0.009349337 0.0140953325 -0.0059924168 -0.015546083 0.011553734 -0.004409944 0.0068471096 -0.0038298173 0.010198411 -0.0060856175 0.0072878674 -0.014916052 0.008048584 -0.011649469
闲 -0.0124412915 -0.014772485 0.00712773 0.0055853836 -0.0010922356 0.0069765 -0.01721197 -0.0143317 -0.018637165 0.019674128 0.0127354 0.0038724309 0.006381306 0.010428003 -0.0026284847 -0.008704786 0.0052479627 -0.003608961 0.009013753 -0.007582345 0.0012453427 -0.0037936282 -0.012380786 -0.013645148 -0.007850133 0.0037084988 -0.01914951 0.0057959366 0.0025582002 0.0045662564 0.00684072 0.0017959527
过 -0.004701149 0.0114315115 0.017133053 0.013367817 -0.007967459 0.0047450187 -0.002548531 0.0046498682 -0.008029158 0.01588202 0.012135503 0.015236553 0.027329851 0.0099776825 0.013577428 -0.0027922695 0.0067177904 -0.00035213682 0.012067143 0.013003988 -0.0046068486 0.010271015 0.013554486 -0.011645417 0.0046597496 -0.006738246 -0.0029892 0.0010507293 0.025049597 -0.017232293 -0.012918478 -0.029903496
问 -0.023634639 0.0102724815 0.009966723 0.016032357 0.010848572 0.00045399537 -0.014033816 -0.01083283 -0.0051477486 0.016522307 0.008798879 0.010479646 0.0005062324 -0.0034177117 0.003601059 -0.0067446786 0.0022794735 -0.0062966514 0.020560963 -0.008538215 0.013614628 -0.0010078478 -0.010108554 0.005663793 0.0027621356 0.0075722206 0.0073574963 -0.02369181 0.0077583385 0.007993476 -0.0022456464 -0.02164254
休 -0.011068021 0.0078760665 -0.009052014 0.011017072 -0.001316037 0.015889833 0.0011819229 -0.020099755 0.0057801204 0.00817443 0.003771561 0.018717973 0.018172327 -0.00070077897 0.002827877 -0.008263914 0.0013075687 -0.010485354 0.019083088 0.004689713 0.0154802445 -0.009967972 -0.00090135034 -0.009073656 -0.015700063 0.00065210304 0.008859136 -0.023265267 0.011387843 0.0024199216 -0.014618143 -0.02021876
便 -0.008853846 0.007410775 -0.008700051 0.0059793517 0.007984743 -0.0034567767 0.009121772 -0.017435668 -0.0012721737 0.012678191 -0.0036349783 0.0011480427 0.015214479 0.016129918 0.011895596 -0.0047658747 -0.015171086 0.009826074 0.014834218 -0.0058478913 0.014715552 -0.017068837 -0.0029971001 -0.0064964937 0.012658435 0.0026572426 -0.011195521 -0.020726886 0.017333066 0.0070406487 0.0024205693 -0.005472461
诗 -0.018123334 -0.015531571 -0.008457959 -0.008157889 0.008009131 -0.0014644335 -0.00951755 0.0056458833 0.0065450864 -0.004098731 0.013562854 -0.004171966 0.0060373954 0.004646178 0.0012252692 0.00824397 0.0108538475 -0.0101777315 0.007327948 -0.013174025 0.0045984318 -0.010455551 0.01370422 0.0052545173 -0.013240939 0.0067682164 -0.0028791963 -0.004880643 0.018411318 -0.004970355 0.0037930743 -0.017487567
纷纷 -0.020495404 0.0051880577 -0.0055298274 -0.0046467246 -0.011699951 -0.0018861397 0.010210184 0.0024710363 0.0051835356 0.0047243517 -0.004966173 0.021214865 0.022320408 0.0065353652 -0.0048997942 -0.00411192 -0.011371683 -0.011378007 0.01450394 -0.0015201141 0.013849131 -0.0030203564 -0.0089924205 -0.006398252 -0.004420142 -0.010669765 -0.005501195 -0.02257616 -0.0068241144 0.0044786423 -0.009140514 -0.02922008
难 0.006796346 0.0041884696 -0.005816738 -0.0016490862 0.00050559413 0.006468565 0.0073211635 -0.016038608 0.005219392 -0.0020547952 -0.004792204 0.0057247384 -0.005800823 0.012712183 -0.010190626 0.01023875 -0.012051733 0.00038784248 -0.010858091 0.0061741755 0.006067689 -0.012759147 0.00049108354 -0.018038971 0.011988104 -0.0051387716 -0.010705633 -0.005621988 0.0024245156 -0.019100428 0.010176007 0.0029577492
忽 -0.017280106 0.01093906 0.008858494 -0.0041050147 -0.0070053255 -0.008960615 0.0040936377 -0.017208977 -0.0013096068 -0.0034600815 -0.0063823955 0.01044595 0.0012159928 -0.009362328 0.004536581 0.012462308 -0.010100235 0.0034672306 0.000759717 0.015504339 0.018610861 0.00086419523 -0.013282869 -0.018123234 0.0015216564 -0.004830435 0.0049437424 -0.012463839 0.011480463 0.0016132842 0.002336195 -0.008075777
萧萧 -0.003673824 0.013708177 -0.004629081 0.015449927 0.007244153 -0.004489309 0.012326863 -0.018031428 0.013108734 -0.010477472 0.0076441974 -0.0062204506 0.0015727691 -0.00022242324 0.00022818604 -0.017388634 -0.00037591066 -0.005019753 -0.000285269 0.0154320095 0.013146621 0.0047404333 0.005568834 -0.0142482 -0.004062199 0.011995448 0.0043258574 -0.01695461 0.014484293 -0.014715594 0.009450626 -0.0106814625
至今 -0.02584854 -0.005313331 -0.007349427 -0.00065003725 -0.010109433 -0.00032104546 0.00027955812 -0.0094517395 -0.00092348654 0.014300987 -0.0040780916 0.016512256 0.015803294 0.0020240198 0.002022046 -0.009193979 0.000920475 -0.015012246 -0.0076850597 -0.005483361 0.011333845 0.00062068726 -0.014517097 -0.0104047265 -0.013191231 0.0008142797 -0.01323263 0.0030363863 0.019645019 -0.011880951 -0.016033916 -0.029611796
门 -0.0025146771 0.0018213517 -0.0041858056 0.015174374 -0.006213138 0.010865099 -0.00016960922 -0.019131614 0.0029894167 -0.005602587 -0.0026744762 -0.0014711801 -0.00051377097 0.009026801 0.005427938 -0.014885854 -0.0143366745 0.0063988245 0.013019243 -0.012351215 -0.011548738 0.011643965 -0.007617333 -0.021057485 0.0027009756 -0.012073969 -0.015429277 0.0027926296 0.021949664 -0.01288182 -0.0030467254 -0.021474013
近 -0.01672151 0.0022830397 0.007082059 -0.0056125093 -0.011226183 -0.0049022827 0.00589596 -0.008555324 -0.0022041542 0.01375256 -0.006042873 0.009906915 0.023588864 -0.003014389 -0.0020323163 0.0021002921 0.008727844 -0.0053853225 -0.009276528 0.0057795034 -4.481874e-06 -0.01057861 0.01190061 0.0052284813 -0.013380068 -0.0076656337 0.009290679 -0.013952446 -0.0081984205 -0.0029255236 -0.0049710223 0.00091101584
朝 -0.011286237 -0.0070826076 -0.008376636 0.014510656 0.008298886 0.017335003 -0.009507358 -0.018033354 0.0076548597 -0.0016839234 0.006267898 0.01771238 0.015701339 -0.008843012 0.015167171 -0.0008277128 -0.005164999 -0.0052065835 3.1540312e-05 0.00321334 0.010105992 0.0045622103 -0.0010336223 -0.0029395504 -0.0038974893 -0.016503165 0.0058027403 -0.014838579 -0.0073513305 -0.0037176274 0.009434601 -0.022600774
坼 0.0015805082 -0.0024558587 0.0010280147 0.015782174 -0.005487806 0.011097471 0.0015949473 -0.014784099 0.012426994 0.013698858 0.0084719015 -0.009578569 -0.005984011 -0.0010694892 -0.008198092 -0.0071068 -0.008766572 -0.010346652 0.0011275484 0.0132781705 -0.0046809423 -0.009062997 -0.008437707 -0.013474692 -0.008036181 -0.008938572 -0.0019212296 -0.010911362 0.007458891 -0.001380424 0.00079970254 -0.0127715515
行人 0.0066714985 -0.0067909486 0.013112915 0.007224015 -0.016348835 -0.0017066878 0.0073313983 -0.019210344 -0.016632713 0.016711922 -0.007931172 0.020355407 -0.0044456567 0.0045758514 -0.008284051 -0.0032125197 0.010075078 -0.0049676113 0.014836665 0.0007933925 -0.0036577447 0.0020336264 -0.007641744 -0.0047741337 0.014405292 -0.012836271 -0.0065951655 -0.0046024765 0.010224596 0.009613475 0.009899608 -0.008480251
人生 -0.009283396 0.007952925 -0.00883087 0.004809194 -0.011852131 0.007874756 0.0060449676 0.0055953744 8.5788684e-05 0.013775435 -0.0030878272 0.009578512 -0.0014532574 0.015450705 -0.0022709358 -0.015687339 0.0116174305 0.014302061 -0.002098811 0.005941328 0.013080157 -0.005209523 0.00203011 0.013432154 0.0088562565 0.0050203777 0.0090751955 -0.0069894777 0.012718207 -0.0054317485 -0.01155537 -0.009456503
将进酒 -0.0074540665 0.0076402053 0.011864664 0.0027777874 -0.011661486 8.159234e-05 -0.01513585 -0.014173196 0.0044995933 -0.004686775 0.011873495 0.021078896 0.016453905 -0.0071593975 -0.011426604 0.009457452 -0.015434018 -0.0065880753 0.00082654704 -0.0069827638 0.007736491 -0.003934859 0.0040685534 -0.0055170376 -0.01332761 0.0048640966 0.0040780418 -0.0056682928 -0.0074023074 -0.009836561 -0.0046713473 -0.01883895
牵 0.0054220674 0.009854186 0.01823267 -0.011246202 -0.006250899 -0.009686792 0.0041075144 0.0036617962 -0.011931289 0.005269983 0.013517505 0.014804313 -0.0012117292 0.009949867 0.015748538 0.0009604747 0.008300483 -0.0025714673 0.005576933 -0.0049607134 0.015301104 0.011769992 -0.003824954 -0.020957397 0.001048043 -0.0155992815 -0.006209425 0.0034027547 0.014671993 -0.0001551461 -0.016027912 -0.008619431
酒 -0.010401078 -0.009338889 0.013862004 0.0035751786 0.0062055453 -0.00035100488 -0.007945107 0.008736905 0.00917645 0.019184634 0.009384991 -0.006537057 0.024030697 -0.0010793767 0.014895863 -0.0037674047 0.010466722 0.013402917 0.016258407 -0.0025521347 0.009836735 -0.0043780096 -0.007999976 0.0071582515 -0.003194504 -0.0037570188 0.0034585462 -0.004133895 0.01395402 0.0016846964 -0.011468743 -0.013175017
黄 -0.0043642526 0.011987373 0.0067807045 0.011611764 -0.0005256113 -0.0033297194 -0.00025863267 -0.017504366 -0.007291229 0.008797623 0.011080612 0.012940855 0.009245722 -0.0023149457 0.016050275 -0.0075936085 -0.012621669 0.004512778 -0.0012032561 -0.00070357014 -0.0052856044 -0.012004903 0.008446697 -0.01596854 0.005990839 -0.0107416175 -0.007128866 -0.002166906 0.007692427 0.0074886517 -0.012834953 0.008079539
落 -0.021675805 -0.016647546 -0.007145688 -0.0067142295 -0.012345798 0.006931446 0.0022008766 -0.009731388 -0.01324737 -0.003887498 0.01415031 0.02591049 0.0019374066 0.015309833 0.0073068403 -0.014535576 0.011003986 0.012287494 -0.0068929945 0.013685859 0.016468056 0.0057818084 0.006030068 -0.008910095 0.002137028 -0.0161612 -0.020001907 0.0026958275 0.023626454 -0.011625889 -0.0014667246 -0.013356243
暝 -0.013463971 -0.006409382 0.016351929 0.013670137 0.001435584 -0.003405284 -0.010238706 -0.014129971 0.011738423 -0.0024468717 0.002460788 0.014863347 0.008783144 0.011081343 0.011581866 -0.015897522 -0.010067745 0.013994559 0.008389482 -0.010726904 -0.00041996822 0.0050738826 0.0002961645 -0.018835446 0.011068469 -0.0066461214 -0.005015225 -0.0019862277 0.0025375185 -0.012757313 -0.016478423 -0.022372058
迢迢 -0.0049309894 0.009659036 -0.0067226873 0.015596159 0.007792856 -0.001345353 -0.0113172615 -0.018898139 -0.0022274575 -0.0031213718 -0.0038632366 0.0064657237 0.023730563 0.016119793 0.012536758 -0.0079613365 -0.008654042 -0.010664401 0.007665179 -0.0026065558 -0.009414546 -0.016549997 0.006882351 0.0054108584 -0.005368255 0.013299903 -0.0005850395 -0.020340912 0.022413334 0.008508775 -0.009743148 -0.0049881027
树 -0.007182847 0.014037011 0.0008279721 0.0023021249 -0.00871782 0.013288452 -0.0026832086 -0.015173331 2.7743055e-05 -0.010160769 -0.008359933 0.019397218 0.014592481 -0.0025827484 -0.004563677 -0.0100255795 -0.014221004 -0.0003850609 0.0009916872 0.0027554245 -0.009617142 -0.014280254 0.011038989 -0.012701891 -0.008141321 -0.0039296155 0.003905619 0.0044724243 0.0021099572 0.0046744696 -0.018860634 -0.006580281
非 -0.02081864 0.0010058302 0.009451864 0.0005870141 0.012709058 0.017108403 -0.01292062 -0.008305479 -0.0030346552 0.012077587 -0.0012725157 -0.001734066 0.011406637 0.011706894 0.014595534 -0.01024632 0.015549986 0.0133599 0.019194636 0.0072700013 0.0058431686 -0.004463552 -0.00037440236 -0.0011676482 -0.008485382 0.007088804 0.004206904 -0.001836977 -0.004510278 -0.009712162 0.010072568 -0.024973407
意 -0.010857613 -0.0040420922 -0.0003950979 0.0096887145 0.006101701 -0.009636474 -0.011429842 0.006640083 -0.013928638 0.01076192 0.0066572335 0.024751263 0.0030444579 0.009385608 0.0018922389 -0.015744183 0.009404864 -0.00456961 0.005879007 0.007650439 0.002099015 0.011763587 0.0029814674 -0.0109731015 -0.0066952184 -0.007296445 -0.014230837 0.005391839 0.008567694 0.00070142583 -0.009250574 -0.007217989
浮云 -0.015853213 0.006284164 0.00050209876 0.004566277 -0.015054418 -0.011516348 0.00572598 -0.006477248 0.008743653 0.0070474744 -0.007894983 0.016055424 0.009970187 0.000827164 0.010690265 0.002949505 -0.009933972 0.003469449 0.015606625 0.013594149 0.00759789 0.0034880568 -0.011131593 -0.015558339 -0.004781613 0.011785007 -0.004402559 8.956376e-05 0.018364744 0.008067513 -0.008790633 -0.018367574
东 -0.012855666 0.0070594586 0.009296239 0.014512219 0.0051102964 -0.012538228 -0.011435643 -0.008510246 -0.004148969 -0.00036058662 0.00667724 0.01173834 0.022311945 -0.012343733 0.0019161287 -0.008181585 -0.011923268 -0.013416863 0.010697298 -0.009262676 0.0005719894 0.008514134 0.00398227 -0.002490199 -0.01082369 0.0020679364 0.009175627 0.0021388389 0.005706717 -0.00038334815 0.006911143 -0.01649204
水 -0.0028597636 -0.011417037 0.006318122 0.011022609 -0.0056401063 0.0009999708 0.00087149447 -0.00713891 -0.0048298337 0.013902117 -0.009922201 -0.000115281524 0.0032544525 -0.005599911 0.0044302884 -0.0026193666 0.009366986 0.009961215 0.006940644 -0.008627831 0.0067978073 0.0078243725 0.009593944 0.0056732497 -0.007987064 0.0054373564 -0.011427742 0.0044229673 0.022458263 -0.009409323 -0.0024692714 -0.0032472266
愁 -0.006329644 -0.0010955178 -0.0041585485 -0.012745764 -0.0047790203 0.011532466 -0.004508467 -0.009307973 0.0090352865 -0.0032309075 -0.002160278 -0.0019293671 0.008173855 0.0056663 -0.0031520028 -0.017722346 -0.0052710352 -0.0011861346 -0.0042312574 0.0155411195 -0.01109613 -0.01662354 -0.002647117 -0.002625102 -0.0026015243 -0.0059104827 -0.005513694 -0.014970084 0.018773628 -0.00050690846 0.008830011 0.0025974126
君 -0.02106004 0.007722011 -0.010166894 0.00019265033 -0.0076996596 0.0077802367 -0.010404611 0.00096517574 0.0045034555 0.006619446 0.01277355 0.025495205 0.017211264 -0.0018565175 -0.004019653 -0.013207335 0.002481666 0.009861142 -0.0036862907 -0.0023367784 0.01632064 0.010711933 0.010613566 -0.018677374 0.004204842 0.0061237123 0.008057127 -0.020786565 0.016420063 -0.0038367487 -0.0016782738 8.6898464e-05
柳 -0.014624562 -0.011204316 -0.00912832 -0.010995347 -0.009762774 -0.012592316 0.010891509 0.002336719 0.006617408 -0.012032848 0.011145685 0.020359756 -0.0053669075 0.015886666 5.4367025e-05 -0.005141657 0.0038171029 0.003763735 0.0034503804 -0.010096816 0.007156012 -0.0001755743 -0.013659504 -0.0048423866 0.010644085 0.0050649834 -0.016814897 -0.019615196 0.0058794124 -0.01160975 -0.005203194 -6.796181e-06
无人 0.0043430086 -0.016207756 0.0014396358 -0.011210231 -0.0045243404 0.0030022834 -0.012059822 0.010310994 -0.009556655 0.008181486 0.010861886 -0.0011767399 0.01104094 -0.008747513 0.011233225 -0.01657657 -0.015634617 0.014253324 -0.0062339143 -0.0076734736 -0.010552246 0.00032066513 -0.0069656777 -0.005701175 -0.010400438 0.010564206 -0.012998437 -0.01947616 -0.0051560807 -0.00857725 0.006696639 0.007249425
求 -0.017710857 -0.01235353 -0.0013711185 -0.0030679025 -0.001371379 0.011818439 0.0018056917 0.0015638471 0.0028991334 0.01962638 0.015892051 0.02025074 0.017065955 0.004076553 0.015359597 -0.015141606 -0.014507632 -0.01774406 -0.0024734365 0.016549306 -0.000119689255 -0.00816165 -0.0059324848 0.006517663 0.01031245 -0.008198791 0.0006229258 -0.017878799 0.017905964 -0.005882548 0.010209094 -0.026338955
萋 -0.014570191 0.012477976 0.009348322 0.017314719 -1.8760999e-05 0.016320586 0.0050126747 -0.015542362 0.010876548 -0.0040258174 0.006750857 0.017769478 0.008304183 -0.006337408 -0.0033069397 -0.008562949 -0.012042821 0.006850555 0.017905876 0.011269719 -0.0016116202 0.011645476 0.0030289807 -0.009901558 0.0071207145 -0.011680653 -0.015444529 -0.01357652 0.008777879 -0.021779308 -0.0007203915 -0.0042758477
路 0.005797152 -0.013451269 -0.0061367988 0.002546719 0.010889136 0.008891677 -0.011527388 -0.023234695 -0.007746973 0.007717891 0.009736582 0.0075826095 0.018921137 -0.011191576 -0.012599202 0.005580025 0.0021008614 -0.007833773 0.015907748 0.012175617 -0.005169837 0.009833431 -0.006209237 -0.005682243 0.0035164733 -0.012119349 -0.018202906 -0.018800667 -0.0007977433 -0.0035589098 -0.010192437 -0.021311471
使 -0.011118282 -0.008314639 0.00047921363 0.014829987 -0.0011282896 0.010220585 -0.0034298715 0.0005089155 0.0051697963 0.012277719 -0.012132337 0.008122658 0.022599328 0.0016845963 0.0057796985 -0.0035800836 -0.011098859 -0.015615579 0.008469135 -0.008639107 0.016502786 0.0025562462 0.00046000045 -0.0039802617 -0.0010218353 -0.011666663 0.0050012856 -0.02360871 0.0069483183 -0.019204028 -0.008640825 -0.004818305
天子 0.0021170394 -0.011166219 0.009448466 0.010617896 0.00093434297 0.01628164 -0.01068814 -0.019144433 -0.005893312 -0.0059814146 -0.013759742 0.0031261588 0.007625379 -0.0047036577 0.00218279 0.012718925 -0.005703963 0.0097378185 -0.0034307588 0.015190359 0.0031860026 -0.0147591755 0.014489132 -0.0049376977 0.011193846 -0.013830929 -0.0029231173 -0.0073337406 0.0033696333 0.012514902 0.002018369 0.002686397
窟 -0.010582839 -0.0040817345 0.015490735 -0.008044865 -0.010805476 0.0045337644 0.009085948 -0.011325775 -0.009584877 0.0021368547 0.00018836682 0.009654396 0.022443451 -0.0125465775 -0.0070575746 -0.015535936 -0.007152261 -0.0031723352 0.009200103 -0.008034986 -0.003266075 0.0015249483 0.013231781 -0.0029168301 -0.007638346 -0.008548569 0.0063054273 -0.01109494 0.019801985 0.009602516 0.0052034184 0.004767649
鸣 0.0034917055 0.0112802135 -0.0103600025 0.01449164 0.0049547823 -0.006275496 -0.007503685 -0.018127728 0.0035065785 -0.00073246175 -0.015131846 -0.007682256 0.00069512415 0.013331476 -0.00057197927 -0.008683054 -0.009600987 -0.016971769 0.009518143 0.0005515355 0.014408974 -0.013523469 -0.0009113532 0.009487448 -0.004973628 0.013616382 -0.0095997015 -0.016431788 0.00045779007 -0.006168989 0.009937276 0.004071883
昔 0.0028163712 -0.0067432215 0.013930163 -0.003400281 0.010370275 0.0009962001 -0.0068003978 -0.013066862 0.0035562215 -0.0029383402 -0.0062070396 0.009606339 0.00345036 0.014277116 -0.008718718 0.009732303 0.0024812235 0.00017642173 0.011218384 -0.006530929 -0.011269555 -0.007802641 -0.0012837133 -0.013136243 0.010560404 0.003447849 0.004802349 -0.0070544486 0.018404756 -0.011904218 -0.0074741887 -0.008295861
以 -0.012547802 0.009006734 0.0150291445 0.008996979 -0.011503515 0.0062448145 0.010051011 0.0008317144 0.009947103 0.014377065 -0.014176755 0.021180866 0.011084558 0.0058613955 -0.008933364 -0.0018137654 0.0085566705 -0.015007782 0.0114882 0.000314036 0.0032847105 0.013724408 -0.0011213726 -0.012622847 0.002563094 -0.016814662 0.0032311734 -3.951647e-05 0.0080483025 -0.015430852 -0.00463587 -0.005039799
梦 -0.0042111813 -0.0020366292 0.007169957 0.016139416 -0.0046425737 -0.008877006 -0.010662497 -0.016056748 0.011455543 0.01424443 -0.007247503 -0.002550027 -0.0038816961 0.014910071 0.0003082224 -0.0026843997 0.003958576 -0.0043506688 0.014824864 0.0062022815 0.002876308 -0.011628048 0.014617699 0.00795951 -0.0030634473 0.014067194 -0.0064842785 0.0012392503 0.013851816 -0.0065533677 -0.00321708 0.0069252863
神 -0.0010078643 0.0011533116 0.0003254398 0.009606929 -0.011121563 0.016242633 -0.013236511 -0.013403701 -0.0016631762 0.01849552 0.008241146 0.011864531 0.004228444 0.004352998 0.01091771 -0.012973845 0.014132818 -0.015375458 0.014014612 -0.014447088 0.0034515639 -0.0101538785 -0.004041575 -0.0021725018 -0.015777368 0.012348913 -0.01503473 -0.012328041 -0.0062060105 -0.01604111 -0.016770232 -0.001845893
岁 -0.016597982 0.001254997 0.015096507 0.012322421 -0.013521119 0.016998079 0.013082134 -0.0068415953 -0.005155039 0.0089206435 0.010783124 0.0027590238 -4.6230387e-05 0.0056716804 -0.0039383536 0.0067565134 0.0057969354 -0.01198479 0.016144633 -0.011365781 -0.006029917 -0.003959134 0.010869056 -0.011958365 -0.0031012949 0.005990285 0.005952619 0.008217101 0.008989976 -0.0074186577 -0.009985436 -0.0038450682
别 -0.007021279 -0.0022394184 0.0043677287 -0.008950483 -0.011539367 0.006916195 0.011886871 -0.0076639126 0.0035349801 -0.00029800012 0.010900019 0.02115228 0.0047080717 -0.000508026 0.0091557205 0.000113983115 0.0037095076 0.00022767545 -0.010962638 -0.01184398 0.0008255939 0.010121852 0.009754484 0.0048541 0.004971857 -0.0061601712 -0.009287649 -0.009746531 0.019081725 0.008380727 -0.0122874 -0.01548398
翻 0.002447325 -0.013659922 0.008400017 0.011111841 0.00843721 -0.0057854946 0.00783056 -0.01759706 -0.015998116 -0.008994855 0.014453326 0.011991799 0.024227517 0.014546479 0.0022903888 -0.012946555 -0.01085004 -0.010587562 -0.0026388254 0.016347975 0.008941734 0.010150962 -0.011248124 -0.011937465 -0.0053142016 0.013455437 -0.0053999093 -0.01518023 0.0036646896 0.008639358 -0.0026103368 -0.026890831
俱 0.0033464695 -0.0008852847 -0.005303761 0.0027904846 0.0064511355 -0.008200649 0.009254455 0.0083687445 0.002393049 0.003030146 0.008254666 0.0026175478 7.343826e-05 -0.014414971 -0.008678033 0.011665607 0.01441102 -0.0146089895 0.017139597 -0.0036037075 0.0062803063 -0.011418545 -0.008073802 -0.0031612369 0.013839975 0.00487223 -0.0035170973 0.0032661965 0.017310359 -0.0037450383 -0.0006596858 -0.010440432
初 0.0069981054 0.007343132 -0.00364851 0.013034953 -0.008312984 0.009162967 0.01206682 -0.013348747 -0.0045608566 -0.006439096 -0.0032574441 0.0036111686 0.0013960452 -0.01414234 0.0070269373 -0.01669037 -0.0147159 0.0052125044 -0.0005651681 -0.010806217 -0.0030926876 -0.0006333598 0.014744567 0.00094436586 0.0011945489 -0.016126113 0.0007753598 -0.018788522 0.005848594 0.0007033743 0.011260539 -0.0018279986
嗟 0.008580262 0.007853667 -0.0008013383 0.002012173 0.0022596386 -0.0064590396 0.011888864 -0.016893823 -0.01473596 0.018376077 -0.009650314 0.009658685 0.022210995 0.0026102413 0.0026118136 0.0029516295 -0.00057526416 -0.009190302 0.012076853 0.0074564256 0.013020982 -0.013450449 0.012094774 -0.005585938 -0.01211092 -0.011031912 0.012244439 0.0057596853 0.008244455 0.0017767737 -0.008954136 -0.0114852935
故园 -0.014246332 -0.0014887091 0.015746562 -0.013414744 -0.015832335 0.0049051577 0.01093225 0.0074564144 0.003309517 0.010531565 -0.0066514425 -0.0032356416 0.007035372 0.008705466 0.00031840242 -0.010068572 -0.001224559 -0.0066431616 -0.009683011 -0.00063966674 0.0175211 0.010793623 0.00012218469 -0.011021021 0.013322352 -0.00818116 0.0012215229 0.0048978026 0.0056083803 0.007482054 -0.0008455467 -0.0014800285
何时 -0.014182284 0.0014817206 0.0017146455 -0.0010152897 0.013056976 0.00024369155 0.010667358 0.0044006933 -0.0019753887 0.018200003 0.010836357 -0.0066916435 0.012657891 0.010219062 -0.0109682735 0.007196373 0.008504261 0.0027327337 -0.0007389481 -0.005780087 -0.01025965 0.008184798 -0.0028094724 -0.020494742 -0.0073953555 0.00028079888 -0.0050510108 -0.020040544 0.013495314 -0.011802785 0.0005336576 -0.017759575
一 -0.0053221676 -0.011333584 -0.0062627117 -0.009542223 -0.015464959 0.0023236251 -0.015384677 -0.008839683 -0.0024185597 0.0005645789 0.0006625097 0.012701458 0.018103551 0.014448504 0.004660593 0.00041138084 -0.0074843625 0.0016356952 0.017126746 -0.0011457627 -0.009923404 0.009586867 0.008503152 0.0045059444 -0.002489166 -0.0128033785 -0.005761722 -0.01592251 0.012622316 -0.004528471 0.009157724 -0.018062033
山 -0.004809212 -0.008567892 -0.0080815535 0.004899593 0.0030136905 -0.009490348 0.003951418 -0.0067797094 -0.017136294 0.007009246 -0.012040298 0.010425371 0.017372508 0.0057475353 -0.013184463 -0.0152388895 0.007239408 0.013682125 -0.00082662015 0.014603595 -0.0015975307 -0.013069799 0.015363645 0.0033953711 -0.003875251 -0.013519098 -0.005257235 -0.001213145 0.0023488586 -0.004005194 -0.013969471 -0.020329703
明日 -0.0026164372 0.0056941593 0.0013442625 0.013232815 0.0024387673 -0.0027340502 0.0047375085 0.004768766 -0.0053741927 0.008772939 -0.0040381337 0.019879527 0.013056636 -0.014809347 0.013439305 -0.01811582 -0.011468738 0.0069688284 0.012184325 -0.014183577 0.010277738 -0.013841265 -0.013993721 0.006572652 -0.01552845 0.011334638 -0.006572358 -0.0074824155 0.013028669 0.003145812 0.008686194 -0.0011785027
即 -0.020897022 -0.002040329 0.0146747865 -0.007897889 -0.014796074 -0.0048248027 0.01176146 -0.026186626 -0.0052955467 0.0027135774 0.00087260926 -0.0007783321 0.022266993 0.015545648 -0.0021695965 -0.0066539524 0.008391224 0.0033318885 0.019211508 -0.013860427 -0.0030355924 -0.0075162253 0.003785789 -0.020947102 -0.005862666 0.009540916 0.007043575 -0.018659098 0.007692051 -0.013038728 0.0007321629 -0.019964205
马 -0.0134019 -0.0028780762 0.004241038 0.01703774 0.00084194733 -0.011035327 -0.010150401 -0.0059483782 -0.009599343 0.008854366 0.003595218 0.021410063 0.003262342 -0.012230789 -0.0038591565 -0.003246351 0.014854553 0.010801887 -0.0031662358 -0.012157083 -0.007978977 0.0066858563 0.015380207 0.0039150403 0.012886045 0.0051518492 -0.012935793 -0.016302103 -0.0008490273 0.009122814 0.0011700084 -0.02055199
挂席 0.0033219033 0.0096135 0.0035129879 -0.0010893296 0.012935734 0.010265288 -0.01350209 0.008687864 0.003956636 -0.009077142 0.0057917736 -0.0063114744 0.016568545 0.010285051 0.013130413 0.0046889707 -0.0007510273 -0.0094988765 0.013177662 0.0023780402 -0.0062778844 0.008121533 0.01481113 -0.0022587124 -0.0116056595 -0.016835311 -0.015640078 -0.0047710626 -0.0047461656 -0.011317626 0.010019667 -0.0077768294
入 -0.012916204 -0.01581027 0.0073695746 0.00015571361 0.0040826094 -0.012988712 0.0121196825 0.0037715796 0.009192987 -0.004188648 -0.0047656847 0.015205042 -0.0042963144 -0.0028255857 3.7141508e-05 -0.0016045118 -0.005828424 0.0039584492 0.017082302 0.013932318 0.014684858 0.010635574 0.009172211 -0.0073512797 0.0019135368 0.0022014896 0.010826769 -0.02296384 0.019459005 -0.0011842552 -0.016719349 -0.011325969
阴 -0.02235347 0.011767421 -0.0024896439 0.011666214 0.00907376 0.006482739 -0.007986413 -0.017536681 0.0068475357 -0.0051927883 0.011845308 0.022728374 0.029762927 -0.012461689 0.0018469648 -0.005398328 -0.00064656825 -0.008676762 -0.00744466 0.013932083 0.012179117 -0.015640626 0.002542128 -0.0053326995 0.0056297244 -0.010869076 -0.021103367 -0.007662408 -0.0011304079 -0.008000588 -0.0036642547 -0.012532611
游 0.0073574223 -0.0146713825 -0.010743711 -0.00022616267 -0.00025318697 0.017844561 0.0065693255 -0.01981882 -0.0072542652 0.013019639 -0.007951677 0.014447625 0.003476157 -0.013651655 0.010772244 -0.004582822 -0.0038634778 -0.0077571594 0.0054413453 0.008881729 0.010127504 0.0072790342 0.014977507 0.003772825 -0.014321383 -0.0026950287 -0.011028752 -0.007997474 0.01585098 -3.9141945e-05 -0.016528336 -0.007513991
何如 -0.002384783 0.007964362 0.008369643 0.0008266859 -0.017527727 0.014924922 -0.016296485 0.0008692971 -0.0122310575 0.018557038 -0.0031321184 0.02094757 0.008473128 -0.013878889 0.008899733 -0.00363399 -0.015611329 -0.011181695 0.018012553 -0.0057011745 -0.0014591455 0.005897657 -0.010115143 -0.0047666957 0.011563176 0.0057260506 -0.0011308015 0.00071021414 0.019036254 -0.0003931801 -0.0059968866 0.002649875
夜 0.0008157021 -0.007013705 0.01937343 0.012850875 -0.0026490989 0.006255519 -0.016067643 -0.023427537 0.0042115115 0.019631328 0.0063215373 0.016798157 0.022587 -0.007914664 0.00087739626 -0.004080428 0.013777872 -0.012123864 -0.00052250456 0.005180175 0.016448453 0.0020874015 -0.005874324 -0.012536932 -0.011703614 -1.0119968e-05 0.001951246 -0.010269223 -0.00062321615 0.0040622083 -0.011473339 -0.025917266
先生 -0.023526255 0.013312741 0.0029459698 -0.013148766 -0.012894002 0.014003967 -0.014956511 0.0018526106 0.0019408072 0.008728142 -0.0022856845 0.0087617105 -0.0018559343 0.010637667 0.005894151 -0.0055105197 -0.008437962 -0.004757041 -0.006928893 0.008562344 0.012611971 -0.016158668 -0.011318468 -0.005584751 -0.008051229 -0.015249107 -0.005678349 -0.007875152 0.014968927 -0.00012361961 -0.019241089 -0.026184006
所 0.0048307017 0.005470447 0.016775304 0.0020530678 -0.011285128 0.0053224536 0.0014949773 -0.007703722 -0.0054270234 0.012157833 -0.002892372 -0.0037484348 0.023481412 -0.014083773 0.009471142 0.010920907 0.008900199 -0.015061199 -0.009016689 0.004949562 0.016551463 -0.0070376233 -0.00096521236 -0.016217126 0.010316851 -0.0020447646 0.0008994506 -0.005093846 0.020636654 0.0032928751 0.005523535 -0.01999403
并 -0.025444096 -0.011832539 0.004199354 -0.004992146 -0.013686393 0.0058203056 -0.01549794 -0.02379716 -0.01917158 0.003186778 -0.0077977334 0.004027208 0.011021983 -0.01447784 -0.009434427 -0.010397436 -0.0008060366 -0.014924956 0.0027069887 0.0013478231 0.008954155 -0.017923642 0.0077147125 -0.024417447 -0.015392191 0.0015054509 0.0043743793 -0.015555269 -0.0017895526 -0.016140163 -0.012351005 -0.024861235
就 -0.014633268 1.5741673e-05 0.0018764499 0.012436984 -0.014174534 -0.008857332 0.009209288 -0.009152615 0.0059954966 0.002653792 -0.006939572 0.013908221 0.008620572 0.01207595 0.017713908 0.009518929 -0.0049314834 -0.005032723 0.016197847 0.0037413489 -0.009965258 -0.006828556 0.0004786411 -0.018868232 -0.006852249 -0.0040768255 0.0051980955 0.0071391403 0.019064585 -0.018220779 -0.006450609 -0.013173501
尘埃 -0.0035503213 0.011496085 0.00582888 -0.007137209 -0.008464488 0.016804181 -0.015099257 -0.0037632203 -0.010908132 -0.008857982 0.0063453713 0.024218744 0.014740074 -0.0065184594 -0.01189499 -0.017326457 -0.0064334106 -0.0016755792 0.013405728 -0.0031030513 0.0072972802 0.010043707 0.014433079 0.0018078273 -0.014128917 0.009317103 0.0016164209 -0.02392443 -0.002387387 0.003835488 -0.012733092 -0.012138394
空 -0.003459755 -0.0025839808 -0.011600791 0.008670171 -0.016293177 0.0013246271 0.0050822003 0.008175725 0.000110044566 0.010856294 -0.014042404 0.007328764 0.011721505 -0.0058161323 0.010953492 0.0010108066 -0.01110778 -0.012040739 0.019730953 0.003958581 -0.0030939605 0.0036008824 -0.0046443357 -0.002299063 -0.00904331 -0.009528435 -0.0130608985 -0.015399908 0.01706767 -0.017192118 0.0033829561 -0.009235961
辞 0.0017569393 -0.0019625367 -0.002522177 0.010088875 -0.0042182147 -0.014364375 0.0021127914 -0.006042864 -0.0002927565 -0.0014924926 -0.0101031875 0.0017095805 0.002103828 0.01135745 0.012209642 0.010307525 0.015000503 -0.0134159485 0.0034350003 -0.0051371246 0.01534656 -0.016320772 0.009451008 -0.017257672 0.0006611873 0.007995254 -0.011977258 -0.007844932 -0.010360152 -0.012008291 0.00012099413 0.0025373998
丈人 -0.0041062613 -0.0128431795 -0.005209669 0.01709004 0.013237832 0.0060196356 0.0050429604 -0.01209851 -0.010323762 0.005772787 0.007133294 0.010793901 0.00088535185 -0.010679273 0.014557377 0.004540924 5.505832e-05 -0.009211245 -0.0063515995 0.0029276696 0.00027399548 -0.0063316394 -0.013117309 -0.0025865098 0.0014799403 0.0032461176 -0.019346926 -0.019566763 -0.0002475882 -0.0055729407 -0.014760502 0.004872415
吹 0.0024793928 0.0029751498 -0.00849858 0.016001113 -0.012931401 0.0074960473 0.009253089 -0.0048668664 -0.016240666 -0.00562798 -0.0027685328 0.022934614 0.015586242 0.0032136508 0.0074335025 0.012325482 -0.007473221 -0.00845896 0.009333408 0.013755329 -0.012124247 -0.0065696863 0.008607724 -0.0071354522 0.0033563424 -0.0056980243 -0.013553347 -0.021391833 0.0017212506 0.00081777485 -0.011369209 -0.024573
具 -0.013696984 0.008581956 -0.00033900831 -0.009759334 -0.005589213 0.01699252 -0.0017089322 -0.0035833905 0.00094350794 -0.004670816 -0.0027513616 0.0025185316 0.02887083 0.0020411892 0.005216564 0.007382071 0.01146686 0.009181134 0.0008453386 0.014214149 0.0005042839 0.0027748547 -0.0054681757 -0.024493715 -0.0007261894 -0.011867649 0.0068709855 -0.004675237 0.02182659 -0.0013590989 -0.0073923324 -0.026690122
走 -0.0065175453 -0.004905486 0.007209655 0.0045209816 -0.006324431 -0.009888075 -0.0011244591 -0.015679114 -0.0096134655 -0.0058174995 0.0064938036 0.002198387 0.0030316983 -0.008356119 -0.008796515 0.0037528242 0.0012677398 0.01306003 0.017151505 0.0026469606 -0.009769744 -0.0106664505 0.015216135 -0.021853892 -0.008858667 0.011286406 -0.010706097 0.00049723696 -0.0008947491 0.007321975 -0.0034324685 -0.014919523
回首 0.003401318 -0.0034247315 0.0055672 0.0063395025 -0.00454019 0.011883441 0.00351066 0.00028247645 -0.0078932615 0.00855552 -0.009551604 0.01354895 0.019693624 0.0033496546 -0.010849877 -0.0135462675 -0.014693735 -0.009771933 -0.009439126 0.0015669052 -0.0035026155 -0.013952954 0.0037851706 0.003617146 -0.016657315 0.01316964 -0.0069862218 -0.019229153 0.0035004218 -0.0070385546 0.010781258 -0.0162391
没 -0.008829167 0.00964334 0.008257894 0.00433955 0.0111791305 -0.0020921573 -0.0031944516 -0.0068977126 -0.011799229 -0.0088356035 -0.006940649 0.016761502 0.023142735 0.009494316 0.0117660845 0.005780353 0.0036362614 -0.009906389 -0.0055169784 -0.0118440455 0.003490632 -0.0017921379 0.005885156 -0.0139510855 -0.0055889296 0.0010442325 0.0076529915 -0.02402699 0.02327696 -0.014529413 0.009188547 -0.00088836486
幽 -0.02385423 -0.0034115815 0.016997783 -0.0063583194 -0.016635848 -0.011862592 -0.006025528 -0.0038802782 -0.01383042 0.014040688 0.0096114045 0.007980578 0.009282879 -0.012274049 0.006103427 -0.0066601373 -0.011595753 -0.010055407 -0.0066903587 0.0044771787 -0.009041382 -0.006321328 -0.0071938653 0.005289304 -9.48371e-05 -0.009125184 -0.012791654 0.0025172008 0.003772345 0.009418003 -0.018054254 -0.009578789
秋 -0.0016169031 -0.015911557 0.0016231864 0.01526403 0.010145688 -0.0084985 0.0084955515 -0.021326695 -0.0046087587 0.018670695 0.004902776 0.0037356087 0.008816381 0.009918151 0.018574564 0.0030547334 0.013635624 -0.015983835 -0.0067197965 -0.009937217 0.0074144835 -0.014845816 -0.0012916516 -0.019941762 -0.011876063 0.009146722 -0.0051108617 -0.00222154 -0.0065467525 -0.018480957 -0.019531956 -0.015885647
曲江 -0.005305772 -0.006771605 -0.005464169 -0.0034755776 -0.0052262116 0.0036552183 -0.017064698 -0.02018513 -0.014444315 0.0055758255 -0.010566536 0.0062291916 -0.0027068704 -0.003256068 0.004365899 0.009766404 -0.0077909133 0.012630452 0.007741242 -0.0026590812 0.0034316503 -0.0038034725 0.009964349 -0.019977322 -0.011877264 -0.016049465 0.00048506152 -0.017513374 -0.00023004209 -0.011259897 -0.010733581 -0.022301836
王孙 -0.009623119 -0.0031906138 0.013031223 -0.009174445 0.00925871 -0.011445523 -0.0055420385 0.008603477 0.0009150545 0.005132944 0.01024639 -0.010331385 -0.0018806114 -0.006250538 -0.0009136156 -0.003789558 -0.010333625 -0.0050491407 0.011621571 -0.0046733716 -0.003303016 -0.015948197 -0.0112111075 -0.012317267 -0.00456583 -0.012675391 0.0059789987 -0.01396187 0.016244434 -0.016222086 -0.003118458 -0.017415635
稀 -0.0054536834 -0.0033975623 0.017865295 0.004567196 -0.015010354 -0.006784827 0.012431584 -0.007510425 0.0022325225 -0.007137155 0.014041462 -0.0023025242 0.008320667 -0.0145250475 0.00881181 0.004492499 -0.013628316 -0.009839256 0.0144844325 0.0050099357 -0.0076427325 0.009819369 -0.010703842 -0.001004085 -0.005222429 -0.00087977137 0.009556469 -0.016048916 0.017114442 0.005616616 -0.0033227336 0.007693228
风 0.00012846137 -0.0066464096 0.0021271585 -0.006879156 0.005853231 -0.001447542 0.006333635 -0.00876141 0.0069960463 -0.0096922405 0.0107757645 6.92295e-05 0.015122473 -0.011616365 -0.010945045 -0.011034399 -0.012307148 -0.006697306 -0.0018479591 -0.001135483 0.007370299 0.012818418 0.0074664215 -0.0058655646 -0.003749057 -0.015546217 0.005021055 -0.008276734 0.0047384696 0.005252438 -0.010343139 0.0038762065
兮 -0.018735515 -0.0116382865 -0.009131441 -0.013976723 -0.013468088 0.013608594 -0.0039218743 -0.0033557646 -0.014006499 0.012088653 0.014418098 0.0017458333 0.00020212999 0.002116419 0.016856577 -0.0039123255 -0.0027354395 0.009369872 -0.0019483384 -0.0024447164 0.01686778 -0.007227538 -0.012056172 0.0050694584 0.010680965 -0.0009678895 0.008005337 0.00016861364 -0.009819923 -0.0071116774 -0.018303672 -0.005163576
天上 -0.011440169 -0.013752028 0.010396192 0.0060492856 -0.011850785 0.0072328835 -0.0034145203 -0.00084352714 -0.0019352853 0.0025580043 0.0012940033 0.016496954 0.002964073 0.0070061428 0.011684873 0.010186087 -0.0011052872 -0.006816119 0.018562637 -0.0115050655 0.0037903965 -0.010871998 0.000711863 0.009035107 0.0051281555 0.009470695 0.009179102 -0.020000387 0.005133095 -0.01392019 -0.009778161 -0.011945207
到 -0.009312249 0.008398297 0.009302337 -0.011533429 0.0024755113 -0.0065708095 0.008465298 0.0033888048 -0.0011946735 0.012858075 0.0008219336 0.011064883 0.01807134 -0.0139359655 0.0012958102 0.0011309894 0.014177975 0.0045090276 -0.00342448 -0.0110823475 -0.011467002 -0.008736056 -0.0005381296 -0.009059197 -0.006548533 0.007287174 -0.00029133222 -0.015341686 0.00443976 -0.0060176714 -0.008599079 -0.002900458
青丝 -0.010474089 -0.008362544 0.0020696407 0.010631739 -0.014251174 0.012053377 -0.0067859804 0.005211171 -0.012809084 0.013087351 0.0103322 0.012334155 0.0023488002 0.0003757223 -0.0051219487 -0.013150782 -0.011952613 0.0073846756 -0.008150357 -0.0015894446 0.016108975 0.009477181 -0.002655168 0.0034537863 0.0021856125 0.010091198 -0.018022517 -0.0034474807 -0.007161014 -0.0055743465 0.0054963343 -0.014375592
雪 -0.0056681954 0.0020776456 0.0064613023 0.014437747 -0.002714105 0.0059208088 0.0072237295 -0.0058617224 0.01002886 0.009689633 -0.000755215 0.005384207 -0.0044455747 -0.010571628 -0.004994921 0.006485264 0.009681768 -0.0015566918 -0.012958643 0.0048836386 -0.0058301524 -0.0025307273 -0.00898977 -0.0036668093 0.0036087853 0.008189937 0.005248968 0.009102827 0.0044484255 0.0011921781 -0.010694533 -0.0038955784
取 0.0008394956 -0.010350223 0.009093099 0.012940375 -0.007868516 -0.010458306 0.0026421347 -0.0019259182 -0.008944969 0.012366968 -0.0015028883 0.0006592601 0.020704314 0.0091024395 -0.009829877 -0.004001727 0.0070845573 -0.0045795 0.00082325644 -0.013548305 0.009313343 -0.013574948 0.01528729 -0.017810307 0.0068931733 0.008337714 -0.0147936065 -0.0052407114 0.0019814083 -0.0010088973 -0.0052789743 0.0072423755
裘 0.009314378 -0.0054788557 -0.0069957464 -0.013607295 -0.0025737623 0.0033769743 -0.00041088104 -0.0065745683 -0.0075269327 -0.000992998 -0.0012057201 0.002859746 0.011020175 -0.00052958226 -0.011108522 0.0033235839 0.0058890623 -0.006233512 -0.011711067 -9.555539e-05 -0.0019383566 -0.0065466203 -0.009187648 -0.0088115735 0.0055371555 0.0022125656 -0.009228446 -0.0075006997 0.015423948 -0.010137984 0.012222159 -0.0065405234
主母 -0.0077196774 -0.009243153 -0.0070103803 0.014078438 0.0083122235 -0.0020997361 -0.01044544 -0.013590197 0.0032296886 0.0032093432 -0.007603712 0.00042094704 -0.011369159 -0.011672173 0.007938302 -0.0050755157 -0.011746576 -0.004010925 0.011546909 0.006257476 0.0022720154 0.0029134091 -0.015299633 -0.0019686394 -0.0074977125 0.0050820922 -0.0029304938 0.0056586936 0.014367854 -0.0070762704 -0.012362722 -0.0053521614
踣 -0.003909545 -0.0014605441 0.00090573926 0.010872259 0.0114806015 0.0068008928 0.0005234449 -0.007650974 0.0038725808 0.013540966 0.015575551 0.016620986 0.014543793 0.015349872 -0.0075400043 -0.0020162081 0.0029201931 -0.008199549 -0.0051711663 0.005288464 -0.010286795 0.0069220914 0.0006722758 0.007996881 0.01308212 0.0088170245 0.008332254 0.007681984 0.010117989 0.0023542393 0.00021902827 -0.008137221
遣 0.012272721 -0.015495311 -0.007965605 0.012804371 -0.014756309 0.0015058633 0.012489593 -0.0041804793 0.014050919 0.010108917 0.013033356 -0.0077304565 0.00013533495 -0.0064709806 -0.00026266684 -0.0063332943 0.011026689 0.0060097086 0.0038160416 -0.014800115 0.009506229 0.0032583158 0.0006977437 -0.008961568 0.0009266898 -0.015578583 -0.0010583384 -0.009827544 0.0026050599 0.010736141 -0.012043069 0.005203051
如此 -0.008970812 -0.0033979642 0.014121338 0.014167891 -0.0008142381 0.0056205783 0.00032202402 -0.005599409 -0.0013852863 -0.0010137751 -0.0121641215 -0.009899626 0.015889041 0.0038725422 -0.008231973 -0.008616719 -0.010225008 -0.00047188517 -0.0005624312 0.011996646 -0.00630112 -0.008063601 -0.009169319 -0.012300793 4.050463e-05 -0.015022388 -0.003915423 -0.019544754 0.016654616 0.001516362 -0.015704576 -0.013991277
琉璃 -0.01785905 -0.0026139596 -0.011848927 0.013758433 -0.0031019282 -0.010725545 0.011989484 0.0031205087 -0.010958472 0.00425084 0.00932044 0.0010963305 8.446632e-05 0.015445831 -0.010674213 -0.009945494 0.0056667896 0.010101566 0.018614704 -0.008068795 -0.011498186 -0.015044425 -0.012515185 -0.01671515 0.0031588958 0.0077495105 0.0034813753 0.007696421 0.017695913 -0.0065009976 -0.004418811 -0.016927835
红 0.0026286275 -0.0073930235 0.0017843257 0.0020657333 -0.016360505 0.016079452 0.0057502417 -0.0068760966 -0.0071273926 0.0009608738 0.002969874 0.00029877073 -0.006388406 -0.007250642 0.0016176867 0.012158849 0.00020818222 -0.0061437767 0.01625523 -0.014521732 0.00050852605 -0.0046439064 0.015285313 -0.0034537285 0.0063065314 -0.01201736 -0.016047696 -0.012454648 -0.0030717682 0.004187771 0.003894264 -0.019641934
绣 0.0067179375 -0.001265799 0.003892605 0.008598134 -0.01490288 0.0065275263 0.0106021175 0.0070214863 -0.012136534 0.0057315133 0.015219128 0.005543121 0.010236787 -0.0046729725 0.01178033 0.00935673 0.0021733248 0.004964793 0.0062606847 -0.004288506 0.010213666 0.0061869645 0.0014613768 0.00858516 0.004228265 -0.01297668 -0.01159066 -0.0049245046 0.009406903 -0.0009889076 0.00010650797 -0.015741026
鼍 -0.003674782 0.002897747 0.0025525314 -0.0053327135 0.0041702446 -0.0016955847 -0.0062583354 0.0072471295 0.0118544195 -0.00096144766 0.0129918475 0.0015068984 0.0035839588 -0.008096076 -0.013063854 -0.012374768 -0.010832136 -0.015387723 0.0022128988 -0.0034424972 0.011230644 -0.008072492 0.013033295 -0.0029343755 -0.0020867116 0.004763006 -0.006474626 0.0055851536 0.0015265584 0.009605158 0.009857091 -0.0103962505
