4912 30
. -1.7609549 1.0002941 0.41970068 -0.79170305 -0.12479505 0.16244528 1.0547594 0.8616824 -0.9354906 0.3575454 -0.19598964 0.116144456 0.4840207 -0.16471508 0.07694647 -0.4401918 0.3231709 0.3383122 0.63826656 0.2770318 0.50688124 -0.045336135 0.8145774 0.1521157 1.2755568 0.4724284 1.3866898 0.38629976 0.03182385 1.1022621
, -1.8941332 0.7632332 -0.83372796 -0.87195545 0.37499845 0.89435536 1.0518333 1.3074223 -1.4458982 0.7241463 -0.8980829 -0.05856468 0.37322798 -0.57165074 0.46614513 -0.90659446 0.08684431 0.24028218 -0.94445294 -0.26320416 -0.2664297 0.6004843 0.95345473 -0.9027729 0.80682963 1.1417621 0.4973955 0.8426004 -1.025027 1.5763167
the -2.6746051 1.8990674 0.3625464 -0.6407256 0.7275177 0.17988302 1.0109403 1.0147699 -1.1147163 -0.56088036 0.49331123 -0.6780812 0.4926287 -0.29461038 0.7717166 -0.7127272 -0.5242105 0.44407922 -0.3564866 0.7971421 -0.28509364 0.7274522 1.6074469 -0.9204689 2.3066168 0.8030329 0.73682165 1.8854204 0.019544953 1.824264
of -2.4770796 1.3933886 0.24223183 -0.5558161 0.4471327 0.34811196 1.0752641 1.2983519 -0.99012214 -0.32120505 0.0721549 -0.42662954 0.39768833 -0.06293329 0.65577096 -1.2741724 -0.48302853 -0.020878881 -0.13679843 0.46051747 -0.21802983 0.8671161 1.2422477 -1.0054781 1.6993669 0.54080266 0.5283665 1.1218072 -0.24789166 1.2854106
in -2.680043 1.6118593 0.20016672 -0.58336264 0.43622804 0.3690123 1.0625651 1.2881263 -1.1147205 -0.3455558 0.06221555 -0.5272067 0.5213548 -0.20204988 0.6441866 -1.1357619 -0.45890486 0.009507419 -0.30057663 0.43924463 -0.24012 0.9077038 1.2329458 -1.1014369 1.9137638 0.60109293 0.602122 1.370716 -0.14269668 1.4398228
to -3.582844 2.6908405 0.38447198 -0.41703328 0.481095 0.12009389 0.92073107 1.0699859 -1.0261462 -0.96607625 0.35373977 -0.6868298 0.68700165 -0.43558136 0.9646053 -0.62927383 -0.2922458 -0.266696 -0.24402964 0.70521677 0.016615791 0.43980747 1.350019 -0.65230846 2.7468169 0.27924123 1.3680751 1.739941 0.75782865 1.1864038
a -3.0211372 2.1639507 0.37275314 -0.5707106 0.55621856 0.038446005 1.0321461 0.968507 -1.0856977 -0.6005603 0.3808824 -0.7810975 0.5420193 -0.35265014 0.8961005 -0.5948905 -0.35490856 0.13362174 -0.27877238 0.8189468 -0.14557026 0.4901862 1.555003 -0.78791624 2.5202622 0.63692015 1.1319525 1.7541564 0.34148338 1.6651744
( -3.9948182 -2.431849 -2.7821944 -1.8796401 -0.82074535 3.372433 2.1306238 1.4703103 -0.65519696 3.4123902 -3.1120353 1.5914018 1.4818914 0.65835804 0.5966969 -4.219852 -0.098442405 1.1483825 0.9196621 0.5771132 0.6418541 -0.6940531 1.4427544 -0.7540218 -2.0238283 1.3937889 -0.62057024 -1.7835878 -5.2666464 1.6996061
) -3.9995925 -2.2744603 -3.0292246 -1.6597917 -0.4016076 3.331608 2.04557 1.4501354 -0.45413616 3.143486 -3.1961238 1.8133248 1.4016873 0.45834342 0.31253162 -3.798978 0.21431604 1.3696517 0.7344952 0.36060598 0.46006185 -0.7308911 1.8324301 -0.3610574 -1.7724084 1.3922716 -0.06388442 -1.9705824 -4.780126 1.4897566
and -2.8755484 1.7704647 -0.009102478 -0.4690556 0.40719694 0.5087487 0.93866616 0.97706604 -0.94239306 -0.37549844 -0.012574494 -0.4006877 0.5470387 -0.24359742 0.7526365 -0.9665935 -0.30050218 0.05823607 -0.34780854 0.40092158 -0.095767215 0.446396 1.1233407 -0.7318721 1.7965467 0.41715544 0.7646808 1.1764833 -0.1258958 1.1445003
" -2.9741762 2.633032 0.30734465 -0.6371453 0.03243603 -0.39098233 1.3264583 1.2451317 -2.4475553 -0.1444127 -0.27564853 -0.53871465 0.7068907 -1.287167 0.6881858 0.18242206 0.38182867 0.2166505 -0.6160691 0.080569655 -0.31770578 0.9753378 1.5985751 -0.37309417 3.5053244 1.3306062 2.5163536 2.1837049 0.7060086 2.2370875
on -2.3096933 0.8980339 0.40352106 -1.0830024 0.121303774 -0.06316664 1.032122 1.2509454 -0.97326463 0.1621187 -0.05179236 -0.66529876 0.056231827 -0.58661354 0.2581037 -0.5067521 -0.28799117 0.19685024 0.25684467 0.69691265 0.12367056 0.62529874 1.3189275 -0.94857985 1.788906 0.7407643 1.0477593 1.4905399 -0.08801018 1.5787657
said -2.897066 2.2278526 0.25863633 -0.9800722 -0.04739423 -0.3544723 1.3022794 1.3295985 -2.351315 -0.06936762 -0.25770518 -0.7091027 0.5309512 -1.0914392 0.712658 -0.04110043 0.29320088 0.13443457 -0.5522398 0.11092996 -0.23165481 1.0438411 1.6481317 -0.73234135 3.25828 1.486372 2.1708674 2.0901496 0.4059361 2.4422126
's -2.2829227 0.9134263 -0.35848814 -0.71184313 0.18282622 0.6295237 0.9947284 1.1972682 -1.2472768 0.299622 -0.47028667 -0.017306704 0.6049973 -0.32759172 0.5258165 -1.1067241 -0.11489721 0.37749735 -0.3317821 0.13236608 -0.15450338 0.5883786 1.1189752 -0.7013421 1.2228506 0.8685797 0.5332662 1.0053025 -0.7546353 1.5139692
for -2.7730749 1.7599111 0.11969913 -0.63877755 0.47782582 0.3236199 1.0579349 1.191217 -1.1535909 -0.3642758 -0.028153557 -0.5856482 0.4564894 -0.30272365 0.7690142 -0.898453 -0.34012753 -0.09508409 -0.37680092 0.41674918 -0.20740935 0.68137467 1.3226352 -0.948483 2.0114894 0.6514248 0.87766 1.3585451 -0.05065765 1.4097439
1 -6.242454 -1.1575881 -0.4929101 -1.7527848 -1.061156 1.484562 2.1120877 -0.6760292 1.8797567 2.0584655 -1.4061656 0.3094704 1.3264676 1.4528193 0.85553354 -2.7215466 -0.32379898 0.48046976 3.7248852 3.5210621 2.0655777 -3.1131265 2.462256 0.7883512 0.29677963 -0.4780976 2.5934799 -2.5430634 -2.7463534 -0.09287442
- -2.958453 -2.0422788 -1.1064498 -1.3322035 -0.61268264 1.7185239 1.8935884 0.61018133 0.34040487 2.5519388 -2.065356 1.2324377 1.1114343 1.2271051 0.18459038 -3.343419 0.09698208 0.6597751 2.7915993 1.4793853 1.0214523 -1.5959505 1.5047864 0.8093773 -1.1758761 0.5005608 0.5563953 -2.530803 -2.888107 0.7626286
The -2.3701143 1.4321225 0.24303828 -0.5577873 0.16499688 -0.34247488 1.2208229 0.9755475 -1.4884831 0.023780065 -0.15484847 -0.55478734 0.49314514 -0.5279279 0.627049 -0.53208184 -0.0049352045 0.113835886 0.055738483 0.5911353 -0.19391865 0.6184222 1.4901074 -0.35935858 2.4428058 0.9327736 1.5736494 1.3170319 0.2681022 1.766387
was -3.0868666 2.3393195 0.33733442 -0.62482184 0.4201961 -0.06443209 1.0401479 1.2323599 -1.494281 -0.5552893 0.17556655 -0.737087 0.66897154 -0.6272183 0.76447064 -0.43060547 -0.17263715 0.014116874 -0.3692844 0.4985487 -0.15626945 0.70477027 1.4642172 -0.7196651 2.8616521 0.81722605 1.4983171 1.8479837 0.51835704 1.8809153
2 -5.912867 -0.80029726 -0.28998664 -1.5604987 -0.95666 1.2464821 1.9269887 -0.68736625 1.7823561 1.6860337 -1.1302707 0.15395343 1.2476674 1.3357071 0.87684697 -2.3685129 -0.32972473 0.40227774 3.4251795 3.372788 1.8985856 -2.8973856 2.2966292 0.71720076 0.5591234 -0.5220838 2.5206618 -2.2099566 -2.2925165 -0.12910266
0 -6.4534483 -1.0625246 -0.29564184 -1.7624986 -1.0950294 1.4070365 2.137303 -0.826893 2.0468357 1.9571921 -1.2882887 0.23106082 1.339609 1.5567856 0.8613543 -2.65495 -0.341016 0.42632404 3.98898 3.7704911 2.1840346 -3.3343613 2.490328 0.8826847 0.3997573 -0.6587169 2.7521322 -2.598243 -2.5634286 -0.2651213
3 -5.9785447 -0.7909573 -0.21578872 -1.6141461 -0.9661465 1.2730142 1.9316602 -0.7008319 1.8007897 1.6771094 -1.1286764 0.12243757 1.2377498 1.3788509 0.86714226 -2.4051402 -0.34312007 0.3656701 3.5001774 3.3794339 1.9343892 -2.9501934 2.3025548 0.7281743 0.5646934 -0.56100523 2.568862 -2.2124255 -2.2512784 -0.14601192
at -2.2940097 1.2426703 0.16770844 -0.5638571 0.30517918 0.24173753 1.0599084 1.0500152 -0.8606993 -0.15038651 -0.036657427 -0.48375806 0.40383995 -0.069667466 0.6238683 -0.98871654 -0.336009 -0.007193447 -0.0048069786 0.5298421 -0.12521 0.59638983 1.3082522 -0.7902474 1.6707749 0.62695587 0.67857146 0.9060677 -0.2404366 1.4819992
with -3.1030738 1.8896929 0.12460672 -0.56261164 0.40854394 0.28921577 1.0111426 1.0294803 -0.9408275 -0.43416592 0.0708081 -0.5540992 0.59962493 -0.33615202 0.7734559 -0.8464506 -0.35505196 -0.046578974 -0.20228836 0.5579691 -0.09734091 0.5299283 1.3017452 -0.87633765 2.094054 0.47437155 1.0379355 1.3452634 0.09395231 1.2782078
that -3.955771 3.2453985 0.56130236 -0.55468243 0.42720917 -0.25279123 1.1359447 1.1362314 -1.5454048 -1.0422808 0.42086756 -0.996484 0.7289051 -0.9054512 1.0232356 -0.11993537 -0.09742401 -0.15019956 -0.43907073 0.68926316 -0.06420321 0.6855394 1.479275 -0.8343406 3.4412296 0.5700393 2.0644753 2.4104433 1.0851927 1.6610632
from -2.7481086 1.5956839 0.120933995 -0.49121568 0.3983932 0.3291315 1.0760022 1.0639579 -0.79627335 -0.28304142 -0.016374169 -0.5206211 0.55336 -0.03826198 0.80650055 -1.0872363 -0.32446462 -0.08230323 -0.08154412 0.6095552 -0.09358416 0.4255799 1.3122498 -0.72474587 1.8327333 0.51093346 0.7255785 0.9116144 -0.16573341 1.3721638
by -2.8017006 1.6839404 0.15920483 -0.5437677 0.36275846 0.26548478 0.9628077 0.995861 -0.9280244 -0.3351792 0.035179093 -0.53999484 0.55013096 -0.21736073 0.71611726 -0.8509288 -0.24668534 -0.0032778585 -0.21127947 0.5477152 -0.07506597 0.46955743 1.2473655 -0.72061384 1.9210465 0.46767625 0.93463236 1.2049613 0.035866916 1.2626506
is -3.1179693 2.5713933 0.35376254 -0.6083503 0.37210545 -0.044102114 1.0993586 1.2237076 -1.6759223 -0.52185696 0.10264018 -0.6029825 0.7089884 -0.74449366 0.7537909 -0.38111937 -0.042479422 -0.02118659 -0.46026596 0.31378183 -0.20755498 0.80237716 1.4298463 -0.6656074 2.949471 0.8741423 1.7056395 1.9466459 0.57783335 1.8657112
: -2.3560011 -2.1220803 -1.3067492 -1.7823304 -0.71099144 1.3790933 1.3965795 0.50011784 0.14911729 2.336774 -1.8500232 0.63918614 0.43541166 0.27890086 0.03160323 -1.803742 -0.038046632 0.82282317 1.6441628 1.1111276 0.8656906 -1.014472 1.2514354 -0.15801543 -1.1724054 0.85785306 0.63558275 -1.2429434 -2.99937 0.8639495
as -3.4009461 2.4686072 0.42674026 -0.532946 0.47678778 0.008019974 0.9839637 1.0438054 -1.0903261 -0.75840443 0.31871304 -0.78143674 0.59147966 -0.41651934 0.8705121 -0.5420966 -0.29214773 -0.09743854 -0.22345935 0.6893928 -0.10430995 0.55632526 1.3957174 -0.84623474 2.720825 0.42785838 1.459522 1.742507 0.55047005 1.381156
he -3.3956716 2.9722345 0.5053037 -0.63435006 0.4017073 -0.33835384 1.2180542 1.1412449 -1.8829381 -0.6969415 0.23007752 -0.93736047 0.61257786 -1.1056383 0.90000623 0.13659938 0.02783113 0.037036747 -0.64924824 0.50472367 -0.27510607 0.8518744 1.6138653 -0.7776497 3.4861786 0.9635993 2.202912 2.348975 0.8904409 2.0824056
4 -6.1004553 -0.94463056 -0.40493762 -1.6517926 -0.9875964 1.4666338 2.081228 -0.61119705 1.7900543 1.8468652 -1.3131922 0.26017475 1.3449469 1.4515055 0.85354555 -2.6749508 -0.33065176 0.4279261 3.5306702 3.4147773 1.9883078 -3.0263848 2.3434665 0.7662903 0.39257377 -0.5331406 2.4985535 -2.3944998 -2.4848828 -0.10972626
had -3.739662 3.0686786 0.39318505 -0.60534984 0.70506513 -0.14453475 1.059535 1.2232821 -1.488557 -0.8327088 0.26747057 -1.1516585 0.8196572 -0.8374854 0.83228356 -0.09524646 -0.17511109 -0.25014472 -0.5368227 0.6151446 -0.10430211 0.65799296 1.4089041 -0.9533768 3.2735336 0.6076246 1.6982546 2.1745665 0.90987647 1.7716895
has -3.5711238 2.7122934 0.19893913 -0.54470915 0.6779052 0.011677707 1.0211269 1.092939 -1.3576525 -0.64173156 0.124565974 -0.96055967 0.80867916 -0.6738145 0.8257121 -0.34143078 -0.13802631 -0.24653281 -0.47512504 0.5319044 -0.06703048 0.51819533 1.2780899 -0.7846952 2.9181085 0.58123267 1.5099506 1.7887658 0.6831853 1.6584448
it -3.6255903 3.1643972 0.52662784 -0.5287814 0.4740531 -0.25528607 1.1336483 1.1595668 -1.6685954 -0.8847455 0.33208898 -0.9684345 0.67406 -1.0079895 1.0104071 0.08013175 -0.024541501 -0.002790929 -0.6234217 0.55261314 -0.16130942 0.7620735 1.5214717 -0.769948 3.4288235 0.7705003 2.0049527 2.3738542 0.9684707 1.9737595
his -2.878712 1.8937339 0.20162587 -0.6993531 0.4406032 0.15187792 0.9483025 0.9623992 -1.1238885 -0.42858735 0.1932384 -0.69448614 0.5680573 -0.46302542 0.7739473 -0.54471195 -0.34512317 0.15496032 -0.28804675 0.67214775 -0.12789324 0.53291917 1.4597154 -0.84162885 2.1828525 0.7130851 1.1132712 1.6757563 0.124198236 1.5863177
not -3.628649 2.7663631 0.27734166 -0.31681332 0.1885344 -0.23848489 0.8180767 0.55641663 -0.9817797 -0.8702092 0.21527222 -0.75378424 0.68663055 -0.92370695 0.95482415 0.22609799 -0.0015478239 -0.07064375 -0.061009746 0.64834386 0.27107382 0.051119078 1.0506485 -0.16229591 2.7436554 0.18612458 2.1255257 1.7734605 1.1533203 0.9558194
were -3.0337172 2.2675188 0.3920592 -0.62010026 0.4646149 -0.080727816 1.0391376 1.0438753 -1.2208582 -0.585333 0.23814051 -0.8092408 0.6513321 -0.51471776 0.7105399 -0.3682831 -0.13294964 0.0029592137 -0.18059504 0.6456675 -0.14477976 0.5178491 1.3815724 -0.64849794 2.6054666 0.5912772 1.4135797 1.6617192 0.5508328 1.5421746
be -3.9539893 3.5594347 0.7380144 -0.28968415 0.41775408 -0.29102886 0.99143606 0.8994952 -1.3900563 -1.1161954 0.60991985 -0.9570796 0.8437494 -0.9935508 1.0696418 0.08022556 -0.102407984 -0.1534482 -0.38481328 0.7155374 0.13758938 0.5381933 1.3988978 -0.7495059 3.3866787 0.46745995 2.0297232 2.5688686 1.3989067 1.6729116
an -3.0629714 2.1030526 0.31120113 -0.62167233 0.46204552 0.032741364 1.0246397 0.9730999 -1.1062571 -0.5307335 0.25059795 -0.71453094 0.55597574 -0.44674933 0.87619615 -0.5140168 -0.26975635 0.053944565 -0.16005269 0.7688929 -0.043972526 0.46994394 1.4767433 -0.70800185 2.4490736 0.648156 1.2948728 1.6937447 0.37284935 1.5950543
have -4.041287 3.498807 0.41639853 -0.39235628 0.76878864 -0.2035932 1.0266273 0.96066034 -1.4019862 -0.99648035 0.35439807 -1.192071 0.9400996 -0.8788727 0.93793213 0.042894825 -0.09354179 -0.33506703 -0.5127931 0.6496089 -0.0016202653 0.41745955 1.2917435 -0.76250964 3.3736298 0.42729038 1.8357878 2.2221975 1.2374656 1.5723329
after -2.7251923 1.236914 0.23021322 -0.8015552 0.36225763 0.3101268 0.9646287 0.9667009 -0.6487171 -0.28547367 0.07669459 -0.64151394 0.40092605 -0.06370608 0.6571839 -0.93282974 -0.47672185 0.04172005 0.026492586 0.826969 0.020948518 0.43197888 1.3860997 -0.9206672 1.648133 0.46276736 0.7080791 1.120617 -0.2634702 1.2793456
who -2.9290524 2.048406 -0.0369914 -0.6206746 0.36794314 0.24909326 0.961331 0.9574885 -1.364558 -0.37087294 -0.09916692 -0.6163692 0.47201002 -0.5713915 0.89042425 -0.47171533 -0.084489636 -0.009744664 -0.6769765 0.27315468 -0.27556318 0.6609881 1.2947242 -0.8403848 2.2493289 0.79343975 1.2369282 1.5364892 0.17448133 1.4918499
will -3.5284204 2.7798655 0.4658027 -0.59906626 0.32478595 0.04389178 0.93445784 1.0691555 -1.3489131 -0.851998 0.3249383 -0.55364394 0.76863456 -0.8005747 0.7901318 -0.22643073 -0.04944355 -0.06480858 -0.22256565 0.65782446 0.081854865 0.47546554 1.4952334 -0.43995923 2.9759748 0.51767385 1.7861068 2.0134246 0.85543764 1.3008589
5 -5.0748687 -0.97255784 -0.44784817 -1.3567848 -0.8548452 1.3371296 1.7777593 -0.4862736 1.5445225 1.7077535 -1.2080777 0.3683992 1.1961485 1.3330876 0.7113067 -2.4743936 -0.25264248 0.3698329 3.0876167 2.8297684 1.6885786 -2.6345189 1.940356 0.74454063 0.07319903 -0.43669942 1.9546669 -2.2171779 -2.2839885 -0.10839547
but -3.6662009 2.849262 0.36420813 -0.5195195 0.46008843 0.039442252 0.9438836 0.99711144 -1.2130367 -0.9301452 0.2870121 -0.867936 0.7133382 -0.66784704 1.0196724 -0.2579649 -0.1815607 -0.1573459 -0.44438526 0.6225836 -0.09055058 0.4766501 1.3786973 -0.7450675 2.8962765 0.4082734 1.6122522 1.9686025 0.77140796 1.3749326
first -2.092295 1.0415456 0.20374198 -0.8778478 0.4568238 0.36247048 0.86824745 1.1490767 -0.833284 -0.21975376 0.07985993 -0.4764787 0.32511884 -0.19087313 0.55794615 -0.8657413 -0.5461538 0.16189796 -0.117421 0.6311862 -0.10083764 0.76268846 1.3410984 -1.095521 1.2249732 0.6082289 0.33866394 1.272135 -0.41558483 1.3623703
U.S. -2.3094978 -0.69616985 -1.3268566 -0.95620966 -0.1786043 1.596392 1.3195636 1.1578385 -0.7261329 1.4678651 -1.4604222 0.75027734 0.79552674 0.1556471 0.32214582 -2.105041 0.023784192 0.7047363 0.27867007 0.16622807 0.20239721 0.081601284 1.0299023 -0.5078549 -0.34802604 0.9165861 -0.046290085 -0.49163106 -2.3556783 1.2631091
been -3.6068435 3.1673677 0.4137541 -0.4309824 0.39882374 -0.24943039 1.0044006 0.7533723 -1.2157078 -1.2159876 0.39406285 -1.0275567 0.56415594 -0.67193717 1.2729594 0.031117713 -0.08608259 -0.2776024 -0.42732152 0.6860261 -0.16251366 0.74922806 1.2614189 -0.6749332 3.1943314 0.4978858 1.9209478 1.9658443 1.1110984 1.158378
$ -1.3621441 0.255787 -0.25395346 0.0074891476 0.5657029 0.56987214 1.2677608 0.6376333 0.031131383 0.373134 -0.15417686 -0.17825241 0.2377762 1.0217608 1.0048538 -1.6467489 -0.572456 -0.19453546 0.4253517 0.5694339 -0.030003924 0.07186354 1.1865672 -0.28373334 0.5985257 0.47714898 -0.59838593 -0.75179166 -1.0581424 1.3787209
-- -2.2595012 0.40179154 -0.25538218 -0.5484174 -0.037149783 0.4228985 1.0919791 0.5424441 -0.34677285 0.5872812 -0.52806526 -0.06017642 0.5362079 0.21503237 0.51263106 -1.1895033 -0.12335493 0.1091664 0.6039324 0.70758134 0.2792879 -0.2513518 1.0856242 0.0099464 0.93429625 0.3749114 0.8675487 -0.22261852 -0.8073166 0.9417549
two -2.6610322 1.5496783 0.2511822 -0.58523697 0.39480546 0.28275558 1.0075456 0.83431673 -0.8782678 -0.30018795 0.117819466 -0.6007577 0.4214342 -0.1712162 0.68586594 -0.77561164 -0.34904286 0.056141622 -0.077207506 0.67306423 -0.067707166 0.39681688 1.2841218 -0.6975002 1.7946278 0.49159664 0.9259104 1.1622235 -0.09010137 1.1759661
are -3.0570662 2.2278562 0.3737248 -0.61196566 0.34967867 -0.01859971 1.00642 0.9530715 -1.1705827 -0.47649667 0.13402985 -0.6451975 0.6813791 -0.5231195 0.69376487 -0.40366188 -0.06702941 -0.023071967 -0.024254385 0.6235401 -0.018742122 0.40196952 1.2983304 -0.48167244 2.4915922 0.5134895 1.5165349 1.553846 0.5423333 1.404305
their -2.91092 1.8123918 0.23719345 -0.6532249 0.36817172 0.26647568 0.97175086 0.9121069 -0.9028089 -0.43133134 0.11573386 -0.59780365 0.5944569 -0.30721208 0.7839515 -0.6938428 -0.27915347 0.047330864 -0.0573524 0.73445886 -0.022556 0.3816296 1.3173001 -0.70554215 1.9744424 0.49107215 1.0486916 1.3185629 0.11173263 1.2586819
6 -4.7603416 -1.0033252 -0.46525064 -1.3201437 -0.7854826 1.338675 1.6868706 -0.36788678 1.4161966 1.689504 -1.1824791 0.40082145 1.109808 1.2564294 0.64966667 -2.4467864 -0.2288635 0.3578975 2.873553 2.5879357 1.5831361 -2.4352617 1.7884316 0.6745544 -0.036782034 -0.39241594 1.7120416 -2.148857 -2.278803 -0.046899207
beat -3.8312457 -1.7754233 -2.497327 -1.6998601 -0.4955308 2.9342287 1.9865787 1.6220185 -0.72417086 2.8264 -2.7597058 1.5616705 1.3895886 0.41582042 0.45643073 -3.7075257 -0.027574616 1.2411971 0.6078426 0.45221364 0.5575319 -0.3881013 1.4884362 -0.64181536 -1.4083508 1.2651505 -0.31870195 -1.4151738 -4.4059587 1.543356
which -2.912265 2.0628932 0.15828231 -0.48500356 0.46227348 0.1986525 0.91806227 0.9720081 -1.1243888 -0.5300314 0.14290196 -0.65430516 0.5003658 -0.36361334 0.85918087 -0.60927814 -0.24765487 -0.011232655 -0.48360875 0.45499387 -0.20887867 0.5831862 1.2529382 -0.81045 2.186222 0.5884602 1.051524 1.5132977 0.19299755 1.384073
would -3.7473795 2.917054 0.4943976 -0.6250386 0.31756544 -0.030979495 0.9522653 0.99054337 -1.2801629 -0.95869064 0.36552793 -0.718229 0.7459116 -0.87192315 0.8606669 -0.08348801 -0.09301087 -0.14709218 -0.19367793 0.7648009 0.14609122 0.38925692 1.5096674 -0.50065285 3.1343417 0.4676483 1.9214329 2.0822563 0.98248667 1.3480631
up -2.5204136 1.37396 0.16059172 -0.4195822 0.303259 0.21746911 0.93395483 0.69098866 -0.5195294 -0.22017345 0.06966012 -0.47877076 0.49613458 0.030016206 0.69353193 -0.82522666 -0.24810636 -0.04976145 0.16533943 0.74628866 0.05018599 0.065766826 1.1238911 -0.374363 1.6137944 0.3150498 0.9232214 0.6660878 0.036948785 1.0340683
I -3.604766 3.1592789 0.4166059 -0.5176643 0.23671177 -0.39389867 1.0778426 0.91452146 -1.649852 -0.81428176 0.26304105 -0.8216762 0.763095 -1.1877055 0.8733836 0.30506408 0.12692809 -0.055038873 -0.43076113 0.50484556 0.04344766 0.55253375 1.3641071 -0.41293043 3.3679087 0.6646956 2.297492 2.3148608 1.1343764 1.6244277
its -2.8064353 1.7438992 0.15643577 -0.53043914 0.3633953 0.20170915 1.006555 0.90576935 -0.92341 -0.31279606 0.07916131 -0.57886386 0.53920215 -0.2362794 0.787835 -0.6970791 -0.22607392 0.07412652 -0.14576966 0.6722242 -0.060053863 0.36129132 1.2752037 -0.6510759 1.9788396 0.5842624 1.058485 1.2142593 0.07901358 1.4026304
they -3.397479 2.853317 0.4837259 -0.5179831 0.4053407 -0.17736353 0.9857772 0.9737742 -1.3801194 -0.9333044 0.35390124 -0.91908646 0.5797585 -0.8239201 0.92039984 -0.024856888 -0.07543199 -0.09738165 -0.3949767 0.5844629 -0.12946904 0.56920993 1.3403156 -0.7203524 3.0377338 0.52799284 1.7502524 2.1430297 0.90885764 1.5489215
percent -2.1825771 1.1739275 0.2842053 -0.32475176 0.36645374 0.22904839 0.8200007 0.63632506 -0.4207414 -0.20741451 0.13744338 -0.43780681 0.3731682 0.23126297 0.63635975 -0.8761 -0.35957006 -0.06546495 0.009367607 0.706585 -0.04430529 0.093202986 1.0492392 -0.37274835 1.4289863 0.2819955 0.60359997 0.507968 -0.12521413 0.95470864
year -2.4265494 1.8827145 0.37665454 -0.40367112 0.52044016 0.14702196 0.8879132 0.9949635 -1.2150863 -0.48838124 0.27641928 -0.5874381 0.5232334 -0.1780596 0.82989246 -0.65846294 -0.31734413 -0.07641998 -0.4232723 0.45591736 -0.3237525 0.7027463 1.2999524 -0.8146006 2.1866748 0.6105156 1.0331833 1.3758744 0.21733534 1.4479327
out -2.3076158 0.99623275 -0.077501684 -0.4704481 0.07078501 0.34865057 0.62843955 0.3067843 -0.26698178 -0.07911578 -0.118510626 -0.16906287 0.52852976 -0.1755511 0.504039 -0.4732554 -0.06646847 -0.013816 0.29650047 0.5824695 0.2896658 -0.22198017 0.7568966 -0.15876478 1.0974097 0.07815267 0.936825 0.38470078 -0.02791709 0.42622358
Thursday -1.9095263 0.78832394 0.21598132 -0.90111506 0.086954996 -0.14959532 0.9775612 0.6984792 -0.8073158 -0.13455471 -0.03644756 -0.737411 0.2851153 -0.4021979 0.471941 -0.17707808 -0.08633545 0.21566957 0.3062667 0.9113869 -0.06364787 0.34374833 1.3343701 -0.72050935 1.5024698 0.8511613 1.0577663 1.1607342 -0.01913825 1.6046215
this -2.9549987 2.3480635 0.39927614 -0.54478645 0.5459305 0.03690972 0.9348733 1.1159846 -1.2914404 -0.56728816 0.30470023 -0.6262089 0.5388617 -0.5019139 0.8446719 -0.3711567 -0.1560056 -0.029226119 -0.5646143 0.5114609 -0.14558879 0.55044353 1.4062076 -0.628732 2.596543 0.61519563 1.3328596 1.8398894 0.5427503 1.5330487
last -2.2948236 1.4887952 0.32380617 -0.56747764 0.48505878 0.18470676 0.8399443 1.0304073 -0.9022354 -0.2956381 0.19252591 -0.5277409 0.32792243 -0.17284182 0.65563494 -0.626071 -0.26887223 -0.014801262 -0.3823151 0.516917 -0.1783933 0.49787068 1.2639202 -0.6828697 1.8071827 0.5055107 0.72940296 1.2544546 0.042718094 1.2671866
million -1.735701 0.4282797 -0.1876763 -0.073567666 0.45394915 0.57411814 1.1112932 0.6302283 -0.01918967 0.21819566 -0.15655503 -0.1966885 0.3741709 0.8129347 0.9017922 -1.4555082 -0.43567953 -0.123178855 0.34509513 0.59674525 0.0063725305 0.011842391 1.1814617 -0.28692436 0.80182827 0.4040756 -0.23329253 -0.46043473 -0.9454262 1.1711284
over -2.6677945 1.1429589 0.109053224 -0.6010964 0.20326313 0.4143373 0.9880847 0.8193251 -0.62973565 -0.084587775 -0.10405066 -0.3126948 0.51834965 -0.04630962 0.6411946 -0.97150904 -0.35751083 0.06489018 0.13020197 0.71565425 0.10032488 0.26075017 1.2190617 -0.6152178 1.4762819 0.40329975 0.83506405 0.78291595 -0.3219151 1.0312204
Wednesday -1.6814312 0.28402928 0.050746877 -0.89270705 -0.009414025 -0.01781936 0.8175989 0.39919192 -0.3919813 0.09102778 -0.16677752 -0.5870808 0.23726313 -0.23717402 0.39502835 -0.19456197 -0.06916807 0.26238376 0.50540125 0.99040043 0.10289115 0.013520707 1.1865662 -0.5240705 0.9419275 0.65473646 0.8879341 0.6692966 -0.29155907 1.2331927
one -2.3262875 1.5130379 0.10398156 -0.5069605 0.33722806 0.19753377 0.89170694 0.797723 -0.9598193 -0.19048518 -0.004372596 -0.44120857 0.45734915 -0.3297492 0.59584016 -0.54778206 -0.21192713 0.11971352 -0.25901118 0.44456047 -0.08914551 0.43854907 1.098414 -0.61084026 1.7731384 0.5473037 0.9273153 1.1027524 0.017574241 1.2440803
7 -4.356129 -0.8281949 -0.4595648 -1.185738 -0.6920525 1.2174094 1.5652592 -0.32808116 1.2455554 1.502498 -1.0876558 0.32385308 1.012816 1.1162517 0.5967835 -2.1720552 -0.22649488 0.33432913 2.5326574 2.3470047 1.405587 -2.1397636 1.6791393 0.54915375 0.07059401 -0.2982266 1.5864515 -1.8669139 -2.0276203 0.009709205
government -2.6015859 1.8967992 0.29417896 -0.509828 0.33687508 0.059665147 0.94659424 1.0093153 -1.1918955 -0.41357222 0.12902838 -0.5639712 0.47156557 -0.51674265 0.64974356 -0.4676048 -0.164392 0.03172979 -0.2708155 0.40976918 -0.111875206 0.65013677 1.1646904 -0.71374476 2.162164 0.62535346 1.1470689 1.5156784 0.31247488 1.4132669
against -2.254592 0.635961 -0.418956 -0.88679314 0.2151538 0.6781257 0.9767287 0.929728 -0.836737 0.4770736 -0.55564153 -0.21798822 0.3887425 -0.14740425 0.49708435 -1.0205016 -0.15889493 0.17433295 -0.14172745 0.34592938 -0.041130126 0.19353385 1.1486894 -0.74076295 0.9042742 0.7916972 0.60500515 0.6321775 -0.84253514 1.1948438
/ -2.6197405 -1.3919473 -1.1196798 -1.1896561 -0.30665818 1.5692472 1.5507641 0.8468981 -0.09066111 1.9881318 -1.6910912 0.78999996 0.8456145 0.79934806 0.31773317 -2.7878559 -0.105416566 0.57569873 1.7077674 1.0708144 0.6049696 -0.9248662 1.3400472 0.1808945 -0.8286585 0.6189847 0.25348327 -1.494279 -2.5071557 1.0178287
police -2.3639572 1.5650615 0.18101636 -0.5238783 0.25315422 0.019086832 0.9491665 0.8256776 -1.1091824 -0.21425621 -0.03737657 -0.5292561 0.473389 -0.48562533 0.5919587 -0.35082832 -0.03443319 0.084600165 -0.15800346 0.44979492 -0.113824785 0.43387026 1.1322747 -0.51968455 2.0249844 0.61415607 1.2250963 1.2012192 0.17941798 1.336618
when -2.914648 1.8215566 0.25608885 -0.5832455 0.2988226 0.12274885 0.9069188 0.86344516 -0.89188945 -0.47982034 0.15437667 -0.58806586 0.53938186 -0.3572089 0.70538896 -0.5319303 -0.23807456 -0.032591585 -0.091395944 0.65265805 0.01866417 0.38234222 1.2370082 -0.6362102 2.1011126 0.4215134 1.1725188 1.3550061 0.2570374 1.1725645
second -2.0209787 0.6741277 -0.10748438 -0.6690051 0.21416213 0.5531084 0.8304371 0.87467885 -0.65393126 0.098538056 -0.22797275 -0.17679755 0.4311814 -0.0487491 0.47696573 -0.98627675 -0.33270475 0.20773652 -0.02516313 0.48072037 -0.060561407 0.40311125 1.1031952 -0.75987446 0.8523233 0.5262607 0.33900917 0.68335664 -0.72051716 1.0622451
also -2.8077295 1.8578625 0.23150268 -0.50578886 0.27091324 0.09543014 0.9582447 0.8401801 -1.0279046 -0.35498145 0.028717156 -0.54885286 0.554228 -0.44664678 0.7106115 -0.4751938 -0.0925754 0.016732624 -0.1399807 0.55656016 -0.013606571 0.3874743 1.2148488 -0.5256475 2.154653 0.5192322 1.3162663 1.349256 0.29416683 1.2942041
Tuesday -2.0324447 0.8175171 0.13227038 -0.82789594 0.050151177 -0.06557563 0.9060727 0.6251311 -0.71682686 -0.0964577 -0.0635219 -0.62074673 0.3229658 -0.31086206 0.486747 -0.24977443 -0.08053515 0.16252394 0.30686346 0.84791595 0.023419352 0.20767571 1.2405322 -0.5686629 1.4715071 0.69388384 1.0537368 0.9948774 -0.07785435 1.3699325
He -2.3993955 1.7696658 0.34690812 -0.505123 0.17566127 -0.26720995 0.9431637 0.776537 -1.1662325 -0.3275623 0.10257365 -0.63397515 0.4453016 -0.62323594 0.6123123 -0.07998501 0.0067590065 0.010302579 -0.12758468 0.5265207 -0.0799719 0.48381123 1.1865791 -0.42195976 2.3091817 0.6346311 1.5449246 1.4071491 0.4972915 1.3661764
It -2.2939522 1.7639132 0.30425617 -0.4145339 0.22325349 -0.19941421 0.874197 0.811861 -1.2242662 -0.35433468 0.09664132 -0.52987117 0.46554938 -0.60918885 0.63449335 -0.15255721 -0.0136748925 0.014329323 -0.22350511 0.39139962 -0.14521988 0.54859555 1.116331 -0.4038464 2.2249398 0.6224017 1.416156 1.3730328 0.49469274 1.3568078
A -2.3074675 0.5938589 -0.07760059 -0.6668372 0.008900825 0.3092886 0.983802 0.60856956 -0.5615036 0.33960083 -0.38109627 -0.18483755 0.55305535 -0.026480705 0.4831277 -0.9576821 -0.08361768 0.18403845 0.5104218 0.7732916 0.20774691 -0.107568964 1.1378387 -0.17988543 1.1559246 0.4677977 0.96969014 0.31280854 -0.44017482 0.9998175
three -2.3920643 1.0074588 0.024051039 -0.5802695 0.24053393 0.39417684 0.8743253 0.61674964 -0.5210956 -0.041862004 -0.104492016 -0.33831644 0.45257926 -0.04550853 0.55756146 -0.8423389 -0.30407017 0.11513218 0.17158912 0.70619416 0.0981909 0.055238884 1.0765679 -0.51554585 1.2168663 0.3339601 0.7612583 0.67175984 -0.3357446 0.84783983
told -2.776149 1.8036151 0.1624494 -0.6520704 0.15672226 -0.029738246 1.0635729 0.9495298 -1.3403577 -0.17037371 -0.13861112 -0.55813086 0.49643183 -0.61545485 0.6657583 -0.4266721 -0.055082887 0.050542705 -0.17773497 0.41228005 -0.017798524 0.5577032 1.3321152 -0.6039168 2.3513706 0.82027143 1.5195869 1.4682031 0.23096263 1.5555036
new -2.68403 1.6448258 0.18901496 -0.54855555 0.27209887 0.17626168 0.9050816 0.78089154 -0.8347225 -0.28248018 0.041934095 -0.4936079 0.53121555 -0.29860154 0.6541233 -0.5653702 -0.18303074 0.029915495 -0.032900147 0.592309 0.029488778 0.27502906 1.1886697 -0.52207327 1.9034456 0.46093494 1.1806637 1.1290909 0.13741583 1.1519067
10 -2.7552452 -0.33271113 -0.103946194 -0.68109894 -0.36120322 0.6824302 0.9661087 -0.2469745 0.806666 0.7781311 -0.5381777 0.12581387 0.59158087 0.74975175 0.4123383 -1.3057021 -0.18792202 0.11861091 1.5916859 1.559085 0.8616818 -1.360257 1.0854889 0.39194053 0.208408 -0.24793233 1.1165051 -1.1192887 -1.1075237 -0.0010459677
Monday -2.0926876 0.9763622 0.15363947 -0.7374001 0.13030127 -0.060695276 0.92208993 0.658123 -0.72137976 -0.15519874 -0.012248174 -0.6334868 0.32951692 -0.32528132 0.54836994 -0.27164972 -0.12030819 0.14929841 0.21756233 0.8168115 -0.0036556427 0.2679532 1.2650604 -0.61643136 1.537124 0.6658071 1.0282348 1.0483052 -0.026001688 1.4072983
or -2.8323908 1.5569346 0.12993173 -0.5146465 0.24464531 0.27113482 0.9782562 0.7819773 -0.73352194 -0.23290728 -0.020039339 -0.43834946 0.55753267 -0.17046107 0.6820728 -0.7465513 -0.2044834 -0.009933758 0.07611091 0.6383318 0.08218368 0.138762 1.1806498 -0.46385682 1.8238649 0.37395635 1.090354 0.9166352 0.009755401 1.1002322
about -2.5664144 1.522055 0.13238621 -0.4242156 0.19977383 0.16107303 0.83067155 0.5965104 -0.6526852 -0.24339338 0.008624161 -0.43366578 0.53023833 -0.20282227 0.6714886 -0.49129295 -0.13028033 0.00049187074 0.04157864 0.6094081 0.10265393 0.08947085 1.0441825 -0.34276924 1.7405635 0.32699496 1.12004 0.8751906 0.10714196 1.0029877
Friday -1.9212227 0.45943102 0.09831473 -0.76931256 -0.03505302 0.10470583 0.81655365 0.39773035 -0.3080937 0.07164496 -0.13203843 -0.45578042 0.3365392 -0.094333775 0.42508087 -0.41553596 -0.10587314 0.17888568 0.54575115 0.9686878 0.20733958 -0.10116582 1.1005116 -0.41092312 0.9976459 0.47574243 0.91404843 0.5166905 -0.28453964 0.9691698
people -2.57489 1.7749586 0.28283855 -0.3793179 0.31644776 0.06749502 0.7861751 0.6374194 -0.71880215 -0.49386322 0.1898996 -0.58752173 0.5103954 -0.264998 0.69395274 -0.40919575 -0.16592214 -0.07945614 -0.063937485 0.6350173 0.012435251 0.22794904 1.0069897 -0.4496972 1.9087363 0.25611743 1.0825758 1.104611 0.34128818 0.965604
In -2.256438 0.6211299 -0.05733223 -0.61302817 0.032181676 0.2908249 0.93948853 0.60525775 -0.5633425 0.2561954 -0.34828702 -0.2598214 0.46759778 -0.07630284 0.47330895 -0.8177732 -0.121943854 0.1047298 0.33613998 0.6922564 0.098713234 0.06059725 1.15963 -0.3499468 1.1710052 0.48968956 0.9586442 0.41531724 -0.4880103 0.9898593
her -2.6991026 1.569676 0.05982734 -0.58337116 0.2872197 0.20838067 0.8683082 0.7662467 -0.8020336 -0.27362385 0.009434977 -0.48776725 0.5448744 -0.3404258 0.69199246 -0.5379105 -0.18353447 0.087787464 -0.09939878 0.5739578 0.025420673 0.28671616 1.16196 -0.57696325 1.7584397 0.4616766 1.0534588 1.1273885 0.054967932 1.1593821
9 -3.5566635 -0.70801055 -0.35830832 -0.9867202 -0.5484728 0.9757942 1.2777976 -0.26562613 1.0132679 1.2284931 -0.90393806 0.25723976 0.85228246 0.92972463 0.51837057 -1.8090336 -0.16833028 0.26060304 2.1603556 1.9584508 1.1735698 -1.7759408 1.4017413 0.51616365 0.057465136 -0.26034573 1.3297055 -1.57888 -1.6543572 0.010660614
1996-08-28 -2.7394817 -0.16456425 -0.3507695 -0.93789905 -0.20463881 0.7183299 1.2663618 0.5731685 -0.19544242 0.8866281 -0.82188714 0.20002063 0.77967685 0.32918644 0.41125977 -1.5964559 -0.074386485 0.31823233 1.2694814 1.0522408 0.56552464 -0.6315255 1.2800622 0.045175735 0.49854457 0.36447847 0.9035431 -0.45448735 -1.1929232 0.89421767
no -2.6923285 1.9663545 0.26616016 -0.4738046 0.21217285 -0.05376037 0.86527103 0.7538575 -1.0129184 -0.44017106 0.100910634 -0.5784829 0.51429737 -0.5238644 0.7253493 -0.22697783 -0.05470609 -0.0016325053 -0.16383244 0.49215004 -0.019102614 0.32296568 1.1230001 -0.45470008 2.2093263 0.50910896 1.4238793 1.3802831 0.45629233 1.1801502
we -3.0564642 2.2512314 0.29723167 -0.4624801 0.26760566 0.005969671 0.8941984 0.74531925 -0.9668211 -0.56630105 0.17657894 -0.579695 0.60767174 -0.5775585 0.7407843 -0.24527481 -0.07756747 -0.056324746 -0.15055269 0.5746891 0.080318026 0.25691438 1.1484079 -0.47419307 2.3567185 0.37445366 1.4729052 1.5055561 0.57316434 1.151513
won -1.9204404 0.55786985 -0.49829257 -0.87571126 0.3461224 0.71761644 0.8688988 0.8230205 -0.8897588 0.4936486 -0.5773218 -0.31081918 0.2663191 -0.19557679 0.55888164 -0.8197537 -0.06634808 0.24206427 -0.42418262 0.32920715 -0.1711023 0.30653 1.1635685 -0.7418552 0.76236594 0.8359705 0.5232503 0.5714071 -0.7764888 1.2505248
New -2.2759547 0.21802546 -0.30748722 -0.6869734 -0.08725274 0.5691492 0.9907157 0.46595776 -0.24674432 0.5751377 -0.5270038 -0.026175972 0.49684438 0.18554229 0.37677553 -1.117323 -0.06010196 0.21244843 0.6198042 0.76661265 0.39360034 -0.351111 1.0228034 -0.17399567 0.65128845 0.37841398 0.78049946 -0.13528435 -0.91671044 0.8070421
into -2.687829 1.4346782 0.1019922 -0.55809134 0.2437333 0.26673728 0.90522295 0.8171133 -0.7516721 -0.22547114 -0.047992177 -0.40971172 0.5484898 -0.23749395 0.6282301 -0.74568796 -0.22478183 0.01499024 0.040231682 0.6164411 0.06750959 0.26683885 1.1227516 -0.58605295 1.7106338 0.42740884 1.0202059 0.99066883 -0.051283933 1.0740039
under -2.2980533 0.64707714 -0.4498898 -0.873158 0.31041002 0.66806465 0.9283864 0.75681216 -0.6472347 0.44556442 -0.5556221 -0.29529592 0.34514394 -0.1460851 0.5529945 -0.89733773 -0.056331128 0.19035022 -0.12696323 0.4895134 0.034324635 0.05474284 1.1601431 -0.5854545 0.87727916 0.6517059 0.69422054 0.49417642 -0.71578 1.1703614
some -2.6236975 1.4260434 0.10398289 -0.503866 0.26261026 0.25182298 0.8964641 0.7090673 -0.69570863 -0.21755655 -0.0032691993 -0.40471452 0.5292614 -0.18846984 0.655942 -0.69249904 -0.1890697 0.06004685 0.057555955 0.62672085 0.08320011 0.17035109 1.1137844 -0.47275305 1.6505262 0.37221318 0.982064 0.92524546 -0.038937364 1.0653397
Sunday -1.9246078 0.19530156 -0.038953267 -0.8880906 -0.050387226 0.22656554 0.84359074 0.43350926 -0.26983523 0.26354846 -0.2782252 -0.33219543 0.31875962 -0.06012631 0.3805524 -0.5820363 -0.14434911 0.2526155 0.63021326 0.9419588 0.2161011 -0.14413926 1.1523012 -0.42111894 0.7473944 0.49277857 0.81893045 0.38165987 -0.55054516 0.94620013
But -2.5197484 1.6091999 0.19799563 -0.5316632 0.15118018 -0.051768374 0.94096786 0.7909191 -1.0675896 -0.21723987 -0.041213665 -0.49505064 0.506482 -0.474459 0.62424785 -0.36143032 -0.041479427 0.009322066 -0.06530995 0.526297 -0.026148323 0.39265987 1.1656038 -0.43853733 2.079761 0.5950606 1.3959918 1.2244669 0.26550904 1.284523
8 -3.2783592 -0.8565255 -0.5689989 -0.96771765 -0.48882833 1.1540034 1.2910937 -0.040557105 0.78977877 1.3740771 -1.0720975 0.4351792 0.81310433 0.8601423 0.46641624 -1.9538503 -0.14367709 0.33260578 1.8690226 1.640538 1.0178127 -1.545316 1.3067344 0.39005437 -0.16106611 -0.05967214 1.0180596 -1.5233641 -1.8645499 0.18707804
more -2.6137571 1.6574863 0.20409878 -0.4194862 0.20743932 0.10759066 0.8107322 0.5808111 -0.72123146 -0.39031395 0.03356111 -0.43623966 0.5320821 -0.25840127 0.6374872 -0.4332086 -0.16081609 -0.016713362 0.07323116 0.61849886 0.054479998 0.10379579 1.0407379 -0.388685 1.8027925 0.22443472 1.1799282 0.9281213 0.21432646 0.9391641
before -2.5505557 1.366419 0.15034561 -0.53513265 0.16318671 0.22551972 0.83268005 0.70464164 -0.6770482 -0.21816286 -0.03259503 -0.3932426 0.5306403 -0.2220185 0.60314626 -0.6110919 -0.17796665 0.006867898 0.09284725 0.61590284 0.101868235 0.18499038 1.0773879 -0.48126516 1.6051707 0.37213868 1.032011 0.91514313 0.02551643 0.9711516
week -2.3564906 1.5108426 0.23065892 -0.50150484 0.31497473 0.14696077 0.77154785 0.74289876 -0.9227062 -0.33440426 0.12774211 -0.47670943 0.5044119 -0.24718285 0.641763 -0.5005738 -0.16993518 -0.013893542 -0.10990876 0.5286135 -0.091495 0.34094527 1.1123097 -0.57718295 1.8218987 0.4662643 1.1036336 1.1312029 0.14191806 1.1183182
' -2.269335 0.78100634 -0.08924424 -0.6290698 0.037995193 0.37568185 0.91833425 0.7087682 -0.6476465 0.23276685 -0.35253412 -0.13657255 0.5336997 -0.15558645 0.47960883 -0.8256942 -0.05330625 0.15507625 0.27479464 0.57579464 0.16323355 0.030026162 1.0801564 -0.32695973 1.1505247 0.5026583 0.90936697 0.4879383 -0.44472563 1.0412159
than -2.7253423 1.5936522 0.26770526 -0.40524626 0.24600323 0.17006214 0.88828766 0.6948316 -0.6457517 -0.33432913 0.04887602 -0.506908 0.5777663 -0.082090735 0.6572074 -0.5973965 -0.19031319 -0.09156605 0.05177518 0.6529002 0.11738756 0.13039377 1.0233959 -0.41265222 1.7015662 0.21871108 0.9899191 0.86895955 0.13493131 0.92459095
time -1.9728118 1.0106246 0.013887555 -0.44191504 0.20733213 0.31429642 0.7104928 0.7035327 -0.6600598 -0.058182262 -0.076526664 -0.28141838 0.43410054 -0.16622372 0.47284767 -0.6225987 -0.2001965 0.06874906 -0.08989969 0.3660549 -0.027997598 0.3227637 0.90412045 -0.5275118 1.1929028 0.42833853 0.63500977 0.768223 -0.20077163 0.8962514
Germany -2.120117 -0.7248986 -1.2124401 -0.8563842 -0.19941252 1.446101 1.0575356 0.78505963 -0.39354756 1.350777 -1.3589915 0.67743427 0.6946734 0.18738404 0.27028352 -1.7963991 -0.018835042 0.57126355 0.3374128 0.2735055 0.29566136 -0.23117453 0.8730459 -0.3343765 -0.4919375 0.6863118 0.022802483 -0.6229607 -2.146718 0.8931815
could -2.6581385 1.8366176 0.22235122 -0.4942764 0.24450171 0.10095492 0.74871004 0.7167222 -0.8323644 -0.45989642 0.108804025 -0.4670158 0.554554 -0.46889824 0.6412111 -0.26654753 -0.058914468 -0.05762849 -0.05273757 0.56230605 0.0935475 0.22154392 1.0781857 -0.36699554 2.0019205 0.3232964 1.2906144 1.241571 0.41034797 0.98978907
market -2.1122699 1.0725269 0.074015275 -0.47761998 0.1805387 0.19455081 0.82148784 0.66255075 -0.6748542 -0.034367573 -0.08650768 -0.312919 0.42646393 -0.16801126 0.5160566 -0.60962886 -0.13104902 0.078017294 0.05436195 0.49533528 0.029916372 0.21987261 0.97442394 -0.43010977 1.3601813 0.43486694 0.84476966 0.713181 -0.13608964 1.0451081
We -2.10409 1.674058 0.2229368 -0.39585963 0.07981307 -0.17937753 0.7442338 0.5924127 -0.99471235 -0.29925764 0.030503532 -0.45536384 0.43672958 -0.5881488 0.5121848 -0.06335186 0.05641138 -0.038478576 -0.12640835 0.33978328 0.0013864831 0.32159716 0.88057524 -0.27566 1.965324 0.45618066 1.3906332 1.1451857 0.5048959 1.0404744
points -1.5123737 -0.398514 -0.6089619 -0.75923973 -0.03782795 0.8216067 0.7269344 0.4626206 -0.2524633 0.8881745 -0.84436053 0.10751644 0.23313206 0.13705441 0.25431442 -1.003552 -0.090304345 0.28055587 0.18374924 0.35739192 0.11652947 -0.22096053 0.7823551 -0.32221696 -0.082043044 0.57135767 0.27036732 -0.22821346 -1.3328769 0.65357286
between -2.3936946 0.89221513 -0.05001368 -0.579057 0.17164539 0.45450443 0.8750083 0.6755789 -0.5232667 0.07640687 -0.20014173 -0.22610976 0.48561466 -0.07138755 0.47106552 -0.9024615 -0.20466533 0.14098601 0.19942406 0.6219919 0.12843908 0.07323836 1.0185896 -0.44799677 1.1499661 0.36023116 0.7444221 0.57756996 -0.42347282 0.8873025
Australia -2.3372416 -0.72275084 -1.1447673 -0.9327466 -0.1844792 1.4500598 1.1534232 0.80680156 -0.346673 1.3536754 -1.3458747 0.6283644 0.7150877 0.22474737 0.31796786 -1.8908052 -0.006903534 0.57546616 0.48622805 0.4331793 0.3392847 -0.30750257 0.9650301 -0.3030482 -0.4249357 0.6315288 0.12568821 -0.62914723 -2.125211 0.89037853
years -2.0212836 1.2147819 0.20753488 -0.3977624 0.2643665 0.115623645 0.6748599 0.57152444 -0.6252772 -0.27235898 0.081749484 -0.44447547 0.39044282 -0.16000949 0.5259896 -0.49430683 -0.19552407 0.00889103 -0.014524909 0.5348115 -0.0010736586 0.17949212 0.92923445 -0.42679158 1.4125918 0.32341695 0.8410643 0.82650834 0.043856148 0.84697556
Britain -2.129906 -0.35092914 -0.89298683 -0.818691 -0.102936685 1.1574612 1.0373182 0.74653006 -0.40007278 1.0460137 -1.0514877 0.4095175 0.6195063 0.110247746 0.3382895 -1.5136993 -0.059324354 0.48593423 0.35149822 0.40462846 0.2827326 -0.16573256 0.9324372 -0.37002522 -0.10063243 0.61509734 0.22686665 -0.2811053 -1.6903616 0.9318079
since -2.3654222 1.2579496 0.114476606 -0.5091629 0.19999725 0.1980709 0.7920134 0.58405507 -0.55449915 -0.21117578 -0.02071566 -0.44442207 0.48297563 -0.16541913 0.59002197 -0.545779 -0.16960327 0.004729454 0.087561905 0.6227122 0.079026125 0.1644901 0.9987256 -0.4379449 1.4746829 0.32836875 0.9466757 0.7988537 0.00890777 0.8693516
other -2.495651 1.248336 0.059139736 -0.5150799 0.18697922 0.27786553 0.8703172 0.61880004 -0.6231206 -0.13338222 -0.082402796 -0.36352408 0.5220032 -0.16545206 0.57739115 -0.6720755 -0.14997907 0.06025369 0.12007183 0.64545214 0.10956325 0.07305217 1.0463797 -0.3737025 1.4957415 0.33980379 0.99786085 0.7841799 -0.06345963 0.9474633
SOCCER -2.283839 -1.0949254 -0.52689886 -0.9695742 -0.42992252 0.94638526 1.2345018 0.26931736 0.41751164 1.5119839 -1.1221201 0.5909533 0.74832374 0.7586209 0.2068669 -1.9837976 -0.009740179 0.40298483 1.9739866 1.2903817 0.79565316 -1.2245193 1.0591705 0.5285703 -0.46152782 0.15769233 0.7541255 -1.5440098 -1.6862416 0.35645914
AT -3.8704271 -1.1574646 -0.5445407 -1.2183613 -0.5309457 1.325898 1.6133943 0.1811789 0.88806814 1.6036545 -1.3640344 0.67943275 1.1811404 1.1770562 0.39523023 -2.6534257 -0.05887977 0.33717138 2.7703476 1.9756504 1.3326362 -2.0009348 1.5855798 0.7469569 -0.23685649 -0.21587038 1.2338151 -1.8944504 -2.1393745 0.31959835
all -2.3727481 1.3447367 0.078911655 -0.49880818 0.18560079 0.22454536 0.7884812 0.65276724 -0.69988525 -0.16821806 -0.04671351 -0.37200913 0.50784427 -0.28290093 0.53969085 -0.531154 -0.12195376 0.032523267 0.023204723 0.51470745 0.083752565 0.17787701 0.9647206 -0.43603855 1.5120893 0.3518665 0.9593443 0.8996061 0.005543856 0.94303346
played -1.850446 -0.28212407 -0.49256045 -1.0961442 0.10622759 0.71301556 0.8842184 0.44287756 -0.18808456 0.75866014 -0.6939174 -0.22827251 0.19750783 0.08469477 0.34112844 -0.89491016 -0.15887785 0.3652796 0.33946866 0.8578788 0.21444248 -0.22573291 1.2250657 -0.5292443 0.14278339 0.6029581 0.47690433 0.0020098262 -1.1443148 0.944502
France -2.01372 -0.5522277 -1.0504916 -0.80428517 -0.14638273 1.285781 1.0004396 0.78692037 -0.42317688 1.1834003 -1.1818215 0.56589216 0.640577 0.13064365 0.31363967 -1.6628771 -0.0019467679 0.5243782 0.28805423 0.27443972 0.23938212 -0.1399008 0.8371312 -0.34283403 -0.32634372 0.62560904 0.06859787 -0.42721376 -1.8772875 0.9059363
state -2.2587206 1.0869586 0.10879484 -0.5290928 0.1476433 0.19607568 0.83328 0.6683319 -0.66788435 -0.03848457 -0.08086778 -0.30653018 0.45733488 -0.15659884 0.4980366 -0.6600502 -0.14423591 0.089471444 0.11921161 0.57890964 0.08098 0.18311796 1.0421181 -0.41077492 1.4371759 0.4211129 0.9560176 0.763318 -0.12760352 0.9919192
company -2.0616546 1.2807051 0.13430612 -0.44810098 0.20073025 0.1307553 0.7889021 0.7382473 -0.84815705 -0.13961858 -0.04133113 -0.3384868 0.4153864 -0.30552238 0.5155565 -0.4442916 -0.06688983 0.07599105 -0.116556615 0.36622632 -0.02797466 0.3702835 0.9695578 -0.44099405 1.5543295 0.47497448 0.939975 0.9602388 0.047430087 1.1229445
England -1.6478379 -0.26173872 -0.4715602 -0.6862662 -0.085640036 0.68308586 0.75868523 0.44218183 -0.17566635 0.713345 -0.6527637 0.20631766 0.42835143 0.18792662 0.23392117 -1.0956742 -0.05732342 0.28404322 0.6194763 0.53028274 0.29683703 -0.30491188 0.78071755 -0.117151305 0.035735782 0.38202444 0.35391295 -0.2671873 -1.0442204 0.6108625
Saturday -1.9024849 0.27550155 -0.017647384 -0.80173355 -0.049545627 0.2086304 0.79190904 0.36994657 -0.23118822 0.23876747 -0.24396917 -0.3544635 0.33148947 -0.020870479 0.40094513 -0.55990845 -0.1475456 0.21088456 0.61260027 0.9031993 0.21773058 -0.14126663 1.063346 -0.33077165 0.801589 0.4413907 0.8465943 0.3542217 -0.4450583 0.84750867
1996-08-22 -2.4097989 -0.10141044 -0.2909307 -0.7606866 -0.19462323 0.6393846 1.0578711 0.46094012 -0.10079617 0.7928164 -0.69845504 0.17095436 0.66771066 0.30955395 0.36411664 -1.3692101 -0.04494677 0.2669063 1.0797628 0.9164492 0.50767756 -0.55637014 1.0977175 0.06934188 0.43886212 0.30101126 0.83380604 -0.42141086 -1.0316408 0.74029356
only -2.4111555 1.3361533 0.104929484 -0.47846103 0.2005965 0.21012363 0.8423599 0.6703611 -0.7030761 -0.16873796 -0.028026946 -0.40265048 0.46354845 -0.22500324 0.58615613 -0.6026787 -0.16526648 0.030665392 0.008579106 0.5810584 0.03873025 0.19258031 1.0474405 -0.45555297 1.5904019 0.39875218 0.98191977 0.88624424 0.0070280503 0.9942287
officials -2.0795393 1.1752344 0.078248106 -0.47644633 0.12902826 0.05739679 0.7826935 0.6276836 -0.79424685 -0.08095085 -0.11523847 -0.3566353 0.42620376 -0.36251318 0.46795925 -0.338822 -0.010845028 0.08317594 0.030260555 0.47144037 0.023259649 0.2076163 0.9458847 -0.32094064 1.5309527 0.4765021 1.0711509 0.8924801 0.08921137 1.034428
group -2.0325644 0.9035795 0.062351998 -0.48345432 0.15697052 0.25764367 0.8115854 0.64163834 -0.60525596 -0.018983826 -0.102653556 -0.27651078 0.39821598 -0.109063014 0.48627698 -0.65888774 -0.16716135 0.07797676 0.0957445 0.53336257 0.046195265 0.2045298 0.97685325 -0.43630034 1.2365513 0.42288747 0.7595259 0.6468365 -0.18899879 0.9608417
1996-08-29 -2.7128713 0.04172415 -0.303231 -0.8244642 -0.17020799 0.6725855 1.1503402 0.53278357 -0.20145726 0.73341435 -0.6911029 0.10585841 0.7301029 0.271551 0.43653402 -1.4085037 -0.08162466 0.26510173 1.045828 1.0215856 0.5038041 -0.5678547 1.2136152 0.0049803294 0.60580844 0.33273664 0.9564589 -0.30456203 -1.0304744 0.8299096
there -2.1564715 1.7297547 0.24957675 -0.31395113 0.2507736 -0.0787313 0.6558962 0.627743 -0.9074739 -0.45282635 0.15790877 -0.5127141 0.39549732 -0.47517708 0.55753577 -0.11197205 -0.05951169 -0.016195478 -0.27640814 0.35366642 -0.08090438 0.35467383 0.88495773 -0.40991604 1.9242111 0.37285662 1.129881 1.2407266 0.47822154 1.0103867
1996 -2.185819 0.32266635 -0.17679171 -0.61554074 0.02793892 0.55990547 0.9217566 0.5512648 -0.24676183 0.48006436 -0.44853956 -0.044622112 0.5139025 0.20613532 0.45537594 -1.0880433 -0.14676285 0.17212805 0.5237933 0.74110276 0.24867697 -0.24739072 1.0176656 -0.20384382 0.6671243 0.35175994 0.6379686 -0.023450254 -0.76981765 0.8036088
round -1.6973424 0.1488901 -0.20993829 -0.6281465 0.063049145 0.58180255 0.72467786 0.5440926 -0.27266884 0.3887043 -0.3184641 0.0009927099 0.42350188 0.11521557 0.33288312 -1.0073867 -0.26340848 0.26049417 0.37285185 0.5260625 0.13977313 0.07801648 0.8932741 -0.42675656 0.4096983 0.33787772 0.23156147 0.13397272 -0.86247534 0.6872466
Minister -2.4800632 0.659855 -0.14743677 -0.6402967 0.04147529 0.38349405 0.985592 0.64902323 -0.47666547 0.23968828 -0.38393763 -0.15960376 0.5398305 -0.03657395 0.5139717 -0.9119879 -0.106065355 0.19410464 0.438288 0.7420185 0.29792112 -0.17490956 1.081498 -0.30093932 1.0567318 0.42813078 0.91765356 0.4406938 -0.487215 0.97085536
South -2.3122308 -0.58143145 -0.7611704 -0.9232466 -0.210032 1.0990981 1.0688235 0.55586374 -0.12905023 1.1485695 -1.054077 0.41976702 0.64749056 0.3313767 0.3100609 -1.6567951 -0.04412783 0.43703815 0.73575443 0.73250306 0.43202865 -0.4708073 1.0148518 -0.11017593 -0.17150114 0.41442156 0.37761456 -0.61274236 -1.7497284 0.7223517
11 -2.3887086 -0.3214298 -0.24399963 -0.6706572 -0.29642564 0.6944637 0.9017013 -0.0028697853 0.47400805 0.767842 -0.6057442 0.15180756 0.5429775 0.53871155 0.36435908 -1.2259495 -0.13167527 0.1617019 1.2197776 1.1671597 0.6669188 -1.0066751 0.95598674 0.22854878 0.14467426 -0.04733957 0.80331576 -0.8607113 -1.0913514 0.17011279
1996-08-27 -2.7448678 0.1865831 -0.30293643 -0.8421749 -0.111345686 0.68162316 1.1900207 0.63659775 -0.33791655 0.7115009 -0.71830195 0.122211955 0.73636293 0.2024833 0.45952812 -1.4158162 -0.051182926 0.29588062 0.92346275 0.91209173 0.4334578 -0.44298846 1.2611538 -0.051915865 0.7401027 0.40608698 0.96080464 -0.14047308 -1.0198972 0.9395889
off -2.3355515 1.1164528 0.07106784 -0.489726 0.15237094 0.23961553 0.806011 0.6424704 -0.5777542 -0.07981616 -0.092310876 -0.31771833 0.47290787 -0.15489186 0.53557485 -0.6549031 -0.16102992 0.041124515 0.12925257 0.61271226 0.1012138 0.09391056 1.0028678 -0.3915334 1.372925 0.34132972 0.9026002 0.73108083 -0.09454843 0.90909255
match -1.7374854 0.56931853 0.01388013 -0.66475993 0.13414885 0.23644155 0.70430315 0.6139592 -0.49265155 0.027547425 -0.08834103 -0.33025756 0.2876 -0.16178533 0.3619379 -0.52913314 -0.24186914 0.13776937 0.18358044 0.5456732 0.076404296 0.22317722 0.9339597 -0.53621167 0.89207715 0.4339892 0.5499329 0.67934483 -0.36542788 0.88905364
13 -2.7642963 -0.70970255 -0.39424574 -0.78678787 -0.425937 0.90277094 1.0547396 -0.13899083 0.7881547 1.0560011 -0.78677654 0.29632178 0.67839146 0.7591674 0.38202465 -1.5815657 -0.15185167 0.23151869 1.6433998 1.4790164 0.923695 -1.4258952 1.0758517 0.36450836 -0.1684387 -0.16442212 0.8971805 -1.3163238 -1.4790466 0.029979791
down -2.249613 0.9534807 0.02337504 -0.50111717 0.156441 0.29202405 0.84114534 0.6050079 -0.5041751 0.00042026275 -0.14475656 -0.2991159 0.4544381 -0.07322707 0.52810085 -0.70197755 -0.13568944 0.059163257 0.22446343 0.61221254 0.11306457 0.0326432 1.0010495 -0.33114526 1.2346133 0.35910106 0.81279266 0.5772475 -0.21183947 0.9410723
six -2.1557548 0.9303786 0.014497544 -0.52152866 0.17565021 0.3415969 0.82835364 0.63446635 -0.5481672 0.022121465 -0.13345215 -0.27073976 0.45694685 -0.047538087 0.53228545 -0.7282105 -0.21096782 0.101956956 0.10834979 0.5716471 0.088976 0.084288016 0.99433714 -0.41708714 1.1454319 0.3601416 0.7300103 0.5964963 -0.28819782 0.8689452
6-4 -2.7510524 -0.85072225 -1.2955097 -1.0763018 -0.2982647 1.6791518 1.3277216 0.9082032 -0.3664035 1.584759 -1.546905 0.7803583 0.8894338 0.3373023 0.3938537 -2.2520084 -0.0443992 0.6680694 0.65752584 0.55183434 0.3884212 -0.4251474 1.0971245 -0.30786172 -0.49492887 0.6522653 0.1148315 -0.8607478 -2.512706 0.9834162
6-3 -2.6040747 -1.0718793 -1.3498188 -1.0520055 -0.35398182 1.7380759 1.2597854 0.78390825 -0.21823283 1.6602154 -1.586147 0.8574205 0.8337436 0.39238897 0.3269003 -2.2234664 -0.00014622192 0.7012283 0.6886631 0.5475212 0.41981253 -0.49041334 1.0360562 -0.26844257 -0.7348384 0.6049076 0.044280536 -1.016721 -2.6004062 0.853992
four -2.3861895 1.0374106 -0.0069151977 -0.53512114 0.21570939 0.3752683 0.8631262 0.67054445 -0.56859905 -0.014774555 -0.12054337 -0.31475946 0.47596526 -0.10213072 0.54980177 -0.77971464 -0.20847522 0.084181994 0.11312359 0.6097684 0.09183439 0.077801086 1.0187942 -0.46011284 1.2775253 0.3504925 0.8126363 0.6492513 -0.2941334 0.93827826
because -2.525373 1.482121 0.1622716 -0.4932396 0.2411049 0.16951458 0.80399555 0.6498854 -0.68094385 -0.28511235 0.04481828 -0.43177214 0.5117685 -0.28355518 0.6170773 -0.5102912 -0.14071847 0.025348505 0.0107173845 0.6092961 0.09213048 0.15751536 1.0455327 -0.430922 1.6548539 0.33250123 1.0244207 0.9704745 0.123412155 0.9659068
21 -3.154244 -0.73749983 -0.2937113 -0.8509832 -0.53259 0.89233094 1.1513404 -0.34490898 1.0680844 1.1244268 -0.78886384 0.24898395 0.7057526 0.95024306 0.4377153 -1.6429979 -0.17711307 0.18352513 2.005866 1.8012607 1.1039095 -1.7138098 1.2180085 0.5401015 -0.07165487 -0.31690255 1.1356289 -1.5965831 -1.519457 -0.1091503
five -2.0433083 0.82957095 0.015987812 -0.46079245 0.14690793 0.3404471 0.773963 0.55270123 -0.438846 0.036372636 -0.13749905 -0.23611158 0.43095136 -0.0012482115 0.48155257 -0.74632996 -0.18183114 0.071451984 0.17566706 0.5582042 0.09791133 0.026498234 0.91062546 -0.3358536 1.0585881 0.3081892 0.7015812 0.44688755 -0.31765312 0.7546442
15 -2.260973 -0.28443554 -0.22771487 -0.6140435 -0.2735112 0.660223 0.8846774 0.03819123 0.41758794 0.7168694 -0.57500845 0.16150157 0.5366122 0.5284489 0.36933553 -1.1928127 -0.14842175 0.13522017 1.1296769 1.1185725 0.63375276 -0.92104214 0.932556 0.19302364 0.16332547 -0.024366397 0.7674136 -0.7925273 -1.0135926 0.17766596
him -2.1937308 1.3201642 0.14709595 -0.41572455 0.18930396 0.12264156 0.6916067 0.57647485 -0.6132516 -0.2552177 0.023710532 -0.40088308 0.4498576 -0.24567908 0.5510731 -0.4130781 -0.13501321 0.0060170977 -0.021809218 0.5357664 0.06431911 0.20507745 0.91493237 -0.42141268 1.5124055 0.33056626 0.92705953 0.9267637 0.1368881 0.8959395
Spain -2.229904 -0.7652833 -1.1068423 -0.8869269 -0.22488774 1.4338467 1.1144632 0.74030423 -0.2657729 1.3600603 -1.3073485 0.66634864 0.7005729 0.27420402 0.29634893 -1.8455008 0.0033467927 0.54605204 0.5419657 0.41512296 0.37662753 -0.38740614 0.90068823 -0.22018662 -0.48433703 0.5815656 0.13703734 -0.70894325 -2.101524 0.78969043
1996-08-26 -2.9111278 -0.009360723 -0.30729765 -0.89920706 -0.1728845 0.75901556 1.2780905 0.5655239 -0.18649708 0.8371056 -0.78618455 0.15295476 0.8037219 0.3410213 0.4739351 -1.642277 -0.08613973 0.29580972 1.2264088 1.1196696 0.5524751 -0.615058 1.3076466 0.024815172 0.6168246 0.33027932 0.9926152 -0.38922074 -1.1580563 0.8830246
next -1.9005653 1.0079522 0.09461577 -0.47913373 0.18555234 0.2290956 0.70268005 0.6871423 -0.65510803 -0.05768932 -0.035044674 -0.25156897 0.3813156 -0.20060065 0.4443902 -0.5419635 -0.11301984 0.044187233 -0.04050417 0.4301795 0.02258325 0.20944299 0.9363082 -0.37684962 1.2015948 0.3881699 0.73092365 0.7792218 -0.061223548 0.92781377
President -2.5823598 0.95103395 -0.03040318 -0.6362563 0.106223956 0.35367522 0.9302779 0.6711139 -0.53587806 0.11824283 -0.25209275 -0.24862851 0.55140525 -0.09221574 0.56883436 -0.8574311 -0.11275492 0.124041796 0.32056713 0.7228155 0.19516666 -0.06637796 1.1021296 -0.33665377 1.3255243 0.40395895 1.0015559 0.58221656 -0.31831592 1.0095528
former -2.2460756 0.85877234 -0.09752414 -0.5742621 0.13395306 0.4064415 0.82242507 0.64806616 -0.59516335 0.13390413 -0.24969293 -0.1949548 0.48230544 -0.08701816 0.49246237 -0.7962696 -0.13272886 0.13106388 0.17899929 0.55189824 0.09150253 0.0726202 0.98546505 -0.39048278 1.109971 0.40234095 0.8075538 0.5577382 -0.40297696 0.9110902
official -1.9866097 1.018695 0.11265657 -0.5274362 0.10040553 0.09903142 0.78690755 0.6582378 -0.74477214 -0.063700646 -0.08793076 -0.35062698 0.38711867 -0.280918 0.44554755 -0.4335765 -0.070734434 0.053601377 0.06519472 0.46144086 0.03644245 0.24921122 0.9522239 -0.41085073 1.3943152 0.4802016 0.9646973 0.79914856 -0.027413806 1.0373069
United -1.9970945 0.5468094 -0.010564585 -0.5026298 -0.036756467 0.30031916 0.72881085 0.38309973 -0.27337283 0.18873107 -0.19110267 -0.13729347 0.38786113 -0.012170803 0.36498034 -0.6640645 -0.1401564 0.109541744 0.43271223 0.6629967 0.27127892 -0.12053193 0.86886984 -0.1963423 0.930386 0.23195778 0.80505526 0.2855662 -0.34351316 0.65745676
home -1.8091035 0.71308506 -0.028503794 -0.5449799 0.16026115 0.24762951 0.6857067 0.61019087 -0.49251306 0.022298794 -0.12089452 -0.26562658 0.34062514 -0.13186763 0.42227516 -0.59298617 -0.15123335 0.11370835 0.10739834 0.49334285 0.055580452 0.14306472 0.91446614 -0.4275558 1.0021397 0.39710122 0.6387213 0.5900641 -0.2423201 0.88973814
she -2.061779 1.2966913 0.14211993 -0.45006216 0.16752626 0.027883638 0.7126392 0.5915624 -0.7240528 -0.21016403 0.02377162 -0.39142546 0.4053024 -0.33613884 0.49405104 -0.2951114 -0.049425162 0.021586673 -0.05360417 0.44792867 0.012781289 0.19059135 0.8844755 -0.36574417 1.5574872 0.3867455 1.0553538 0.9125865 0.17186794 0.9536135
do -2.2596724 1.8307085 0.22273456 -0.31848243 0.21015382 -0.077625364 0.59634876 0.5700834 -0.8732233 -0.48426798 0.12794569 -0.4529993 0.48748723 -0.5854903 0.555108 0.033580985 0.028612569 -0.04542333 -0.20292154 0.33312634 0.03680696 0.25025707 0.82613575 -0.30429456 1.9009113 0.31769583 1.2101048 1.2849405 0.5938012 0.88125175
third -1.8771876 0.7575228 -0.04638989 -0.5679797 0.17995125 0.37368798 0.7310349 0.6918431 -0.533283 -0.0077777174 -0.124810316 -0.23263095 0.36941186 -0.118512996 0.4458454 -0.7137275 -0.2211145 0.13271813 0.04926751 0.48904738 0.025795205 0.2732906 0.92436796 -0.57670474 0.93560046 0.40438482 0.49831972 0.6736668 -0.3925182 0.89127713
spokesman -1.7101372 1.0541471 0.08246955 -0.4595673 0.10611142 0.04939081 0.7546669 0.6871165 -0.8983791 -0.032643445 -0.13617261 -0.31478772 0.33944955 -0.37525725 0.39766267 -0.26919544 0.014022081 0.108261466 -0.12113626 0.29215276 -0.05810932 0.37006372 0.8682548 -0.40151507 1.4283038 0.5546108 0.9826957 0.888478 0.037509665 1.0836295
expected -2.0978365 1.2744489 0.1800612 -0.37102714 0.15894327 0.085289374 0.69618416 0.57827663 -0.6103495 -0.2850287 0.072419174 -0.3648822 0.42456874 -0.22535484 0.5184927 -0.38398138 -0.12080634 -0.00908406 0.026852194 0.5552427 0.05434617 0.14460689 0.89414364 -0.3588423 1.4779861 0.2699134 0.93158853 0.8739959 0.17251499 0.8452191
did -2.502089 1.7083954 0.1918066 -0.44096383 0.20048465 0.039848637 0.69917065 0.6198999 -0.79265124 -0.39871934 0.081392884 -0.4395699 0.55929446 -0.4559051 0.5905162 -0.17983732 0.012648072 -0.028815532 -0.009977999 0.48706058 0.10865683 0.14914502 0.93784696 -0.2909214 1.891691 0.29826865 1.2821723 1.1103762 0.4250662 0.9145201
day -1.7662073 0.6889474 0.037601717 -0.50517756 0.097308345 0.1720884 0.71668416 0.5243925 -0.48175994 0.022467205 -0.08207593 -0.2921744 0.330162 -0.12678218 0.41480526 -0.539315 -0.14970665 0.1199094 0.222303 0.56908464 0.086701035 0.14076602 0.90950996 -0.3949632 1.028221 0.40782663 0.66459656 0.56447756 -0.23298919 0.8161755
just -2.010685 1.2254839 0.10184545 -0.41633615 0.17823859 0.12236583 0.6844627 0.6148317 -0.6729725 -0.20519929 0.009010633 -0.37535086 0.3980649 -0.28221723 0.5159656 -0.39790878 -0.12747821 0.013330522 -0.05423303 0.4424035 0.0030909711 0.2167314 0.8995097 -0.3943895 1.4279808 0.36463958 0.85799384 0.862484 0.08668722 0.8951538
games -1.5239415 0.021394536 -0.23109321 -0.65778565 0.110951565 0.48153177 0.6154177 0.3797795 -0.20290138 0.3914442 -0.33084682 -0.16562581 0.24223441 0.062309846 0.33685616 -0.7120722 -0.13549565 0.22497386 0.29001755 0.6419457 0.19214398 -0.16007587 0.8347287 -0.32547498 0.31280428 0.3162004 0.42306042 0.05365213 -0.67478025 0.64146155
through -2.183641 -0.13384196 -0.23524243 -0.595616 -0.21122359 0.60548156 0.79900974 0.11956678 0.246041 0.6177245 -0.5030862 0.107054025 0.5333749 0.37398005 0.32116365 -1.0800796 -0.13074267 0.15875426 0.91736346 0.9342791 0.53168976 -0.7320565 0.8420071 0.064403884 0.26409915 0.03011728 0.71030074 -0.54621226 -0.91194564 0.29125553
statement -1.4518245 1.000518 0.12522228 -0.40013757 0.11110226 -0.0073719784 0.6824111 0.6673262 -0.8818621 -0.047020577 -0.05815013 -0.31230304 0.28323963 -0.38353485 0.32398134 -0.17576885 0.025206586 0.09853305 -0.20232898 0.2193009 -0.10230354 0.45717117 0.791953 -0.41047472 1.3551831 0.5381541 0.85581285 0.91107315 0.048365932 1.0557493
70 -2.9248025 -0.80300623 -0.8355623 -0.9902791 -0.3549063 1.3596857 1.2940946 0.44758815 0.20483711 1.429221 -1.2965809 0.5939947 0.8521723 0.5858776 0.37076455 -2.0738711 -0.073571816 0.4237506 1.3091849 1.0356761 0.7801622 -1.0367082 1.1690995 0.14225358 -0.35084787 0.2824095 0.6618285 -1.1447316 -2.0111845 0.5786963
win -1.9368625 0.36137956 -0.10667733 -0.59701514 -0.021974377 0.41047516 0.7331602 0.43011189 -0.23130873 0.29182416 -0.2840179 -0.088355936 0.41787985 0.028119504 0.37928936 -0.78419226 -0.18539219 0.15652464 0.42103747 0.6786031 0.21327199 -0.14072964 0.8860577 -0.30256924 0.62789905 0.27583426 0.6114284 0.1933486 -0.58860546 0.63584405
NEW -2.4512827 -1.0059352 -0.38500792 -0.8370492 -0.41190857 0.8624202 1.1251302 0.14189513 0.4621649 1.2682979 -1.0302937 0.45352805 0.8357775 0.7746906 0.17595442 -1.8496789 -0.0065582716 0.28562528 1.9038576 1.2456843 0.84170085 -1.3208491 1.0788804 0.49116743 -0.27013877 -0.08308278 0.7644239 -1.4193286 -1.549048 0.27351177
made -2.1192014 1.2504432 0.09825046 -0.43954659 0.18884468 0.12535222 0.6890405 0.6015077 -0.68415695 -0.21024722 -0.009278464 -0.3783222 0.43006477 -0.2839409 0.5380937 -0.41166428 -0.109610386 -0.005346607 -0.039679945 0.4735619 0.04277899 0.23131073 0.88489455 -0.43312392 1.4558625 0.38104388 0.92483115 0.86717325 0.10728648 0.90475106
12 -2.3456047 -0.5052096 -0.2634172 -0.6695264 -0.3399064 0.71669066 0.87418216 -0.15552874 0.666617 0.8596198 -0.61273 0.23090327 0.572375 0.6470446 0.31489456 -1.2746139 -0.14643794 0.18682858 1.4034458 1.2982908 0.7840418 -1.1967608 0.9146762 0.32741228 -0.03506938 -0.16829455 0.8360795 -1.1093061 -1.1815306 9.746876e-05
1996-08-23 -2.6278923 0.09744643 -0.29215628 -0.7856496 -0.15417399 0.6273451 1.1120309 0.4865203 -0.17267852 0.6821281 -0.64666957 0.09742594 0.67303765 0.2823953 0.44572198 -1.3687079 -0.06921194 0.2608347 1.0144994 0.9867236 0.4815081 -0.5698589 1.1674168 0.018299589 0.63726795 0.28572506 0.9179343 -0.27877668 -0.9581839 0.7948377
them -2.158112 1.2068589 0.06399166 -0.45756143 0.16356415 0.1674623 0.7462383 0.587719 -0.62510306 -0.14226529 -0.06321034 -0.31894436 0.44984174 -0.241578 0.50671273 -0.46538866 -0.09409689 0.044266947 0.0744156 0.49360228 0.07395792 0.09978511 0.906435 -0.34764293 1.412157 0.3609835 0.936511 0.7991262 0.032900296 0.879048
14 -2.4002683 -0.47265118 -0.31465286 -0.7050691 -0.34139958 0.7283798 0.9105127 -0.050121713 0.52249855 0.8666754 -0.68413 0.21870483 0.57147306 0.57188386 0.34997755 -1.2877306 -0.09175796 0.18566708 1.3207147 1.1922716 0.7214214 -1.097075 0.944701 0.26333135 0.010572774 -0.073890336 0.827944 -0.93979204 -1.1704581 0.15792601
lost -1.6241974 0.6185357 -0.4523687 -0.7465053 0.41281208 0.5837416 0.7483651 0.81992507 -0.9299554 0.3880271 -0.52042687 -0.32960013 0.19626306 -0.27270368 0.44856763 -0.65895116 -0.02428113 0.13466552 -0.63856304 0.09362564 -0.28211272 0.3899359 1.0001426 -0.7669383 0.7773958 0.85470295 0.39887747 0.7407438 -0.6500625 1.1879169
where -2.2608376 1.1823605 0.035068393 -0.4659522 0.16629325 0.2544489 0.7487313 0.63547784 -0.64127964 -0.10211185 -0.0915861 -0.30119452 0.48506477 -0.22937566 0.5464304 -0.56385714 -0.12265104 0.052995015 0.023929307 0.48073688 0.08096039 0.15468225 0.9523227 -0.4184942 1.4110703 0.37155333 0.89893734 0.7680515 -0.06460024 0.88109744
20 -2.3027976 -0.32852292 -0.25103372 -0.629079 -0.26017877 0.70463717 0.90203995 0.039548647 0.46267438 0.7685859 -0.57174593 0.16337796 0.52661985 0.5602234 0.35781655 -1.2793622 -0.16143979 0.16068077 1.2172271 1.1590501 0.6562418 -0.96437204 0.92948663 0.20417649 0.10372719 -0.07741742 0.7664852 -0.88261974 -1.0824296 0.17399406
6-2 -2.453564 -0.897548 -1.1674118 -0.9442972 -0.29443884 1.5295973 1.1493664 0.69379747 -0.19335382 1.4778794 -1.405122 0.75612724 0.766006 0.36437103 0.33663872 -2.0375793 -0.020279888 0.6188394 0.6540516 0.5331236 0.40332758 -0.49109203 0.989436 -0.18931985 -0.55144733 0.5386548 0.100600265 -0.9011392 -2.2865644 0.7548339
world -2.011926 0.4844169 -0.17487869 -0.5945269 0.06696092 0.49058744 0.8324912 0.6304856 -0.43074724 0.2549666 -0.35552683 -0.08408605 0.436087 -0.013296523 0.42893025 -0.9403998 -0.18216431 0.17110121 0.2641631 0.4989002 0.118404835 0.047125183 0.9256779 -0.41471693 0.77818465 0.40822905 0.5243625 0.34237558 -0.6498471 0.8332311
July -1.6589231 0.39105642 -0.1050142 -0.4136321 0.08072138 0.36271375 0.66804016 0.45729643 -0.3400888 0.22808816 -0.251313 -0.087552 0.3777139 0.0809861 0.35914528 -0.7667984 -0.09059101 0.13402882 0.21780132 0.4943653 0.080386676 -0.056448024 0.7982818 -0.2124197 0.6790725 0.27756253 0.52388775 0.16618277 -0.4811447 0.6767494
Russian -2.2154312 0.86124223 -0.012916422 -0.5272411 0.119042866 0.30232674 0.8346574 0.5718123 -0.49950692 0.07798694 -0.17562005 -0.22948042 0.46376655 -0.07291189 0.4870597 -0.7422705 -0.12798557 0.11018335 0.269413 0.631444 0.1498747 0.009696346 0.96152663 -0.30476922 1.1601033 0.3449158 0.8357952 0.532839 -0.24435154 0.90286785
September -1.3243334 0.4058922 0.12179514 -0.30699912 -0.027442476 0.09876517 0.4390546 0.09928007 -0.018662032 0.027093735 -0.016860519 -0.17024623 0.2759007 0.06939503 0.3003529 -0.34757838 -0.10501375 0.022488441 0.41044918 0.6184028 0.21807392 -0.23783654 0.6009845 -0.04081265 0.64883363 0.06630522 0.5991344 0.13224989 -0.0907668 0.33476377
RESULTS -1.7788491 -0.9877555 -0.4512169 -0.7847625 -0.3084186 0.78826255 1.0174171 0.31544077 0.24102595 1.2858603 -1.0077821 0.55311203 0.6287022 0.6562759 0.108389616 -1.7937533 0.0082818605 0.32116365 1.7007476 0.975191 0.63895303 -0.9562245 0.874727 0.48227707 -0.46476638 0.17298691 0.5084049 -1.3081021 -1.3733761 0.3873073
n't -2.502938 1.7280844 0.13947606 -0.37614965 0.16749872 0.005074725 0.73549813 0.5580978 -0.81480163 -0.36543575 0.037869543 -0.42109522 0.52563286 -0.51088667 0.560983 -0.14803669 -0.020274317 0.0018965226 -0.018672347 0.50146407 0.13622119 0.13311738 0.9157554 -0.23354545 1.8530253 0.29971397 1.2885942 1.1347647 0.42287928 0.9214056
if -2.3597798 1.3871629 0.13294259 -0.43822268 0.14639825 0.12619138 0.7280708 0.57525796 -0.6510593 -0.25055662 -0.013174658 -0.36711204 0.51323545 -0.3146543 0.55671936 -0.39688355 -0.063782096 0.013710766 0.061203193 0.5288348 0.15368487 0.08891067 0.91958576 -0.32540956 1.54764 0.2804084 1.0594933 0.8841081 0.16372427 0.85450625
back -1.9242756 0.88672006 0.09005637 -0.432294 0.093266755 0.19695255 0.64325684 0.44292793 -0.3559665 -0.076455235 -0.04901675 -0.26910412 0.42208004 -0.08539297 0.4487212 -0.516782 -0.1562256 0.022711756 0.21883911 0.5991589 0.14140624 0.0021927974 0.8111482 -0.2870096 1.1084361 0.22072695 0.7379168 0.56255144 -0.040003035 0.7015202
Italy -2.077799 -0.5654136 -1.0609512 -0.8079644 -0.14874664 1.3231988 1.0167574 0.78292054 -0.3741619 1.2025754 -1.2025255 0.55760705 0.65688384 0.19053596 0.31629884 -1.6866966 -0.03149501 0.50625575 0.33394933 0.29866448 0.28317973 -0.20402068 0.86188954 -0.3279107 -0.3354671 0.61201197 0.05485218 -0.47561625 -1.9267575 0.86813575
shares -1.9161621 0.7146468 0.0215368 -0.43091944 0.12704338 0.24260901 0.7745759 0.5006676 -0.41996798 0.07111506 -0.13394645 -0.2365325 0.3961049 0.025392931 0.47289068 -0.71221924 -0.14849703 0.06269164 0.26259798 0.5556732 0.11615251 0.013855241 0.9089858 -0.2635087 1.0506365 0.33586472 0.6623008 0.3813348 -0.2519463 0.8515212
China -1.8249105 0.5342647 -0.18945634 -0.5271729 0.06451907 0.40808722 0.7266553 0.5979635 -0.50109595 0.22329122 -0.33447835 -0.07800494 0.41869023 -0.07916791 0.41347915 -0.74195015 -0.06552263 0.18574688 0.15620574 0.4479429 0.076250225 0.06151375 0.8431204 -0.27805868 0.8023761 0.42699358 0.5965316 0.37755916 -0.4694566 0.83762234
August -1.5304583 0.149489 -0.020139722 -0.486246 -0.06679905 0.2736344 0.6122631 0.19950151 -0.028236667 0.2780283 -0.2353379 -0.10747205 0.33512032 0.14557904 0.29175442 -0.63888115 -0.07211441 0.103354886 0.5754428 0.7019465 0.24778454 -0.33458242 0.74912995 -0.044948254 0.47769007 0.17767568 0.6134019 -0.078721456 -0.41693252 0.4485466
YORK -2.0805945 -0.847662 -0.3935183 -0.7677283 -0.37281424 0.7653024 0.9449841 0.14967062 0.44715506 1.0351676 -0.9238085 0.48814332 0.6932615 0.7364893 0.15489745 -1.6319417 -0.04590704 0.24413744 1.6698121 1.1276237 0.7564289 -1.1196234 0.8748162 0.52795535 -0.3142254 -0.075271435 0.65870047 -1.2083817 -1.3518091 0.21786629
president -2.058179 1.0487443 0.092375934 -0.45158583 0.15516171 0.1792749 0.71479523 0.6002393 -0.629991 -0.09658551 -0.050952796 -0.29542363 0.43259287 -0.19749697 0.4769368 -0.52422523 -0.1290729 0.058218986 0.041665766 0.47189486 0.054914504 0.16872457 0.9023456 -0.38169882 1.3138673 0.3647682 0.8309801 0.7602524 -0.056366254 0.8952041
Cup -1.8276712 0.24924947 -0.20542482 -0.6127427 0.047309626 0.48593706 0.7631375 0.52889127 -0.3319226 0.32802206 -0.37860638 -0.05553957 0.40607592 0.04783763 0.3551074 -0.8722621 -0.11212823 0.19397362 0.34574252 0.5340705 0.1542248 -0.03596633 0.8914848 -0.29546177 0.5447521 0.35074154 0.49759638 0.1728142 -0.668383 0.73467445
2. -2.5026433 -1.0077921 -1.3105205 -0.9714495 -0.28762567 1.6208136 1.2367676 0.7940839 -0.16338725 1.5791651 -1.4793357 0.7037612 0.7710797 0.39646843 0.31587997 -2.0837495 -0.036244743 0.5989835 0.7134245 0.54609644 0.49306777 -0.4866637 1.0224695 -0.2769291 -0.6465396 0.5970867 0.08498988 -0.8680756 -2.4140072 0.7920726
3. -2.6764665 -0.93905467 -1.3877628 -1.0358677 -0.28119585 1.7128215 1.2814472 0.9011148 -0.31730554 1.6564753 -1.579884 0.7813604 0.88107264 0.34593037 0.36900675 -2.2275636 -0.073156156 0.6567211 0.6140447 0.50872433 0.46622926 -0.4178095 1.0719285 -0.34483865 -0.61079067 0.67892903 0.090736926 -0.8352575 -2.5273907 0.9444382
1. -2.1976984 -0.87000054 -1.1233063 -0.98160285 -0.2558387 1.3447113 1.090529 0.70948946 -0.20682396 1.3966126 -1.3060734 0.55468744 0.622121 0.23908234 0.27288488 -1.7603098 -0.07982004 0.5876368 0.6613504 0.4956155 0.4048099 -0.37783226 0.9468192 -0.26322398 -0.5272998 0.62205 0.18899365 -0.667625 -2.1304185 0.80163944
DIVISION -2.6938133 -0.94861126 -0.5462982 -0.9420785 -0.35940978 1.0844076 1.2547982 0.34163082 0.43644112 1.4371824 -1.1689477 0.6062938 0.812307 0.7772219 0.26613992 -2.1067395 -0.043874778 0.37656972 1.9453137 1.3156279 0.8898635 -1.294099 1.1593084 0.4444228 -0.3931788 0.1341877 0.7923332 -1.4019798 -1.6956053 0.40730476
British -1.9542336 0.72162426 -0.09028602 -0.5007408 0.10034466 0.3257046 0.7641685 0.54295397 -0.4615002 0.09973344 -0.2323974 -0.1644569 0.42272013 -0.088539064 0.4365626 -0.70614344 -0.10009936 0.11273219 0.21114038 0.5080228 0.110758595 0.03644715 0.86354417 -0.32312042 0.9639925 0.36541048 0.6879936 0.42131156 -0.32885253 0.7947132
Clinton -2.0750167 0.8328139 0.036198176 -0.52538925 0.089212306 0.23282072 0.7415151 0.5178693 -0.47160938 0.0300721 -0.13439532 -0.238714 0.41056034 -0.099423215 0.48002702 -0.6008354 -0.09773363 0.07251195 0.22303303 0.5910268 0.1412727 -0.014349488 0.9456169 -0.32345924 1.1638143 0.35890332 0.87959284 0.5679346 -0.18743348 0.8339533
any -2.2219646 1.361536 0.13157126 -0.40335017 0.2026261 0.13490269 0.6794572 0.5503868 -0.5798506 -0.27029788 0.0508324 -0.3756097 0.46245697 -0.27603146 0.56121933 -0.34785506 -0.10301327 0.00012385531 0.00033025138 0.5261517 0.0751101 0.12834148 0.8843781 -0.32950827 1.4680327 0.28849578 0.9382062 0.8645821 0.18706359 0.8154358
LONDON -1.5566645 -0.37471196 -0.2391506 -0.59529775 -0.17565358 0.44645217 0.76092046 0.25462812 0.08339669 0.7228162 -0.60736114 0.20048298 0.49193355 0.35845962 0.2147546 -1.0999007 -0.018747307 0.2257981 1.032959 0.74577993 0.42900008 -0.56727666 0.76281506 0.19393909 0.072554275 0.15532601 0.55169284 -0.61605364 -0.83032006 0.38791868
while -2.1441398 0.8052273 -0.116277166 -0.51561874 0.13773082 0.41002712 0.76558524 0.6038649 -0.5197808 0.09490161 -0.25941482 -0.19137262 0.46676573 -0.07100723 0.4884163 -0.77984166 -0.12798785 0.09055617 0.13879244 0.50001526 0.0840146 0.032553088 0.9302522 -0.38890085 1.0047467 0.3822018 0.6725974 0.5023306 -0.38919193 0.8714515
Japan -2.006333 -0.5895445 -0.7859048 -0.7576337 -0.19811997 1.0621713 0.98244286 0.5478968 -0.13646607 1.1000124 -1.0352831 0.47041595 0.61151123 0.2894496 0.2800263 -1.5567455 -0.032195095 0.40906495 0.6272552 0.5320502 0.35831848 -0.4314005 0.8529486 -0.10800894 -0.24898744 0.41425335 0.28681606 -0.63047475 -1.6304935 0.6399877
seconds -1.9879249 -0.78482825 -0.8546472 -0.70331836 -0.24858642 1.2221036 0.90296555 0.4713248 0.07185001 1.1200598 -1.0171547 0.49092686 0.622835 0.41080853 0.25212625 -1.603966 -0.10191241 0.40267023 0.6566528 0.5533466 0.42613328 -0.49686545 0.77425325 -0.15777782 -0.5058778 0.3324152 0.09567338 -0.76947474 -1.7903099 0.4571739
reported -1.8216369 0.877426 0.06670466 -0.44969425 0.13488843 0.12508234 0.7053195 0.5386251 -0.57687145 -0.051514022 -0.076121524 -0.3119874 0.35096315 -0.16438393 0.44381008 -0.46882722 -0.10777247 0.04714296 0.12266097 0.49072805 0.05789241 0.14188294 0.8402779 -0.36012843 1.2190803 0.36571908 0.770567 0.62030715 -0.07075738 0.8951381
billion -2.024402 0.46045235 -0.12565511 -0.46041954 0.08539609 0.4326293 0.85384685 0.49233553 -0.22905967 0.27057937 -0.27961323 -0.11488404 0.46374473 0.2173367 0.5261367 -0.9795963 -0.1790816 0.070142366 0.3987553 0.651123 0.20174797 -0.14595687 0.9752173 -0.21925882 0.7958587 0.2919496 0.5486071 0.06111314 -0.5761363 0.8093773
69 -2.8160334 -0.92437416 -0.8561617 -0.9689019 -0.3640888 1.3693644 1.2156473 0.34914804 0.31617692 1.4405197 -1.2634356 0.6020299 0.8323259 0.6356145 0.36941007 -2.0066872 -0.036362953 0.4026021 1.3540944 1.0472268 0.8086058 -1.1325552 1.1018592 0.19028151 -0.43416563 0.21922812 0.6268376 -1.2347564 -2.0096633 0.47551402
matches -1.3955221 -0.07020849 -0.06948676 -0.756209 0.019844972 0.2945345 0.6013508 0.3718343 -0.11474264 0.3524015 -0.26087126 -0.21148568 0.19504201 0.005587084 0.21837626 -0.5851608 -0.19734749 0.24314208 0.5643966 0.6895897 0.2653615 -0.13403031 0.8322532 -0.30985746 0.30442092 0.31074265 0.4486427 0.17600589 -0.6170347 0.62197053
month -1.8471302 0.9212558 0.094485596 -0.38502404 0.15750934 0.22427766 0.6426497 0.53407294 -0.57049066 -0.0767343 -0.03272065 -0.27310544 0.38973066 -0.09140224 0.45750242 -0.5434724 -0.14536627 0.0185716 0.03824327 0.4498427 0.0032458631 0.1321038 0.86269134 -0.38389048 1.170288 0.33601105 0.78043413 0.6451212 -0.07489115 0.8127035
team -1.721774 0.7992555 -0.0018456157 -0.4390217 0.1115449 0.23629412 0.6054649 0.5419212 -0.5042121 -0.04463566 -0.12649024 -0.22232984 0.33515453 -0.16403596 0.39195982 -0.4858183 -0.13058533 0.049172617 0.0439449 0.41223258 0.044765245 0.13805772 0.7886405 -0.37796676 1.0066506 0.31744188 0.6536489 0.61940247 -0.13197066 0.7768475
v -3.0337658 -0.5921489 -0.7415568 -1.0538752 -0.35045785 1.1790265 1.2789817 0.32535094 0.20492664 1.2478671 -1.099692 0.354919 0.7170264 0.4872696 0.4144323 -1.8194388 -0.12787469 0.44321004 1.3742297 1.1424127 0.7565601 -1.0110679 1.2967701 0.05704385 -0.026521878 0.3169085 0.835869 -0.93039954 -1.7913891 0.568175
Russia -1.6444438 -0.19957954 -0.657457 -0.57156765 -0.07088394 0.8320759 0.7488532 0.5787107 -0.33845136 0.7386096 -0.77804214 0.31184146 0.485004 0.04461169 0.2644732 -1.1415943 -0.023019245 0.3272167 0.21467456 0.24614711 0.17340153 -0.08717627 0.6717382 -0.26898062 -0.01425288 0.44533062 0.17674649 -0.14454389 -1.195726 0.6923108
Pakistan -1.6161674 0.0029832853 -0.26813874 -0.58223456 -0.043356113 0.49772146 0.72868824 0.4329719 -0.22678316 0.51096547 -0.46210453 0.0760974 0.37588292 0.07773517 0.26409656 -0.8732365 -0.07733248 0.2165547 0.47454277 0.53574497 0.2409403 -0.2226507 0.75401115 -0.14382403 0.310465 0.32377747 0.44847256 -0.053928297 -0.7534481 0.59374195
division -1.5762697 0.12485002 -0.02728666 -0.72073215 0.041709773 0.30904964 0.72806877 0.46667552 -0.24552518 0.2836494 -0.22302261 -0.21483754 0.2647611 0.029629385 0.2634899 -0.7357145 -0.2818305 0.23890963 0.53518105 0.6558208 0.2075856 0.020267125 0.9048751 -0.38301632 0.5258818 0.39042243 0.42947793 0.28440064 -0.6378796 0.7088278
European -1.8110262 0.6188823 -0.03056719 -0.50005805 0.08807873 0.28702316 0.7055997 0.5318551 -0.43337575 0.105108865 -0.1965577 -0.1644218 0.37676492 -0.05769609 0.3902723 -0.66895854 -0.10465998 0.1174343 0.24990165 0.51744837 0.09587527 0.025343021 0.8542394 -0.30946064 0.89110017 0.30568188 0.6666004 0.42179373 -0.32319662 0.7532735
meeting -1.4771407 0.6984339 0.049543407 -0.39477775 0.11686611 0.12132446 0.5271171 0.4299448 -0.39812645 -0.055320293 -0.016707014 -0.2325509 0.2712068 -0.10264014 0.34822768 -0.42123535 -0.13831727 0.042237468 0.12585586 0.43346882 0.03908024 0.11470363 0.7106382 -0.30443397 0.9126377 0.26617512 0.5802305 0.5249545 -0.08655358 0.64485604
London -2.0466409 0.42085764 -0.12081732 -0.54794776 -0.023307355 0.39283684 0.81628233 0.39620954 -0.22362651 0.31876844 -0.30369884 -0.08483631 0.466443 0.10556009 0.4120628 -0.81452876 -0.08431159 0.12871136 0.5208182 0.67148024 0.2996863 -0.23230357 0.89131624 -0.12496044 0.76305234 0.24330641 0.7252547 0.08099438 -0.5291935 0.6889876
They -1.7987448 1.0923549 0.12026951 -0.36938736 0.11145866 -0.0013668232 0.6890512 0.5250383 -0.70753706 -0.123495504 -0.029676707 -0.37281534 0.34761673 -0.31224987 0.41480443 -0.27014813 -0.01610485 0.049178816 0.0057819504 0.41030166 0.0049322178 0.19076957 0.837746 -0.29461274 1.4063015 0.40121675 0.9519437 0.78750443 0.13814567 0.9025848
June -1.7381468 0.39809042 -0.11841944 -0.4449776 0.0782257 0.4028341 0.72566444 0.4915579 -0.28711173 0.2525544 -0.28362238 -0.08402961 0.4040483 0.10028477 0.40854427 -0.8179868 -0.114154465 0.11741106 0.27888072 0.51570576 0.11152992 -0.100263625 0.7937775 -0.22969423 0.6213157 0.28497994 0.49027762 0.12328785 -0.52949584 0.72062624
30 -1.7682092 0.011622336 -0.22580783 -0.49370474 -0.065324664 0.5016379 0.78962076 0.322339 -0.002229816 0.52397734 -0.45040438 0.061401147 0.41461265 0.2697573 0.3638926 -0.99573505 -0.09923657 0.17014633 0.58948517 0.6987157 0.30616415 -0.38672996 0.8231492 -0.073164746 0.3260756 0.18922132 0.47931308 -0.30868337 -0.8081452 0.4984919
being -2.0512927 0.93851066 0.0988776 -0.44278896 0.13459918 0.17162323 0.752871 0.5332757 -0.50802386 -0.07114113 -0.06800398 -0.3242756 0.39322707 -0.12799956 0.47510165 -0.5859311 -0.15136237 0.09250423 0.1820099 0.5959252 0.10201303 0.054569308 0.91423965 -0.31435156 1.2336302 0.3042115 0.83357173 0.6246751 -0.074573025 0.8365676
German -2.032887 0.57546145 -0.09288374 -0.5621619 0.05504399 0.38002563 0.7842904 0.5396074 -0.4403738 0.20648803 -0.27067497 -0.16367652 0.45703232 -0.034601036 0.4227645 -0.77425265 -0.10356677 0.15136206 0.32570475 0.5867661 0.18136843 -0.033396587 0.9252255 -0.30055732 0.9027944 0.34040663 0.70667094 0.36552736 -0.42890754 0.80130213
news -2.0599473 1.1324021 0.14703135 -0.50377375 0.116794966 0.04340443 0.752388 0.6159766 -0.73195964 -0.16187511 -1.1900291e-05 -0.37379485 0.3999529 -0.2677848 0.4543809 -0.3567327 -0.0666327 0.017429689 0.09241911 0.4867981 0.05250918 0.20187692 0.9544761 -0.39663857 1.4834765 0.40346918 0.9996587 0.89444876 0.098247275 0.9565776
added -1.6232877 1.0009176 0.057242516 -0.3693123 0.05924907 0.050911114 0.5846688 0.5033903 -0.6943618 -0.06507492 -0.10173092 -0.26959905 0.36737096 -0.31074786 0.3738046 -0.27807742 -0.013226749 0.006678331 -0.050726544 0.28087828 0.013707945 0.20891315 0.73412186 -0.26699278 1.2435471 0.390152 0.8771306 0.70300454 0.05718767 0.8132809
71 -2.3769202 -0.9339585 -0.9478863 -0.87384796 -0.30500272 1.3491776 1.0906105 0.48726445 0.06941976 1.384631 -1.2817552 0.65805537 0.7424666 0.48114213 0.29356354 -1.8951954 -0.025005523 0.45628804 0.9418775 0.72838366 0.61491394 -0.8002109 0.97243875 0.039489664 -0.5493894 0.33257407 0.33355823 -1.0360473 -1.9879049 0.52995557
1996-08-25 -2.6607056 0.00234819 -0.33717015 -0.86972684 -0.098548904 0.75898945 1.147227 0.5544664 -0.20725474 0.75846547 -0.70475096 0.12665175 0.69021916 0.2833353 0.4254393 -1.5174879 -0.12953222 0.31202477 1.0432743 0.98825544 0.46420473 -0.51450574 1.2263845 -0.041232027 0.4986975 0.37098423 0.7917803 -0.32522652 -1.1317126 0.8316781
half -1.5258093 0.7989465 0.11250583 -0.35925812 0.20648597 0.17249067 0.5890065 0.52095616 -0.508017 -0.0868016 0.038105406 -0.26117724 0.31355187 -0.083390564 0.40306178 -0.4783854 -0.2080565 0.08190271 -0.023013227 0.3395177 -0.020893436 0.30130973 0.78236115 -0.42185214 1.0108246 0.35424247 0.46199146 0.643891 -0.14676814 0.7508942
At -1.8911186 0.2728953 -0.21599723 -0.56819594 -0.08986103 0.37064788 0.8160078 0.4000409 -0.33290866 0.43109673 -0.47138682 -0.018285288 0.41793585 0.008980129 0.32136676 -0.7575136 -0.06008356 0.1595637 0.47371858 0.57543737 0.23361266 -0.21593417 0.85864824 -0.090626694 0.6723 0.36715472 0.8191269 0.06672442 -0.60900205 0.6536235
peace -1.9846808 0.93616056 0.023660667 -0.4507301 0.14468281 0.23266302 0.7066412 0.5375182 -0.5351472 -0.046963193 -0.07898446 -0.24667771 0.42596656 -0.118818246 0.47042 -0.59392023 -0.13211335 0.053599074 0.13067211 0.4941084 0.08486283 0.08854779 0.8513651 -0.35610485 1.1846955 0.3149192 0.77823234 0.6513883 -0.11686164 0.8097771
still -1.9828733 1.1532159 0.12744515 -0.3931349 0.12195933 0.117924534 0.6532688 0.5534959 -0.6365369 -0.16873153 -0.018735746 -0.31549934 0.3996428 -0.23911032 0.46481097 -0.4012248 -0.07361436 0.021698296 0.027452813 0.4317679 0.05696324 0.15993966 0.80978394 -0.30648935 1.3753934 0.2875748 0.8922191 0.77251816 0.096486524 0.8260153
1/2 -2.875027 -0.7921443 -0.442061 -0.84242797 -0.450819 0.99903417 1.1129696 -0.051797856 0.787196 1.1613282 -0.9366567 0.40858895 0.75089324 0.793871 0.3671893 -1.7660024 -0.09143162 0.23009421 1.8133899 1.4685563 1.0169842 -1.5337366 1.099296 0.44596958 -0.25277933 -0.16898574 0.95605516 -1.4010382 -1.5418591 0.026516207
metres -1.7561842 -0.28808823 -0.76364475 -0.65842336 -0.09232014 0.9771418 0.8161189 0.6533927 -0.35424548 0.83493537 -0.8623838 0.32574177 0.52572185 0.12351962 0.29557276 -1.2499863 -0.04918186 0.37992957 0.26305127 0.267373 0.18231146 -0.11454994 0.75568753 -0.33161956 -0.10449803 0.5163909 0.13688856 -0.21842255 -1.3954954 0.74176645
Results -1.3662031 -0.3557619 -0.21211998 -0.59780234 -0.046280004 0.48942837 0.71165013 0.38994354 -0.02819715 0.6117937 -0.50705445 0.13953756 0.37873787 0.31212232 0.17296258 -1.0988089 -0.15539683 0.25101754 0.78845483 0.62045366 0.32571384 -0.29240692 0.77104527 -0.021999024 0.064569764 0.24400924 0.2504915 -0.35990593 -0.8762121 0.52585846
earlier -1.71103 0.9670037 0.16458118 -0.358647 0.16175461 0.09544788 0.5935644 0.51565707 -0.54191834 -0.1322219 0.009484331 -0.2799596 0.365293 -0.15763818 0.4379867 -0.37768266 -0.105976164 0.0038713305 0.016053664 0.42055562 0.011618844 0.16324927 0.77240145 -0.32117295 1.225986 0.29365245 0.78636706 0.68851304 0.07633368 0.7879348
talks -1.6358277 0.7945872 0.06422715 -0.37508678 0.12358891 0.17002876 0.61083525 0.4872112 -0.47491693 -0.0633345 -0.036408585 -0.22190234 0.31811178 -0.10648805 0.3879302 -0.4853367 -0.12107475 0.04945258 0.08285491 0.44442424 0.06681915 0.11163008 0.76753414 -0.3306931 0.98683757 0.3101228 0.6345317 0.5897814 -0.10271023 0.71722746
set -1.6998558 0.94835186 0.086831324 -0.36209533 0.1538598 0.15562384 0.5885903 0.49926433 -0.49043027 -0.16957788 0.009679025 -0.29448697 0.33059278 -0.12899096 0.42087084 -0.41559544 -0.13752082 0.008053661 0.042661246 0.41158232 0.06029535 0.15096761 0.73335564 -0.3137388 1.1205062 0.26298463 0.6744049 0.61793554 0.004624198 0.7350849
tonnes -1.8839678 0.64697576 -0.026706543 -0.4257205 0.1619795 0.33765715 0.77088064 0.54685855 -0.34075546 0.11923137 -0.14632058 -0.17263731 0.39551568 0.0831988 0.4537055 -0.8021158 -0.18098351 0.07420053 0.2090276 0.5436925 0.09217851 0.0011129014 0.8778586 -0.2783155 0.91955596 0.28638905 0.5178269 0.30833557 -0.3919199 0.8052965
killed -1.8315257 1.0233507 0.11186117 -0.3195097 0.18810084 0.1337247 0.56986296 0.40085372 -0.40153885 -0.22379716 0.034881897 -0.3488469 0.33131102 -0.08533292 0.4517038 -0.39487982 -0.10248979 -0.0368791 0.08731415 0.46354482 0.04970621 0.06668673 0.72288567 -0.2760147 1.1503332 0.17072996 0.7251411 0.57102466 0.037939403 0.59060895
Sweden -2.0733297 -0.68695575 -1.0510992 -0.81175035 -0.18944941 1.3325441 1.0215464 0.69957954 -0.29043728 1.2449082 -1.2145835 0.58557373 0.6260637 0.23215707 0.26871276 -1.7079425 0.0035845446 0.50488734 0.43387744 0.34150732 0.30688453 -0.32644534 0.85427505 -0.23298724 -0.44047958 0.5503552 0.09272759 -0.6367051 -1.9329921 0.7688643
now -1.9471655 1.068573 0.046627477 -0.4119145 0.1410547 0.18871474 0.6598754 0.50536305 -0.5734261 -0.124946885 -0.065351084 -0.28162852 0.41123953 -0.18738334 0.4869771 -0.4369529 -0.07645497 0.06883549 0.027187113 0.44369668 0.056528315 0.10672114 0.81492317 -0.30527264 1.2380425 0.30169752 0.8105487 0.70971364 -0.011718606 0.79654676
season -1.5045118 0.7431608 0.056181855 -0.3763883 0.14237459 0.24378175 0.5373123 0.47142187 -0.43782085 -0.08933897 -0.023995396 -0.21115069 0.33726943 -0.092814475 0.39069787 -0.4806832 -0.17922485 0.043004762 0.035976306 0.40416506 0.007203963 0.1605729 0.73225474 -0.36725435 0.89602774 0.27891082 0.5220158 0.5574156 -0.14140502 0.62938315
take -1.7544973 1.0908542 0.11673528 -0.27470452 0.15860826 0.08899461 0.5440183 0.45279583 -0.4980774 -0.21534 0.049836602 -0.31614247 0.3588226 -0.23079932 0.43779477 -0.30493924 -0.114452265 0.002783907 -0.013449701 0.3996837 0.056321982 0.138417 0.6839862 -0.33135918 1.1653012 0.22161148 0.7138714 0.7381995 0.16087212 0.6729731
held -1.9444523 0.8901439 0.094686635 -0.42636645 0.10463489 0.22616823 0.6315931 0.4465498 -0.39270943 -0.08945882 -0.031622276 -0.23810631 0.37849075 -0.07449042 0.4366932 -0.5368635 -0.117685296 0.028126108 0.2330947 0.56199765 0.1366802 0.0011541818 0.826974 -0.2603119 1.0820718 0.22126734 0.7537017 0.5630038 -0.06276647 0.6671443
during -1.9750484 0.8089122 0.021646548 -0.48187855 0.1147007 0.23460461 0.72573835 0.5673237 -0.46229577 -0.018232303 -0.12917314 -0.24594474 0.40219474 -0.08624607 0.43670112 -0.62430114 -0.15539107 0.070798635 0.1877197 0.5339104 0.11461024 0.0749315 0.8731048 -0.35629922 1.0944486 0.30811572 0.7144144 0.57288045 -0.1975904 0.793583
Reuters -1.5456628 0.92796844 0.10635677 -0.35413855 0.058986526 -0.048833515 0.6020461 0.47055966 -0.6604512 -0.10046469 -0.0072168396 -0.2863465 0.29683784 -0.29548874 0.38378826 -0.12977076 0.0025733665 0.031436935 0.030707572 0.3820457 0.02499427 0.20805357 0.7448287 -0.22092146 1.2898353 0.37270665 0.9305234 0.7269108 0.16233827 0.8308575
should -1.9989504 1.1045673 0.062332284 -0.42425522 0.14067301 0.17459409 0.625649 0.51262164 -0.5316706 -0.17499046 -0.052829325 -0.2613742 0.42861906 -0.2453165 0.43449864 -0.40902117 -0.08695724 0.02399495 0.062890455 0.48246962 0.12835814 0.058199774 0.81522036 -0.24126089 1.2618208 0.25234592 0.87023056 0.7192838 0.07002936 0.6929097
part -1.7324438 0.93757063 0.10497399 -0.33859944 0.1777828 0.141971 0.6081316 0.5002062 -0.4764984 -0.14172223 0.014985564 -0.25643277 0.35583568 -0.12723713 0.42464083 -0.48027322 -0.12969731 0.06361049 0.039496277 0.45231277 0.032472204 0.15760082 0.78432864 -0.33756697 1.1386306 0.290809 0.68853146 0.6528236 -0.03054837 0.7472763
around -1.9598293 0.78912115 0.011362073 -0.4430915 0.10385326 0.3047258 0.71474665 0.5127855 -0.3849284 0.02251607 -0.14390479 -0.22919996 0.4191516 -0.0052807536 0.44549033 -0.66416156 -0.13361034 0.0347971 0.20618816 0.5390422 0.14547648 -0.01031582 0.8689625 -0.2960751 1.0382257 0.25826448 0.69126606 0.4280184 -0.25436482 0.7471169
India -1.6331654 0.4959947 -0.1198313 -0.4470453 0.030984014 0.2980305 0.6630731 0.4664953 -0.39680916 0.20522626 -0.2779385 -0.11379845 0.38134 -0.082254484 0.36382496 -0.64179367 -0.05193765 0.13983147 0.19343175 0.42340982 0.1010047 0.0024119257 0.75090575 -0.21784846 0.7515024 0.33695713 0.5981609 0.30090272 -0.364235 0.6911752
National -1.9159777 0.309724 -0.16062278 -0.55159646 -0.027280416 0.4500827 0.77500826 0.3974302 -0.22688368 0.34955952 -0.35038346 -0.015610624 0.41288581 0.11381041 0.3451904 -0.8752407 -0.13337575 0.14234275 0.4909883 0.6474095 0.27315065 -0.23375158 0.8617768 -0.16551782 0.62932074 0.24146906 0.6710603 0.037493728 -0.6070433 0.59819484
party -1.8869066 0.79904616 -0.017305166 -0.46060932 0.099691145 0.27165052 0.6883426 0.5551794 -0.50782907 0.049571004 -0.14496337 -0.20390265 0.3805165 -0.12851743 0.40330532 -0.61450875 -0.102253295 0.10092344 0.11682006 0.4470127 0.10205572 0.08643545 0.8304204 -0.3316373 1.0230675 0.32971004 0.70502436 0.5313525 -0.23061588 0.7933148
elections -1.7061944 0.800982 0.054297682 -0.37665913 0.06710518 0.18189295 0.57999927 0.42218712 -0.42904934 -0.009289222 -0.07626007 -0.19217882 0.37562403 -0.13485217 0.36488962 -0.45165163 -0.09184332 0.045406144 0.15889639 0.47295317 0.13403098 0.012837018 0.7211591 -0.25646868 1.001359 0.25248584 0.69783944 0.52723134 -0.06910303 0.6724308
took -2.054251 0.7286216 -0.041675165 -0.50146806 0.090250865 0.29990563 0.729796 0.4920958 -0.39188248 0.0752817 -0.18860239 -0.19792604 0.45734143 -0.045020513 0.42344183 -0.6811637 -0.14593647 0.09339356 0.29404166 0.60827786 0.18564282 -0.05808397 0.8746243 -0.27056062 0.97018296 0.27041456 0.7489108 0.41624385 -0.28113353 0.7434331
Bank -1.6778116 0.28048882 -0.14243141 -0.4952174 -0.034382317 0.38043147 0.73983455 0.43775496 -0.26326177 0.335004 -0.35521877 -0.024346178 0.39707193 0.04301873 0.33778253 -0.7664096 -0.11794415 0.17187841 0.41155875 0.5330984 0.2012339 -0.107441105 0.7683934 -0.17405158 0.59552854 0.28310195 0.53326255 0.09740128 -0.58566105 0.6442427
game -1.7149866 0.73318475 0.019287245 -0.43129438 0.12891708 0.23459336 0.64534307 0.50709146 -0.42424527 0.012059121 -0.09688187 -0.22469117 0.36297527 -0.10219382 0.39555898 -0.5539421 -0.15436773 0.082270235 0.11425569 0.4712569 0.08820771 0.09369786 0.8137756 -0.3510612 0.95442903 0.3006137 0.63445044 0.5159753 -0.20803088 0.7103321
early -1.857152 0.83159226 0.071178146 -0.48604262 0.12621693 0.16730385 0.68593484 0.5143245 -0.47304648 -0.04323757 -0.073762916 -0.30901018 0.3584872 -0.12627153 0.42657992 -0.47343153 -0.13294262 0.07854627 0.16182466 0.55330867 0.099475294 0.07537273 0.84644026 -0.312547 1.1021863 0.32497817 0.75613296 0.612282 -0.120042406 0.8068997
lead -1.911121 0.50403214 -0.080563135 -0.50001246 0.05582871 0.36917606 0.70355475 0.4785223 -0.29069617 0.1554396 -0.222735 -0.11391232 0.39803782 0.012084037 0.41330194 -0.7827153 -0.17700307 0.10746876 0.3269526 0.59430856 0.19532776 -0.08775811 0.85033727 -0.2939431 0.7512489 0.25816646 0.63584614 0.26274538 -0.42613825 0.63845074
number -1.6332252 0.42709562 -0.13270411 -0.46392596 0.061956894 0.34796467 0.6454602 0.48510566 -0.3576428 0.20316234 -0.25217003 -0.08882078 0.33820647 -0.017340956 0.3118146 -0.6787755 -0.1135483 0.13055174 0.21819936 0.4553342 0.11086989 -0.005609162 0.71909916 -0.2662871 0.6593478 0.33078316 0.52946335 0.29205254 -0.42182365 0.6731919
capital -1.5876807 0.7201077 0.048955623 -0.38260904 0.079714336 0.1811817 0.61915743 0.47860458 -0.46029234 0.004115921 -0.09604845 -0.22619155 0.3090066 -0.09126186 0.3606304 -0.5007015 -0.11807703 0.056929912 0.10243645 0.41144702 0.052821074 0.121394165 0.7314283 -0.28726843 0.9835395 0.30329826 0.6460983 0.5019774 -0.106103815 0.7247946
68 -2.4986787 -0.5263168 -0.6855601 -0.8161917 -0.26939893 1.117545 1.0880122 0.41858968 0.08635107 1.1168587 -1.0138375 0.44342357 0.716386 0.4045522 0.37467915 -1.6645887 -0.032553546 0.3420448 0.9729228 0.8424548 0.6084529 -0.806237 1.0041347 0.049238224 -0.15003107 0.25117382 0.5866527 -0.79233867 -1.6331753 0.53283715
innings -1.5452232 0.13315427 -0.098425224 -0.4585699 -0.022597222 0.39453357 0.55414826 0.22140379 0.006552464 0.240276 -0.23415647 -0.048676692 0.34700054 0.14612868 0.29823545 -0.692542 -0.20519738 0.1349104 0.45801863 0.62348956 0.23634942 -0.27330574 0.68468076 -0.16084546 0.35708177 0.11745553 0.42595878 -0.02740018 -0.5694345 0.3663971
6-1 -1.9932691 -0.55462724 -0.89091206 -0.7357674 -0.19819689 1.1719261 0.9230544 0.6299094 -0.24305138 1.054499 -1.047874 0.5244381 0.63320106 0.23731013 0.27535206 -1.5634197 -0.06035956 0.4861415 0.44401023 0.4108602 0.26895434 -0.2916733 0.8385704 -0.21804498 -0.28612936 0.47019833 0.108971216 -0.55752057 -1.754099 0.6982365
soccer -1.6031041 0.12766714 -0.029039761 -0.74101424 0.00014423103 0.29185632 0.6816601 0.43301904 -0.1722994 0.25766376 -0.23734319 -0.20397496 0.29968563 0.008792815 0.2657464 -0.65466034 -0.21150707 0.23569666 0.52737075 0.70239425 0.22255225 -0.04768803 0.8970859 -0.38129267 0.4938459 0.32906228 0.4700603 0.2890802 -0.57553494 0.72454244
minutes -1.8711998 0.12942246 -0.29176724 -0.5100719 -0.049925994 0.5945766 0.7244123 0.4297521 -0.15166791 0.43360966 -0.44710493 0.026715046 0.4258775 0.15940273 0.33887678 -0.9656038 -0.14954682 0.17269444 0.41904065 0.5971275 0.27599052 -0.2461267 0.79697084 -0.20747925 0.36741495 0.2503759 0.4586366 -0.089412615 -0.7878204 0.5204845
due -1.7494645 0.8940162 0.09278588 -0.3511535 0.09675304 0.14590417 0.5674306 0.44291294 -0.41825408 -0.12333658 -0.019153113 -0.24201915 0.352315 -0.13837454 0.41887122 -0.40625137 -0.10327158 0.025856655 0.10896691 0.48373583 0.12426703 0.037721235 0.7320593 -0.27857947 1.0586314 0.20331709 0.69174105 0.5676242 -0.005092033 0.6499609
end -1.5921966 0.948827 0.12859392 -0.32553577 0.19040947 0.11565453 0.5659139 0.52642155 -0.5321936 -0.19047552 0.03627656 -0.2664172 0.31844392 -0.16119692 0.3823058 -0.42814657 -0.16902329 0.017451568 -0.051782098 0.37768778 0.002889741 0.24403913 0.7206236 -0.38751036 1.1396216 0.3046596 0.58150464 0.68949395 0.010478341 0.760685
saying -1.6621325 1.004837 0.10118712 -0.35406023 0.15752491 0.04220029 0.53333074 0.489847 -0.5768321 -0.16139884 -0.00921754 -0.30262417 0.28351533 -0.25526068 0.41785783 -0.24618708 -0.08105872 0.032390706 -0.012107634 0.3820014 -0.0037190183 0.17362852 0.73038834 -0.3337158 1.1902344 0.32538894 0.76684266 0.7639305 0.07013632 0.7845605
days -1.5017393 0.70141196 0.116067454 -0.31514144 0.1177641 0.14572825 0.54273355 0.39186624 -0.3590774 -0.09426475 0.014952802 -0.2546385 0.28038988 -0.029401675 0.3475764 -0.44550812 -0.12625039 0.009275787 0.13011236 0.46828392 0.09300798 0.014934753 0.6799361 -0.24943347 0.930819 0.21397902 0.61908174 0.42478043 -0.06434549 0.57509685
7-6 -2.119633 -0.67554015 -1.0521951 -0.8151536 -0.23215221 1.3357899 1.0310297 0.67688996 -0.2840852 1.2556521 -1.2074492 0.621133 0.6749045 0.2562599 0.2842934 -1.7375252 -0.016928988 0.5438416 0.44777358 0.42217484 0.3144172 -0.32516387 0.84395105 -0.237252 -0.40632248 0.5513577 0.076915525 -0.6343761 -1.9418268 0.7559761
b -3.0761485 -0.50745285 -0.55190986 -0.87502867 -0.34391207 1.0171269 1.1099509 0.13067594 0.51334184 1.0553614 -0.91652685 0.349131 0.7960467 0.5748248 0.49288738 -1.6769485 -0.15996097 0.32316145 1.5173296 1.3495514 0.83188283 -1.2494438 1.1518829 0.27050152 0.042680413 -0.01855041 0.9875354 -1.0505725 -1.5025432 0.3076578
100 -1.7441779 0.35669124 -0.29298583 -0.4398542 0.0716395 0.50927097 0.7073595 0.49604943 -0.32745665 0.29144815 -0.3753267 0.0067207166 0.4026047 0.046906773 0.368952 -0.8647878 -0.13750961 0.14163753 0.22408368 0.40197647 0.13475737 -0.06829544 0.7386945 -0.2531084 0.54165506 0.29454273 0.3761851 0.1178628 -0.6677199 0.68993515
results -1.6493092 0.57762873 -0.038491502 -0.42397213 0.085716285 0.26464063 0.6193911 0.45421773 -0.34333688 0.069542706 -0.14115398 -0.14806223 0.38147074 -0.0482042 0.38055184 -0.6003901 -0.13977565 0.08635557 0.21406858 0.48746485 0.13867682 0.020200122 0.75200564 -0.2574029 0.79353714 0.27084708 0.5365204 0.36662146 -0.28060845 0.674966
Open -1.3565525 0.29048038 -0.24373993 -0.42863616 0.0748629 0.40135863 0.6019403 0.5810124 -0.45345163 0.20755638 -0.29194114 -0.025445573 0.3063004 -0.02727099 0.28123683 -0.7227524 -0.09479962 0.16249837 0.08210052 0.27790502 0.024286453 0.16572669 0.65817994 -0.36625883 0.50546265 0.36530018 0.2285674 0.27631572 -0.5262279 0.7158894
foreign -2.0182838 0.72911394 -0.02029516 -0.46629292 0.048433527 0.27930236 0.7644595 0.5093174 -0.42563474 0.12675385 -0.20871745 -0.17890973 0.449175 -0.03839967 0.4579887 -0.685803 -0.09733155 0.10627876 0.28082857 0.57226825 0.16726482 -0.029348867 0.8562399 -0.23263398 1.000603 0.32756233 0.7945636 0.395455 -0.30996788 0.7550961
so -1.88048 1.2486556 0.13839874 -0.3153751 0.1724061 0.07290904 0.5642188 0.48362765 -0.5612966 -0.25883764 0.054587528 -0.32228094 0.39975527 -0.24622118 0.453188 -0.273046 -0.063284665 -0.024606075 -0.013303936 0.42641002 0.070331104 0.120351866 0.73631704 -0.2780034 1.3690326 0.23277132 0.8948743 0.7956575 0.22826256 0.7274695
can -2.0715318 1.0461278 0.040587816 -0.41564384 0.08450694 0.21580954 0.6645143 0.5064545 -0.5223829 -0.07931217 -0.10853038 -0.22792423 0.4753396 -0.23728187 0.43758395 -0.42398652 -0.046729956 0.058105163 0.12889636 0.50775665 0.1613446 0.0015105103 0.83110976 -0.21964605 1.2359588 0.27948448 0.90894985 0.65382797 -0.023988403 0.7277922
political -1.8397491 0.8244233 0.01642634 -0.4239837 0.10096343 0.21343832 0.61780596 0.45213762 -0.4250294 -0.017383795 -0.12712178 -0.20956911 0.39848354 -0.13409491 0.404267 -0.495237 -0.1110315 0.040612105 0.13422717 0.47205067 0.10955842 0.02972189 0.75399965 -0.28780147 1.0348167 0.25125375 0.747688 0.5174497 -0.1071659 0.68913275
international -1.8348125 0.5672473 -0.05045712 -0.5042054 0.050932188 0.2882332 0.6829178 0.47979972 -0.34844542 0.11052901 -0.18560831 -0.16600814 0.3684568 -0.027724637 0.39094543 -0.65325296 -0.11745624 0.100713335 0.29528347 0.5710692 0.1665718 -0.04413521 0.83660614 -0.2606759 0.855176 0.30053297 0.67331964 0.36029366 -0.31539825 0.71034634
West -1.5514094 0.13532558 -0.09616539 -0.44020703 -0.072324835 0.33719486 0.6136972 0.21026674 -0.0458387 0.32656625 -0.28037667 -0.004418712 0.33434823 0.12034657 0.27519512 -0.69897354 -0.09017803 0.10362719 0.5135733 0.6125831 0.2735818 -0.29876247 0.6900189 -0.0753874 0.45311975 0.16389251 0.5926341 -0.08878784 -0.47814405 0.41252676
22 -2.1766813 -0.48531893 -0.24902867 -0.6264483 -0.32239679 0.6697664 0.8527278 -0.044991687 0.54459727 0.8172817 -0.60985124 0.20731845 0.5444954 0.5847299 0.28383496 -1.1918957 -0.089878835 0.17108336 1.2949564 1.1354562 0.70145637 -1.042151 0.88003963 0.28741443 -0.0045795343 -0.09584528 0.7640646 -0.9758699 -1.0926431 0.09449151
per -1.9864389 0.3083204 -0.23169532 -0.49376607 0.065399975 0.5032272 0.86803865 0.49800256 -0.2090029 0.3849404 -0.3794067 -0.034105346 0.46363536 0.19962783 0.47994465 -1.0451441 -0.15739797 0.11806176 0.4483851 0.6164265 0.21960725 -0.20149659 0.92610955 -0.20735337 0.6297467 0.31563437 0.5049153 -0.06706256 -0.7543705 0.8003424
York -1.37724 -0.041371215 -0.17414197 -0.36332127 -0.09858786 0.308944 0.54195666 0.18471059 0.056789115 0.40040806 -0.32694015 0.06811528 0.30044562 0.16356203 0.23762284 -0.70165634 -0.10356113 0.12477193 0.56514466 0.54467714 0.26834154 -0.29437512 0.60820633 0.04770008 0.30329913 0.11997263 0.5203545 -0.21507718 -0.56071126 0.3591417
final -1.6681615 0.62393904 -0.06800043 -0.48266098 0.121810004 0.36578774 0.66118747 0.5844229 -0.40985766 0.053511467 -0.1376443 -0.16208 0.36346284 -0.04864833 0.37678656 -0.6503136 -0.16288376 0.10287928 0.09226473 0.4321247 0.081127964 0.14525636 0.79539716 -0.4127648 0.80046964 0.31204608 0.448262 0.46863592 -0.34083518 0.71675813
Belgium -1.7471441 -0.41086853 -0.7838203 -0.6316273 -0.12140659 0.9937694 0.8339005 0.5695578 -0.22397335 0.9058999 -0.9146265 0.40546492 0.5222579 0.16644783 0.2728892 -1.3451972 -0.052011017 0.38258466 0.36615953 0.35031733 0.24777536 -0.22377594 0.71099466 -0.23800011 -0.20005271 0.41974285 0.16145344 -0.41469952 -1.4637964 0.64674604
you -1.8974293 1.0702369 0.0664786 -0.37874046 0.111124896 0.10877668 0.63170093 0.45273316 -0.55219024 -0.11234321 -0.061622456 -0.27404886 0.41779038 -0.26158628 0.42904514 -0.3289072 -0.024469113 0.04136446 0.029212616 0.43018514 0.10594345 0.04513607 0.75767654 -0.24625765 1.2450314 0.29545102 0.9058194 0.6864737 0.06817079 0.7255703
Newsroom -2.1658883 -0.13067023 -0.3285753 -0.65940374 -0.17343666 0.6402904 0.9256132 0.278257 0.04444903 0.7147422 -0.60938084 0.13456404 0.5196833 0.37014204 0.32574636 -1.2128606 -0.07983528 0.19965945 0.8795886 0.82176304 0.5157393 -0.6431226 0.8961895 0.12835993 0.31606618 0.16732132 0.71657723 -0.6034058 -1.0056579 0.48653123
most -1.7645295 0.6751832 -0.02288778 -0.42991754 0.106716506 0.27376664 0.66825587 0.48069113 -0.39414775 0.071333356 -0.14820239 -0.1816358 0.36571565 -0.06047979 0.40029374 -0.61814314 -0.12603341 0.091513954 0.19304118 0.47477216 0.107121535 0.012015237 0.77844846 -0.26355135 0.9158142 0.2627282 0.65297914 0.4143024 -0.25698993 0.67523605
French -1.8208169 0.47918007 -0.099945836 -0.5301754 0.090097085 0.37116 0.7217057 0.5093764 -0.40928048 0.21749617 -0.26786432 -0.11709301 0.42194402 0.0027199942 0.35312724 -0.7656031 -0.14205338 0.17008562 0.2865101 0.499004 0.16779394 -0.01128381 0.8585994 -0.2638889 0.75671345 0.33468142 0.5676457 0.29733416 -0.4500913 0.7603957
