5834 50
. 0.050612375 1.0489755 -0.7508571 0.92403734 0.31551382 -0.121620685 -0.28493568 0.11615067 -0.666656 0.79964924 -0.29715514 0.28098506 -0.59762406 0.1155837 -0.8131458 -0.7706577 0.1994049 -0.41460133 0.38073805 -0.68733525 0.535285 -0.46744686 -0.5987681 0.52429694 0.5101515 0.08597066 -0.29640624 -0.037922397 -0.40716532 -0.01125121 -0.6341511 -1.623795 0.48380113 0.63435096 -1.067827 0.10394624 0.5268584 -0.25429457 1.1768574 0.609513 -0.0056793867 -0.20802353 -0.05422125 0.1573978 -0.223014 0.06959462 0.12192693 -0.13326246 1.1532497 0.45930004
, -0.8381258 0.5384921 -0.5803232 1.5574237 0.2748645 0.2213541 0.5229898 0.14133774 -0.6761352 -0.09386242 0.111253604 0.21700141 -0.19322623 0.038757056 -0.6911259 0.13325639 0.94724214 0.17110291 0.74078923 -1.1235578 0.049703334 -1.3096544 -0.14286312 0.13632138 -0.06443 0.5859737 0.7380122 -0.26645848 -1.5974488 0.28869045 0.47942936 -1.3557069 -0.15007392 -0.04170727 -1.345215 0.10860808 0.05927245 -0.17410323 1.2545793 0.022783171 0.7024682 -0.30033714 -0.1899681 0.44488502 -0.052883968 0.16826297 -1.4449842 -1.1831084 0.547704 0.64587533
the -0.41906422 1.7830516 0.1687068 1.9949418 0.39673927 0.7049063 -0.5736584 0.5974045 0.024604032 0.47179726 0.041879848 0.33108485 -0.18377687 0.9800105 -2.0569327 -0.14240773 0.8513404 1.1328293 0.81981224 -0.22592594 0.4265844 -1.0535945 -0.0456746 0.5233774 -0.045214493 -0.7378439 0.44756734 -1.1404065 -1.1786608 0.18885803 0.81079406 -1.4453135 0.6408393 0.4672857 -0.65740865 -0.38132277 0.49410483 -1.3359014 1.0740079 1.2858778 -0.21156381 -0.3542438 -1.4465382 0.5877719 -1.9521424 0.35780525 -1.266409 0.013366117 0.8250252 0.18038283
of -0.38144332 1.3843734 0.28014368 1.4601805 -0.0594338 0.71466655 -0.32103118 0.17901596 -0.055551797 0.46877527 0.29401836 -0.12817506 -0.18306121 0.69923735 -1.747891 -0.064374775 0.29526547 0.1934948 0.7622101 0.21761595 0.4483148 -0.5263775 -0.44411296 0.077930585 0.19825527 -0.18271922 0.46078753 -0.34987962 -1.6166174 -0.109650865 1.1922199 -1.156358 0.94967103 0.18549329 -1.0441391 0.08360742 0.41693696 -1.1193489 0.399786 0.99833226 -0.1935465 -0.40336326 -1.4195967 0.5906294 -1.7545685 0.21634582 -0.7410548 -0.16514207 0.50144815 0.34207153
to 0.040618256 2.4456344 -0.34595865 1.3632565 0.83156157 0.83493096 -0.75459933 0.60723025 -0.39109117 0.8621715 -0.40896767 0.5728871 0.113090396 0.73928773 -2.0631542 -0.711547 0.21001902 1.0789964 0.991471 0.05604937 0.09313239 -0.7940375 -0.065571114 0.78033984 -0.07492836 -0.7173875 0.080880776 -0.56316894 -0.61977017 0.033431657 1.2146124 -1.7818209 0.517086 0.8106949 -0.8837917 -0.35831428 0.2944898 -0.9043132 0.818886 1.7330191 -1.0520175 -0.8715048 -1.656408 1.0258477 -2.0284138 -0.054104894 -0.33920303 0.26886293 1.1637309 0.7678926
in -0.40223637 1.428662 0.11664875 1.4012381 0.16859503 0.78292257 -0.34807676 0.19269815 -0.09070727 0.37054345 0.13887075 0.05616965 0.017363172 0.6144899 -1.6630118 -0.07128524 0.37548277 0.417647 0.79767907 0.070102446 0.31811902 -0.73496133 -0.30824444 0.21587534 0.090071574 -0.2801764 0.48641294 -0.46323884 -1.3868197 -0.008586233 1.1695831 -1.2130278 0.72051233 0.33000416 -1.0009392 0.0431317 0.4092384 -1.1147053 0.5949603 1.0750707 -0.22394429 -0.5229399 -1.3258401 0.60681504 -1.6982435 0.09493354 -0.85370094 -0.21686827 0.5774805 0.44967198
a -0.3818344 2.0700753 -0.004017389 2.0935173 0.58881307 0.79090756 -0.6239566 0.7359563 -0.1320819 0.77306366 -0.08886876 0.5741317 -0.02956902 0.9993977 -2.147794 -0.33450025 0.8592735 1.1639535 0.9182861 -0.24045637 0.3618238 -1.0838816 -0.04228592 0.7250167 -0.02629986 -0.7194892 0.33187294 -0.9797571 -0.96259266 0.117259026 0.8073231 -1.6453547 0.5980114 0.56806535 -0.7985448 -0.37179023 0.49096596 -1.2877408 1.2171043 1.4689858 -0.43767017 -0.6727387 -1.4566159 0.7297544 -1.9794446 0.35812846 -1.2216663 0.1314881 0.87357867 0.43024158
( -2.6225972 -0.8511413 -0.08823527 1.2394383 -1.5278896 0.033571634 1.6855173 -1.1830217 -1.7509195 -1.2342522 0.03673368 -2.6392663 -1.9515674 -2.677859 -0.107715026 0.78795224 0.51945335 -2.2657735 1.391717 -1.2117398 1.2693875 -1.7889545 -0.36920574 -2.4129179 0.6131494 3.1464384 1.0664468 -0.64150894 -5.0348735 -0.4571696 -0.95006055 -2.1411011 -0.75480205 -0.9317485 -2.7478533 -0.21716505 -0.34190616 1.4594766 1.2846931 -0.10503437 2.2000568 1.1718974 0.15505204 -1.4174435 0.77836496 -0.071377896 -1.5646099 -3.2584355 1.6798277 2.162035
) -2.6971784 -0.74510264 -0.73454213 1.2822452 -1.3518103 0.10794446 1.9078683 -0.79864997 -1.8438452 -1.2361932 -0.4408595 -2.5340734 -1.6257851 -2.271588 -0.12282542 1.0334216 0.5941013 -1.9559798 1.9633344 -1.2450588 0.82197845 -2.1806164 -0.5234127 -2.6192424 0.30297193 2.5840757 0.8941999 -0.7137205 -5.1597853 0.2409185 -0.39120242 -1.923146 -0.26526093 -0.8072136 -2.4712098 -0.3667435 -0.6114356 1.160623 1.2339357 -0.01706833 2.1305764 0.36680037 0.30572557 -1.2785299 1.2824227 0.04081699 -1.5317005 -3.0705314 1.2927686 1.989415
and -0.33194587 1.5766207 -0.27612916 1.2902726 0.5501857 0.6573651 -0.27537012 0.43424147 -0.43498164 0.32773522 -0.13290493 0.294237 -0.023353273 0.35936603 -1.4279262 -0.34995326 0.47015455 0.6607278 0.84224516 -0.21712281 0.15930106 -0.936573 -0.0026897504 0.31399426 -0.014644672 -0.274369 0.2893037 -0.51505536 -1.0030726 0.1980184 0.86545026 -1.4974216 0.19714458 0.46298155 -0.87912035 -0.24766305 0.23698592 -0.54888844 0.81429595 1.1074083 -0.3478512 -0.48737234 -1.0720915 0.6122873 -1.2805457 0.012823493 -0.75367403 -0.25971147 0.9381771 0.6023169
" -0.848968 2.0080862 -1.4732289 2.5501397 1.359463 0.39450315 -0.13136901 1.2249918 -0.7438013 1.114304 -0.20760289 1.8195965 0.62656593 1.3279841 -1.820998 -0.14605568 1.3678814 1.4155654 0.72635597 -1.6720167 -0.12732135 -1.9556218 0.06633326 1.987207 0.27876717 -0.04859123 0.1857049 -0.7540009 -1.3440545 0.25083384 0.5426185 -2.2062213 0.6487882 0.47437721 -1.7733264 0.113664396 0.37261882 -1.1855093 2.3382869 1.1705885 -0.19807228 -1.631949 -0.6686129 1.3550421 -0.52015764 -0.12773278 -1.3827485 -0.09642187 0.9602775 1.1095296
on -0.787707 1.1481624 0.21737388 1.9291041 -0.2777536 0.4485841 -0.5838517 -0.3323651 0.14551537 0.61278045 0.1999881 -0.16387744 0.15055437 0.5878638 -1.2929871 0.12095907 0.464832 0.3638577 0.30181 -0.5871061 0.76324344 -0.83116025 -0.6802439 0.7168384 0.36586922 -0.12761623 0.5676767 -0.5302483 -1.8700805 -0.3971991 0.5848776 -1.1159378 0.78705347 0.22150283 -1.5380466 0.47692618 0.62393206 -1.6697541 1.2373614 0.46847147 0.40998426 -0.56327534 -0.8179042 0.2381944 -1.1578399 0.0784329 -1.0713602 -0.28418738 0.34670296 0.99873865
said -0.92118686 1.7107038 -1.1409849 2.4820602 0.9836904 0.5081401 -0.02771089 1.0701206 -0.5530479 1.2352409 -0.19918285 1.3992316 0.66216546 1.2317218 -1.7763271 -0.009455277 1.2063022 1.121073 0.64263725 -1.431464 0.05542267 -1.7224872 -0.116652295 1.7517653 0.32331672 0.0531172 0.20660448 -0.6791979 -1.304162 0.039415702 0.2642893 -2.0490522 0.8267826 0.39559978 -1.8608915 0.14027914 0.43977624 -1.4080895 2.2982688 1.1688641 0.091697544 -1.6919801 -0.4950887 1.1133807 -0.7260673 0.156316 -1.4020847 -0.05554144 0.78396845 1.3352298
's -0.8556781 0.8019887 -0.19672635 1.6853967 -0.14886767 0.32371646 0.015510845 0.06888395 -0.18965667 -0.04919677 0.19763835 -0.09497337 -0.109758645 0.41955554 -1.0699942 0.21564928 0.6524118 0.23691806 0.50587165 -0.94703054 0.35186625 -1.1152121 -0.2627103 0.124399275 0.124645054 0.1898543 0.68477607 -0.6249321 -2.1146185 0.13704595 0.725312 -1.1935885 0.50333536 -0.1118144 -1.2742141 0.026142746 0.07852183 -0.85696256 1.0215514 0.35727042 0.505857 -0.29949215 -0.8981611 0.41154367 -0.744157 -0.049676828 -1.2566978 -0.7422702 0.56076455 0.71119934
for -0.4298193 1.4948033 -0.14220075 1.6108936 0.41181108 0.6600344 -0.25909784 0.31386766 -0.2898606 0.50528497 0.05955054 0.23568748 0.029289382 0.6119307 -1.6243329 -0.18911353 0.56914824 0.540842 0.8987471 -0.2648017 0.22359033 -0.8887816 -0.21952808 0.34871337 -0.0017536074 -0.21562476 0.5313386 -0.4224902 -1.2658732 0.054042462 1.0344585 -1.3854278 0.49982882 0.4111401 -1.0784689 -0.013515973 0.34223664 -0.9091143 0.9014502 0.93752354 -0.13447963 -0.617748 -1.0572127 0.72025895 -1.4198126 0.24351558 -1.0528274 -0.32739767 0.5821531 0.5590117
1 -1.7308315 1.0042988 0.49996668 -0.2699577 -0.433589 1.136704 0.67086214 -0.87468237 -2.1077857 0.7677819 -1.7141359 -2.7668872 -2.3000894 -3.4754207 -1.6974978 -0.53448963 -0.6704632 -2.0911863 2.9859517 2.2112901 1.6523044 -0.84256065 -0.3624268 -2.672463 0.66784865 2.0511642 -0.72978723 -1.0843543 -2.161463 -1.0423645 -2.2308226 -2.6750975 -0.6411455 1.144101 -1.5490121 -1.165193 0.69078237 1.7529949 0.9715047 2.853431 -0.06288607 0.3031256 0.13693531 -2.068331 -0.8867733 0.83270717 0.33149272 -1.1501014 2.3133726 2.4017825
- -1.5057188 0.09682646 -0.13343483 0.12859213 -0.7793231 -0.5338117 0.9899343 -0.20331952 -1.7470425 0.58745235 -0.59952414 -2.4617622 -2.1595662 -2.375285 -0.6592761 -0.6208079 -0.34790403 -3.1509843 1.7321526 0.28469437 0.9385786 -0.4975583 -0.57649726 -2.1735778 1.2237235 2.262479 -0.58740556 0.27679157 -2.832266 -0.73974746 -1.9340422 -2.1941469 0.12377053 0.33476886 -1.7462796 -0.22115262 0.21374351 1.5948825 1.0229272 1.2655784 1.2778273 0.3975783 0.7614452 -1.7089612 0.55591804 0.3987202 -0.0042487364 -1.0638868 1.2803862 1.3284776
The -0.66329896 1.5464615 -0.48936257 1.8674266 0.776511 0.26723585 -0.18829533 1.031047 -0.46481776 1.1764947 -0.24132873 0.8075694 0.19144037 0.8505028 -1.7380583 -0.2125115 0.83430725 0.7901789 0.74189913 -0.6680512 0.18379898 -1.1071274 0.03619344 1.0726069 0.37057903 -0.08302962 -0.031151785 -0.66588795 -1.0297676 -0.063633956 0.18818903 -1.6110728 0.6551323 0.35168996 -1.1131209 -0.19161204 0.42501366 -0.9423268 1.6237491 1.3849951 -0.19809067 -1.1858743 -0.59524506 0.51161146 -0.84450775 0.10856746 -0.9668933 0.3245647 0.6094511 0.7904392
was -0.51825976 1.9428382 -0.4409433 2.1660838 0.6444457 0.80776733 -0.5799362 0.6470142 -0.23636216 0.881305 -0.08008176 0.93724114 0.31421524 1.0185487 -1.8525633 -0.22947288 0.82785827 1.1407826 0.75993305 -0.57621866 0.22195525 -1.1564488 -0.10818472 1.0666136 0.029018454 -0.4296819 0.25922614 -0.65139276 -1.232033 0.061437074 0.896949 -1.7067977 0.7249291 0.44081762 -1.1698036 -0.039255664 0.35044935 -1.2845364 1.2435249 1.2754982 -0.39870012 -1.0779266 -1.4079561 1.0469613 -1.568208 0.054922782 -1.1235564 0.023838919 0.7911001 0.88960105
2 -1.6500357 1.1677698 0.44075197 -0.31894463 -0.38466728 1.171795 0.6486488 -0.82976 -2.1926498 0.8147071 -1.7730175 -2.8008654 -2.353408 -3.531986 -1.7866056 -0.6411309 -0.7597343 -2.1329074 3.0990748 2.3272727 1.6095045 -0.8144168 -0.38372892 -2.7410676 0.68044746 1.9893901 -0.7905983 -1.0603819 -2.1080632 -1.0144836 -2.1642845 -2.8299866 -0.66960657 1.2371542 -1.5682186 -1.1965547 0.6873534 1.8148205 0.92280054 2.9640603 -0.173138 0.3164208 0.03826055 -2.0204508 -0.98238933 0.8086407 0.42232308 -1.0908252 2.4195027 2.4096906
at -0.35483965 1.4309454 0.3484646 1.6108804 0.027163018 0.6059748 -0.43148834 0.33997646 -0.20597453 0.75438964 0.042213965 -0.2563151 -0.30078125 0.6295218 -1.702977 -0.32135805 0.3432571 0.21290681 0.7669375 0.28742686 0.55439043 -0.44698733 -0.3875833 -0.058784246 0.140005 -0.2871485 0.21758145 -0.37240866 -1.1988747 -0.20932113 0.6214252 -1.0908878 0.73570806 0.25167504 -0.68584645 -0.15663606 0.40217763 -0.8206829 0.36098823 1.0791371 -0.2540816 -0.44415316 -1.2474089 0.28673258 -1.631532 0.4052733 -0.6316295 0.07516657 0.43226832 0.3639988
3 -1.5873888 1.2237959 0.50405747 -0.2586697 -0.34786665 1.2235879 0.5998991 -0.80468374 -2.1128914 0.81763256 -1.737949 -2.690157 -2.2487366 -3.4242165 -1.8124545 -0.63472456 -0.73652303 -1.9941424 3.0971792 2.330076 1.5738729 -0.79225117 -0.3815354 -2.6362503 0.62788975 1.8751081 -0.74257034 -1.0955377 -2.003508 -1.0297989 -2.0899155 -2.811391 -0.6501589 1.2572541 -1.5423245 -1.1930888 0.7056413 1.7063491 0.9403479 2.94577 -0.21091501 0.28812125 -0.0034150502 -1.927106 -1.1049052 0.82556355 0.35714805 -1.0390668 2.3888218 2.3588452
0 -1.7759818 1.3330086 0.5250017 -0.47226298 -0.3760258 1.2892662 0.6230383 -0.9234146 -2.3782887 1.0216293 -2.0099173 -3.031957 -2.5704021 -3.8669379 -1.9930418 -0.801184 -0.8868168 -2.364656 3.3985786 2.6586692 1.8092688 -0.8193468 -0.40982002 -2.908404 0.7918738 2.1424193 -0.96611375 -1.1449606 -2.1390712 -1.2105842 -2.5501246 -3.0799422 -0.6946525 1.4881228 -1.6379924 -1.3010015 0.8460248 1.9445329 1.0750703 3.3746176 -0.24700901 0.25447917 0.17638491 -2.281312 -1.0952495 0.93380445 0.5683105 -1.0198166 2.6287858 2.6499434
with -0.32040662 1.8176154 -0.11768345 1.6037767 0.46786913 0.8463244 -0.4631811 0.4118676 -0.25958487 0.5383282 -0.035699654 0.31710497 0.05542708 0.67518276 -1.8198625 -0.29544073 0.49061465 0.73558336 0.8892443 -0.13447084 0.2559194 -0.88189214 -0.15944183 0.4889078 0.0017606198 -0.44184932 0.38375035 -0.57354146 -1.2337546 0.029644003 1.1251276 -1.5539936 0.6089435 0.4535633 -1.0563056 -0.13132846 0.3603342 -1.0245848 0.8212528 1.2805973 -0.4402176 -0.6523201 -1.454678 0.77844685 -1.7762054 0.10328534 -0.87852 -0.100043 0.860883 0.6353644
that -0.28000063 2.6494765 -0.67308515 2.201949 1.1928731 1.0123869 -0.7324342 0.88755345 -0.4279214 0.99276835 -0.30516356 1.2982926 0.55754954 1.2692516 -2.2771444 -0.49221835 0.85772496 1.7260276 0.9713924 -0.81309927 0.17842875 -1.5169744 -0.045019563 1.5844669 -0.07298431 -0.8291588 0.36576548 -0.9455468 -0.9689179 0.24887791 1.292741 -2.2816026 0.6434497 0.76249933 -1.3911371 -0.28336743 0.5243682 -1.5133991 1.7788932 1.6840053 -0.83076173 -1.3239034 -1.6189528 1.3541287 -1.8767642 -0.08120993 -1.0358645 0.20285264 1.282667 1.0716399
from -0.28728032 1.6206547 0.01717652 1.4710939 0.30203187 0.65559214 -0.43885082 0.42589998 -0.35261655 0.7206047 -0.1254434 -0.05563083 -0.21417733 0.46876803 -1.7058371 -0.451017 0.2945851 0.31767157 0.9063227 0.22691824 0.38802302 -0.5696762 -0.23164153 0.08572388 0.108751565 -0.24594359 0.19159128 -0.35809752 -1.0911841 -0.11696956 0.7742008 -1.3427312 0.5755348 0.34577113 -0.8248441 -0.2039114 0.33401254 -0.6460901 0.4301128 1.2049077 -0.44633713 -0.5012924 -1.3512033 0.49086168 -1.6025648 0.164792 -0.5593645 0.019403825 0.7394781 0.5110292
by -0.30746213 1.6351006 -0.2418168 1.4136304 0.44635606 0.71238434 -0.36693272 0.37109965 -0.37566563 0.5014227 -0.16083007 0.32142222 -0.031071058 0.514123 -1.6030599 -0.35454053 0.4602827 0.5534842 0.8853201 -0.1576133 0.25462607 -0.8766234 -0.15802711 0.38948983 0.049745962 -0.259219 0.32178372 -0.50257415 -1.0834234 0.059323274 0.9126179 -1.4657793 0.48312703 0.44008288 -0.97159886 -0.12988219 0.31714198 -0.7820344 0.7748524 1.1512733 -0.37394705 -0.60925 -1.1582681 0.61891866 -1.4632444 0.024025435 -0.7373489 -0.1721072 0.85193825 0.6300614
: -1.9718896 -0.79449 0.3670692 0.77416027 -1.2168373 -0.019099506 0.97121197 -1.2052375 -0.9910002 -0.1967799 -0.2719981 -2.0671597 -1.2756896 -1.65117 -0.1714149 0.6060501 0.25768137 -1.7750951 1.1367186 -0.570831 1.251781 -1.0897539 -0.6358775 -1.4527007 0.62817425 2.0055485 0.48817644 -0.59363496 -3.0512717 -0.7713757 -1.6040484 -1.169302 -0.11249221 -0.1661835 -1.7415197 0.022250652 0.22903255 0.44675672 1.4633175 0.06978038 1.8457628 0.29442203 1.0735162 -1.4970883 0.7800911 0.75570464 -0.9857296 -1.6990715 0.47963658 1.6763004
is -0.42434695 2.2203262 -0.778377 2.000778 1.0187722 0.7743072 -0.530439 0.85957575 -0.38065705 0.84402895 -0.17300123 1.2383373 0.35526088 0.9950751 -1.90825 -0.42982727 0.8225024 1.2938782 0.8225919 -0.6804716 -0.03340407 -1.3262719 0.086291894 1.2614048 0.0026393253 -0.46625686 0.27196866 -0.6385937 -1.0381441 0.22658928 1.0969146 -1.8920635 0.5270365 0.6075837 -1.2186654 -0.089088425 0.24491689 -1.0144281 1.3424293 1.3337612 -0.5537606 -1.1674782 -1.4404986 1.2972165 -1.4396106 -0.060368948 -1.0759889 0.052848626 1.0186217 0.89245176
4 -1.6585723 1.351802 0.46790877 -0.21898113 -0.37668929 1.1970202 0.70313066 -0.77780926 -2.3303099 0.87986356 -1.8031259 -2.9090104 -2.4679255 -3.6397178 -1.917086 -0.76926005 -0.80798185 -2.2662237 3.303276 2.403246 1.6099966 -0.8392244 -0.4421585 -2.8537934 0.72426784 2.058451 -0.80868703 -1.0522699 -2.2278821 -1.0788239 -2.208394 -3.1332405 -0.6885398 1.2994627 -1.7097837 -1.2631705 0.6940449 1.9007995 0.9601098 3.1186354 -0.18086872 0.34733117 -0.08861032 -2.0050437 -1.1933624 0.79262596 0.4036333 -1.1389755 2.6151562 2.46947
he -0.5074454 2.3486066 -0.87782353 2.5688138 1.2262839 0.7379587 -0.47327945 1.1110766 -0.5363314 1.0923827 -0.17770506 1.6450223 0.58963114 1.3737346 -2.1090643 -0.24336337 1.3226382 1.8165058 0.8946955 -1.3645684 0.075523525 -1.7437834 0.0330327 1.869801 0.058990166 -0.6520399 0.3855764 -0.96678114 -1.0060575 0.2852495 0.9932848 -2.2277765 0.6235933 0.5292945 -1.4881315 -0.17728408 0.5537669 -1.5119008 2.1756868 1.4187318 -0.51440686 -1.4100997 -1.1674445 1.2593398 -1.3125758 -0.013010539 -1.3707373 0.11552533 1.0244768 0.9367437
as -0.20365585 2.2556148 -0.2836979 1.7196293 0.77866876 1.0808456 -0.6737967 0.56665075 -0.171764 0.69545263 -0.12677938 0.76516026 0.32081205 0.9041941 -2.100918 -0.38087857 0.5603759 1.1579041 0.92240167 -0.119284496 0.17658746 -1.057431 -0.11734873 0.8992718 -0.028503647 -0.6785936 0.32544088 -0.67239517 -0.9736835 0.11306063 1.3891631 -1.7853649 0.62798595 0.685526 -1.1488603 -0.15731426 0.41987893 -1.2484697 1.0358069 1.5657414 -0.6848979 -0.94641316 -1.6643182 1.0918019 -2.0526211 0.0030655696 -0.9551759 0.045082908 1.013933 0.6959585
had -0.15110423 2.589902 -0.6579317 2.1795824 0.9886963 1.1548835 -1.1213356 0.552088 -0.38249427 1.0108966 -0.40735102 1.510087 0.658792 1.1534648 -2.0582714 -0.6202582 0.77024245 1.3594351 1.0043913 -0.56975734 0.22479583 -1.3081839 0.054658394 1.4027902 -0.17842165 -0.8027444 0.39986768 -0.81387633 -0.8248397 0.1266897 1.1835922 -2.022095 0.609194 0.82423997 -1.1403472 -0.063357465 0.45274162 -1.5574863 1.3752536 1.711435 -0.8878484 -1.3845178 -1.6612667 1.2548503 -2.114493 -0.16239487 -1.1247083 0.06790816 1.0532898 1.2796954
it -0.34120217 2.565233 -0.77617836 2.4598114 1.2494771 0.82485527 -0.7432361 1.0187039 -0.49010736 1.0678107 -0.3105023 1.5408839 0.54623467 1.4051489 -2.1104383 -0.4645027 1.0880483 1.9702543 0.8994833 -1.1830769 0.16781028 -1.6294008 0.100704305 1.7656778 -0.089568116 -0.8403744 0.35507354 -0.972116 -0.8527096 0.25942057 1.1409942 -2.181236 0.57243574 0.61614966 -1.2947015 -0.34836861 0.44168922 -1.4500428 1.9432755 1.4862612 -0.78048724 -1.3418294 -1.489866 1.3422539 -1.5799197 -0.085914075 -1.160387 0.26023525 1.175425 1.072612
were -0.24593183 2.1824262 -0.31216913 1.7620256 0.8179258 0.85258853 -0.6035726 0.7528946 -0.35117543 0.9908538 -0.25449204 0.8861639 0.2348253 0.782515 -1.917552 -0.56091005 0.6106826 1.0845113 0.917029 -0.10702334 0.1333088 -0.9699835 0.029376283 0.942616 0.04433023 -0.5615791 0.09490293 -0.6260699 -0.6647564 0.04789337 0.82935655 -1.7369689 0.46080774 0.750402 -0.9457222 -0.20252839 0.43521804 -1.0787451 1.1089895 1.6700953 -0.7538862 -1.0365719 -1.4074831 0.87472045 -1.7530152 0.09610762 -0.81915206 0.2999299 0.9989172 0.86448485
not -0.15790386 2.2949798 -1.0709432 1.2231399 1.521219 0.81467557 -0.62265766 0.85239756 -0.7609107 0.7065078 -0.6334771 1.3014991 0.55478525 0.6808317 -1.5072415 -0.68192583 0.6723324 1.5208334 0.97505236 -0.78306293 -0.15323336 -1.3457806 0.2796123 1.325975 -0.0712514 -0.5646718 -0.044596486 -0.5642706 -0.43133047 0.29963017 0.9464692 -2.0261316 0.04504518 0.9722746 -1.1340895 -0.3422082 0.19201168 -0.5042246 1.6229862 1.4525325 -0.99884313 -1.2678038 -0.928168 1.1622639 -1.1203878 -0.43722856 -0.42472887 0.18187553 1.4975978 1.0556666
his -0.57247967 1.7433825 0.011497453 1.9407073 0.3990844 0.8006832 -0.53636116 0.4284719 -0.109573595 0.5233272 0.023674874 0.44771257 0.11151972 0.87439084 -1.8366504 -0.05514951 0.8093108 1.0472984 0.8691843 -0.47621846 0.3838522 -1.1392998 -0.10771043 0.73139626 -0.047242813 -0.56245977 0.48312414 -0.9332011 -1.3162904 0.016038038 0.8502841 -1.561815 0.6812951 0.446361 -1.0428152 -0.21296605 0.46417165 -1.4091055 1.3231512 1.2731102 -0.14542632 -0.7091664 -1.2606703 0.6681095 -1.7493579 0.2841157 -1.2954891 -0.12644672 0.7055943 0.64765304
has -0.16537836 2.329411 -0.85047626 1.7983578 1.0801647 0.988178 -0.81150067 0.66209406 -0.5538247 0.91687536 -0.4481583 1.3891004 0.49884063 0.82761216 -1.8794847 -0.6956742 0.6544379 0.96799994 1.096885 -0.45290673 0.049133666 -1.238226 0.14587258 1.1005731 -0.100668445 -0.5404552 0.29646748 -0.5527426 -0.7198357 0.20078458 1.0846794 -1.993255 0.44570285 0.8327017 -1.0830714 -0.030181585 0.36006665 -1.0366637 1.2178687 1.5856884 -0.77057755 -1.281649 -1.3771472 1.1220646 -1.7395227 -0.21995723 -0.99611276 -0.0477816 1.0909233 1.0697062
be -0.0955538 3.2562375 -0.7430077 1.9220341 1.6489285 1.228344 -1.0867419 1.1115472 -0.44237012 1.0624611 -0.31205794 1.5815253 0.41122133 1.151943 -2.177846 -1.0178463 0.7642199 2.0450504 0.9679186 -0.5680186 -0.027698385 -1.4755582 0.33343044 1.7972698 -0.1664393 -1.2198411 0.17089093 -1.1344781 -0.5970848 0.3566503 1.2714187 -2.3196 0.35565728 1.0026648 -1.0546156 -0.48428613 0.52769196 -0.997206 1.4156561 1.8340572 -1.2298434 -1.2846581 -1.982013 1.512821 -1.766502 -0.31988335 -0.7825916 0.64604175 1.5697967 0.81973606
have 0.045288067 3.0600932 -0.9751618 1.801855 1.5514847 1.2072161 -1.1752812 0.79641175 -0.64642507 1.0110482 -0.5905477 1.7370218 0.58930343 0.98080385 -2.0970244 -1.0411338 0.68487793 1.4568781 1.1599144 -0.48711023 -0.062916294 -1.449443 0.29712042 1.5036906 -0.19132857 -0.9717355 0.2504024 -0.814812 -0.50498617 0.30727977 1.2992116 -2.29075 0.29577896 1.175653 -1.0648773 -0.19820465 0.43339232 -1.0453236 1.3646182 1.9407957 -1.248908 -1.4553937 -1.7032706 1.3975167 -1.932824 -0.37362534 -0.8438066 0.23826298 1.4510531 1.1839463
an -0.30525714 2.033033 -0.15649104 1.8421711 0.62101847 0.8310931 -0.6577395 0.58091503 -0.2528965 0.77648336 -0.17956115 0.61568576 0.05336533 0.8859983 -1.9357657 -0.439264 0.64626074 1.1002139 0.89982796 -0.2936638 0.34935766 -1.0467852 -0.051709183 0.8069833 -0.036472518 -0.67059964 0.30454025 -0.86098325 -0.88184065 0.06867419 0.788321 -1.7103441 0.5442765 0.5720553 -0.9210748 -0.3331241 0.47055724 -1.1486322 1.1957307 1.4508398 -0.51336175 -0.80214167 -1.388238 0.7620656 -1.8106799 0.21017106 -0.9739964 0.1264213 0.9521686 0.65924454
after -0.48503712 1.3390332 0.4334618 1.5149417 -0.1340494 0.8163755 -0.46023852 -0.04758885 -0.0013266889 0.47937968 0.069512896 -0.2775859 -0.117833756 0.5531564 -1.6478684 -0.034420274 0.29229435 0.37744364 0.83177084 0.15151656 0.6399346 -0.64167595 -0.44749752 0.112952076 0.091976516 -0.32735074 0.5241348 -0.66692543 -1.4722 -0.26912105 0.74946964 -1.1325495 0.7945091 0.28623262 -0.9610277 -0.07222771 0.48653492 -1.2986573 0.71534604 1.1385106 -0.07407077 -0.4994574 -1.2238537 0.35221455 -1.7962054 0.34328443 -0.9420263 -0.09809143 0.40526414 0.5869484
5 -1.4203808 1.1664839 0.38485375 -0.27553684 -0.3397839 0.98869187 0.6873552 -0.6546966 -2.1198242 0.7588725 -1.577533 -2.625433 -2.2331455 -3.353739 -1.6163119 -0.74581796 -0.77040046 -2.13705 2.9245949 2.1327634 1.3398687 -0.68003535 -0.37256852 -2.62845 0.68944556 1.9136603 -0.7754097 -0.80394673 -1.9763045 -0.92583615 -1.9595761 -2.8560154 -0.67178315 1.105123 -1.5474918 -1.1534972 0.5672787 1.888344 0.78946173 2.7370574 -0.16449788 0.39683074 -0.088488355 -1.7849237 -1.0017222 0.61551857 0.4195628 -1.0341829 2.4110081 2.163335
who -0.5242278 1.5530115 -0.4383037 1.7251133 0.6735692 0.6403485 -0.06924061 0.6552967 -0.48692024 0.39183176 0.028656198 0.6198585 0.2623359 0.68294054 -1.5875231 -0.10181187 0.8588257 0.91571814 0.90749836 -0.7745514 0.053252067 -1.2947022 0.0035205076 0.6798017 -0.075136885 -0.27136967 0.60574955 -0.5992668 -1.1886461 0.2873493 1.0966318 -1.6503382 0.33873722 0.37896174 -1.1739849 -0.16019887 0.3075042 -0.98059356 1.3082104 0.93328965 -0.12140863 -0.72846764 -0.9132754 0.80203384 -1.2030967 0.1491277 -1.2436936 -0.42201754 0.7795538 0.5660055
6 -1.4681686 1.0501553 0.3952238 -0.20809533 -0.4413074 0.8820777 0.7126389 -0.66192657 -2.0863678 0.7089004 -1.5087951 -2.6738389 -2.2544508 -3.276699 -1.5485381 -0.6757075 -0.7510772 -2.2026272 2.8823318 1.992304 1.3475311 -0.6699615 -0.43357188 -2.6936967 0.6928034 1.9332597 -0.70447445 -0.793445 -2.1489027 -0.912116 -1.9255162 -2.7835999 -0.59657836 1.016115 -1.5703188 -1.1064199 0.5272787 1.8131639 0.78290486 2.6108503 -0.0050639054 0.4266017 -0.07138066 -1.824718 -0.920659 0.6308196 0.3410313 -1.0924236 2.3147337 2.100904
will -0.16498396 2.6176543 -0.83575195 1.6362199 1.1097935 0.6910949 -0.7463527 0.72250307 -0.38972327 0.90107703 -0.49059072 1.1660178 0.31239054 0.9195492 -2.0608063 -0.6413197 0.43524826 1.4413488 0.92647016 -0.48880675 -0.12059233 -1.2401189 0.105212025 1.3208476 -0.13252088 -0.6543946 0.13193291 -0.6741185 -0.67443544 0.091065966 1.1857183 -1.9956931 0.38983735 0.9232098 -1.0793735 -0.2438919 0.2399788 -1.1525872 1.4337765 1.6391722 -0.9717828 -1.1405779 -1.4628423 1.2781193 -1.7078915 -0.09305879 -0.6100842 0.18576813 1.2404964 1.1289982
but -0.22858717 2.4842932 -0.5602742 1.90746 1.0778705 1.0044292 -0.7107451 0.71336704 -0.44371513 0.78588444 -0.27985504 1.0448368 0.4460835 0.96661943 -2.0871367 -0.5320068 0.69314694 1.5218138 1.0275664 -0.53026134 0.10499674 -1.317921 0.05208674 1.158002 -0.1591889 -0.75154495 0.38932136 -0.77153736 -0.89508814 0.26887387 1.3917437 -2.0388436 0.43787187 0.7966707 -1.1390501 -0.2672973 0.3992459 -1.2287561 1.3901093 1.5586513 -0.81757563 -1.1368154 -1.5731932 1.2485964 -1.8588406 -0.048908737 -0.9394897 0.059749823 1.1708888 0.95342934
first -0.69263303 0.866032 0.6343876 1.5891826 -0.4059951 0.55213314 -0.4143302 -0.2507092 0.24026455 0.22603974 0.4656811 -0.30904067 -0.19984226 0.83993256 -1.5087335 0.23521788 0.3932552 0.19052279 0.60527986 -0.25870687 0.74942005 -0.7021113 -0.58998966 0.07870612 0.15465546 -0.17240883 0.7544214 -0.69499683 -1.8593227 -0.3159618 0.79252595 -0.81379867 0.99575853 0.056049705 -0.9033803 0.08131591 0.4730324 -1.6137904 0.84059083 0.5463786 0.40388626 -0.32933712 -0.96773165 0.18817855 -1.4740803 0.5616134 -1.1981723 -0.30126846 -0.011236037 0.3527324
$ -0.04036629 1.2298461 0.7547867 1.4753175 -0.34064022 0.11103294 -0.55722106 0.5633693 -0.5738651 1.1856716 -0.43240914 -1.3123425 -1.3018731 0.1321062 -1.5737947 -0.9775203 -0.057826683 -0.58964044 1.0059426 1.2956978 0.93059874 0.51502645 -0.31900612 -1.5339991 0.20844197 0.03948551 -0.37020233 0.123698 -0.6816196 -0.57032377 -0.30620292 -0.43220553 0.3928475 -0.12730242 0.33547232 -0.7008407 0.08923116 0.6247996 -1.0260437 0.9813715 -0.63791126 0.27935538 -1.4184417 -0.5855844 -1.5938046 0.8622172 0.22205405 0.49191114 0.25555536 -0.19464044
been 0.04132662 2.517495 -0.55724025 1.7567426 1.3184747 0.82094413 -0.4714196 1.2386496 -0.5814018 0.8536338 -0.24141696 1.200732 0.7173223 1.0245429 -2.110726 -0.621763 0.71422136 1.7148077 1.1524048 -0.9512651 -0.08777307 -1.4840492 0.22116694 1.2356527 -0.34247223 -1.0293926 0.5788594 -0.7360953 -0.30745196 0.50503105 1.4596243 -2.3926153 0.24130285 0.8219134 -1.0793917 -0.61705846 0.44431385 -1.2766199 1.8468633 1.685966 -0.8407663 -1.2119613 -1.4476298 1.1193144 -1.8754172 0.007037912 -0.9310729 0.19820024 1.4179487 0.79168236
are -0.2838958 2.108136 -0.61752135 1.5425494 0.9499281 0.7117937 -0.546177 0.7041227 -0.44239035 0.81809103 -0.27928996 0.9815556 0.23622268 0.7284503 -1.730892 -0.5288896 0.5724808 1.057222 0.8883759 -0.3593809 0.029196924 -1.125049 0.103504434 1.0319741 0.032449566 -0.4493124 0.1482322 -0.62658304 -0.7553406 0.13233192 0.85359854 -1.7976807 0.34949037 0.74865746 -1.0376034 -0.15594076 0.2947091 -0.8469512 1.2305286 1.4528017 -0.64444673 -1.0480908 -1.2278267 1.0024179 -1.3865905 -0.037723325 -0.7593537 0.17781314 1.0572367 0.88122284
would -0.19650821 2.8735693 -0.8383564 1.8999051 1.2187973 0.86120594 -0.92816085 0.7501808 -0.44792488 1.0513293 -0.5643155 1.3272762 0.4803838 1.0553855 -2.2252636 -0.6651132 0.53669256 1.6898843 1.0048059 -0.59544665 -0.022973824 -1.3768207 0.088961855 1.5234491 -0.17941955 -0.80042404 0.1615294 -0.7761284 -0.70157045 0.098364055 1.2287499 -2.1971977 0.45184422 0.94776934 -1.1911751 -0.30720645 0.29764885 -1.3422372 1.6261443 1.804436 -1.0860107 -1.3577456 -1.6216592 1.3976729 -1.9206414 -0.11498073 -0.6963547 0.24293259 1.3028818 1.3329703
U.S. -1.293358 -0.032043632 -0.24025734 1.1355885 -0.66229 0.036685366 0.7342474 -0.34785992 -0.7509546 -0.47707328 0.080967024 -1.0079857 -0.7999595 -0.7330195 -0.44035363 0.4161136 0.4648285 -0.77921844 0.7788455 -0.8698252 0.5430745 -1.1323969 -0.32606867 -0.94649714 0.2916306 1.2014257 0.64327186 -0.5049442 -2.7945592 0.03471791 0.018237352 -1.2688702 0.108064435 -0.45676237 -1.5565075 -0.06122001 -0.17739633 0.1517305 0.8803951 0.10101962 1.0623474 0.25061116 -0.2679687 -0.36605158 0.17440118 -0.048004072 -1.043173 -1.5558374 0.82195413 1.0057807
7 -1.4029642 1.0646412 0.35384333 -0.1696997 -0.41285777 0.87132514 0.6955864 -0.6296448 -2.0361984 0.7004134 -1.4419924 -2.5813825 -2.1915872 -3.1928737 -1.5311704 -0.6812544 -0.7270785 -2.132848 2.787786 1.9513646 1.3087603 -0.6643683 -0.4175749 -2.5856287 0.67443895 1.8746405 -0.6780141 -0.759774 -2.0558844 -0.8970439 -1.869048 -2.7205513 -0.58521205 1.00304 -1.5477254 -1.0537965 0.50905573 1.77005 0.757168 2.5470288 -0.035898402 0.4066417 -0.07253581 -1.7437588 -0.93730927 0.58753 0.33757788 -1.0339565 2.2604394 2.0609071
their -0.4235478 1.6635466 -0.044469412 1.4280741 0.47284997 0.6354878 -0.43198162 0.41572487 -0.28976226 0.5444118 -0.09399899 0.31065452 -0.0363827 0.56356037 -1.6116982 -0.27620265 0.53037876 0.71603215 0.89661175 -0.2397687 0.2797635 -0.94241893 -0.037370306 0.456341 -0.028118625 -0.44908896 0.35552105 -0.7318893 -1.033232 0.03542811 0.67095906 -1.4908448 0.4122719 0.5622396 -0.8627771 -0.2841228 0.3964511 -0.9352644 1.1095108 1.2572393 -0.25386265 -0.63796026 -1.0579618 0.5469446 -1.502743 0.23590484 -0.92850596 -0.04139636 0.777403 0.613015
two -0.34941125 1.5840561 0.11285992 1.3652581 0.3964532 0.72826284 -0.3571096 0.3893893 -0.27281448 0.5433529 -0.054394152 0.22629015 -0.026590342 0.4997803 -1.6382505 -0.27549314 0.4404662 0.6063389 0.9022736 0.04101654 0.33792552 -0.79343295 -0.07764753 0.31271398 0.0400193 -0.43554658 0.32309055 -0.5983745 -0.96156293 -0.0033260803 0.74102324 -1.3638207 0.43653268 0.49864146 -0.80384886 -0.21242641 0.46823147 -0.96956533 0.85559386 1.3001363 -0.36098763 -0.5731682 -1.1034145 0.43897143 -1.6277181 0.28839815 -0.82091296 -0.04373497 0.6782634 0.5284391
-- -0.48190802 0.9551564 -0.23550782 0.8019414 0.26788935 0.23085329 0.12907742 0.40655798 -0.7490624 0.661203 -0.40503272 -0.3176828 -0.6205173 -0.4113231 -1.0255816 -0.44611377 0.15121655 -0.2920308 0.87787884 0.2609323 0.29896787 -0.5278289 -0.052799772 -0.33062 0.32525972 0.4516148 -0.24526586 -0.21385883 -0.7662235 -0.21225193 -0.3275037 -1.2934253 0.0120091615 0.39956346 -0.7080327 -0.25763145 0.2129008 0.31837717 0.62922347 1.0609298 -0.1785575 -0.21137756 -0.33378863 -0.22345865 -0.52513623 0.12128085 -0.25428766 -0.14652996 0.8341829 0.6299
which -0.28740305 1.8093984 -0.27300683 1.7269593 0.7308832 0.73578495 -0.3710932 0.6523121 -0.3428452 0.541267 -0.068006575 0.61230266 0.17443945 0.83927697 -1.7735327 -0.3246835 0.69021213 1.0669255 0.8814098 -0.43178272 0.17058301 -1.0815994 -0.021973468 0.7147552 -0.11846822 -0.51340795 0.4692086 -0.67910343 -0.895322 0.2119325 1.0741234 -1.5933895 0.40349445 0.5107265 -0.95019776 -0.24874514 0.37154582 -1.014744 1.116402 1.1293328 -0.42655042 -0.73607004 -1.23419 0.8710128 -1.5683647 0.17536362 -1.0248348 -0.11225642 0.8556588 0.52807534
I -0.4520085 2.5690155 -1.1968989 2.1788247 1.5691987 0.69164926 -0.5426882 1.1488346 -0.6528399 0.93479294 -0.33227414 1.7331686 0.68566406 1.1872442 -1.919123 -0.4593815 1.0462308 1.7047633 0.8275624 -1.3807176 -0.18309347 -1.8464123 0.18748203 1.8275152 0.047634963 -0.6107616 0.34304377 -0.83381504 -1.067923 0.38288957 1.1518292 -2.3595147 0.39680392 0.6949114 -1.5454097 -0.14398262 0.25270224 -1.043795 2.0608168 1.4294795 -0.6618781 -1.5555336 -1.2098293 1.5316366 -1.0270427 -0.37254193 -1.0679177 0.17484502 1.2567121 1.156143
its -0.32688567 1.8009082 -0.13788007 1.687394 0.5743469 0.68377453 -0.5178845 0.53656703 -0.2858209 0.7241907 -0.16230708 0.489474 0.005041227 0.7323284 -1.7529904 -0.39347357 0.5562456 0.9029326 0.84389883 -0.25883433 0.3390967 -0.9388439 -0.080856025 0.6171842 -0.020782206 -0.49203703 0.26414293 -0.7184864 -0.84963346 0.03627119 0.6815274 -1.5537031 0.5016219 0.5072016 -0.88027316 -0.32465643 0.40604255 -0.9716891 1.0790576 1.2650503 -0.43683034 -0.7178458 -1.2210678 0.6561835 -1.5706109 0.19859219 -0.84264356 0.06382222 0.84841365 0.6432934
they -0.25448355 2.3555107 -0.5849594 2.0004213 1.0629379 0.78781366 -0.6222543 0.88689005 -0.40153626 0.8848885 -0.23906104 1.2595304 0.53827924 1.1911827 -1.9398576 -0.41228586 0.85139465 1.583424 0.8562757 -0.8581289 0.07248682 -1.4250431 0.0962514 1.4380828 -0.10833796 -0.77693814 0.3460516 -0.8123972 -0.8329625 0.2473265 1.1401225 -1.9787745 0.47522545 0.7178984 -1.1621232 -0.21399859 0.46696776 -1.3987371 1.6723652 1.4823614 -0.6705362 -1.2387235 -1.355539 1.149533 -1.6268226 -0.06674137 -1.0567282 0.16955464 1.0516324 0.94760835
percent -0.050697066 1.3113403 0.22407387 0.953351 0.38207236 0.46701708 -0.2539629 0.5122006 -0.37582603 0.7534378 -0.25896725 -0.1614254 -0.43276024 0.12185527 -1.433724 -0.55189455 0.118012264 0.21222864 0.88462216 0.7554914 0.2704901 -0.17708226 -0.05342328 -0.24932496 0.07917551 -0.26015273 -0.14263137 -0.2969201 -0.25920942 -0.108820505 0.23529004 -0.96812415 0.2155256 0.48796195 -0.20572269 -0.38658875 0.3480752 -0.12063213 0.099608175 1.1823189 -0.6383251 -0.21808988 -0.94783247 0.116799735 -1.4037089 0.3750051 -0.19632483 0.29997265 0.6235417 0.13920496
up -0.15666424 1.5349369 -0.053294953 1.0442762 0.44740888 0.50836897 -0.35939083 0.5099451 -0.4421877 0.6910667 -0.2864146 0.031808075 -0.2512039 0.17357509 -1.4097031 -0.5813979 0.19590892 0.30835682 0.88080335 0.31208324 0.23177014 -0.4622209 -0.07437946 0.055166814 0.088471256 -0.2529818 -0.037340384 -0.342161 -0.56350875 -0.07105447 0.37942 -1.2866557 0.2622162 0.514231 -0.5435685 -0.3447591 0.2940913 -0.2640558 0.50546044 1.242934 -0.52324593 -0.3990532 -0.9686795 0.3082543 -1.3094794 0.15450294 -0.33471507 0.14213963 0.7802953 0.43671653
beat -2.439392 -0.5577581 -0.3107984 1.3142986 -1.4061188 -0.029599309 1.5975633 -1.0058976 -1.5826709 -1.0643975 -0.08054265 -2.383102 -1.7532538 -2.1756358 -0.26660952 0.7616744 0.50118685 -2.056794 1.5581083 -1.2600523 1.0881478 -1.8731189 -0.55644995 -2.2478597 0.5734161 2.6669917 0.95948154 -0.7236035 -5.0207376 -0.16232452 -0.5896162 -2.1786098 -0.20348503 -0.74373174 -2.712996 -0.22876938 -0.36703214 0.9761925 1.449374 0.16294132 2.1512704 0.7032449 0.0343241 -1.1762148 0.7765597 -0.06254527 -1.581487 -2.956143 1.5174446 2.0427449
Thursday -0.70809084 0.93457353 0.34201816 1.7413229 -0.19374122 0.48152542 -0.40653846 0.0666711 -0.06957986 0.95833343 -0.14271422 0.16082853 -0.013322909 0.9168776 -1.2403827 0.09567832 0.59736705 0.62525004 0.59555966 -0.5855899 0.89647734 -0.7877858 -0.32696307 0.72856355 0.12250232 -0.25394017 0.17214356 -0.97057205 -0.9892082 -0.49989662 -0.48405674 -1.0316385 0.92648757 0.13223296 -0.8406257 -0.39591074 0.5542325 -1.47782 1.5320382 1.1601301 0.19088061 -0.9265237 -0.47867015 0.021353621 -1.1329141 0.7294849 -1.0216519 0.20615281 0.13623825 1.0530641
out -0.268286 0.96338487 -0.34055284 0.38634706 0.41835636 0.54029614 -0.13403521 0.07126364 -0.53875077 0.19197074 -0.38326067 0.13752834 -0.062280532 -0.36459324 -0.74371994 -0.25309113 0.121849984 0.36667478 0.773981 -0.050684743 0.07096897 -0.62535334 0.09406703 0.08946412 -0.106436014 0.055630118 0.042822972 -0.32111925 -0.5301122 0.12447529 0.36194906 -1.138507 -0.22737925 0.4938395 -0.6045898 -0.25101563 0.047547784 0.018589532 0.62435067 0.7813701 -0.38708848 -0.30198783 -0.44849783 0.26866663 -0.58406985 -0.07313365 -0.15219358 -0.2476688 0.9119357 0.82016754
Friday -0.8254301 0.5114474 0.4150396 1.4569764 -0.36954954 0.3843301 -0.2374574 -0.16531006 -0.06443758 0.729121 -0.13232648 -0.06997434 -0.11404168 0.63703537 -0.9277927 0.23951715 0.5310614 0.3638151 0.5312193 -0.5406526 0.9073743 -0.7292386 -0.33122823 0.46753594 0.12386396 -0.028352441 0.23067288 -0.92111605 -1.0151188 -0.54070336 -0.6571444 -0.7575582 0.7610621 0.052246414 -0.7544204 -0.3435644 0.47043973 -1.2573552 1.39649 0.86750686 0.4399787 -0.74142843 -0.18874966 -0.20004685 -0.8123897 0.7427727 -0.994566 0.023657525 -0.015156142 1.0205576
year -0.2585579 1.785563 0.04711298 1.7278969 0.48186937 0.6835505 -0.4180708 0.71715033 -0.26976937 0.8580478 0.049966116 0.44949588 0.004822805 0.90743595 -1.9158452 -0.378484 0.558185 0.7794512 0.7874805 0.060971607 0.24754024 -0.76454633 -0.077554 0.462669 0.046564754 -0.55240786 0.31414598 -0.5378295 -0.9068134 0.080517225 0.9019705 -1.2490577 0.7108407 0.46001893 -0.71370715 -0.20354784 0.47143567 -0.9984394 0.60257906 1.2864844 -0.46651098 -0.65945846 -1.5271945 0.68155444 -1.861297 0.33275324 -0.87078637 0.20037718 0.63120425 0.34346297
million -0.04914724 1.3682698 0.53811103 1.2831621 -0.04977007 0.32632133 -0.5044205 0.53509736 -0.5844021 1.0311147 -0.4205426 -1.0120066 -1.046577 0.036373425 -1.5955911 -0.87525296 -0.08586743 -0.34432834 1.0653938 1.1536328 0.6905752 0.2030576 -0.22962321 -1.1954367 0.109860346 -0.022388618 -0.2533119 -0.028124206 -0.6744815 -0.3757216 -0.036560502 -0.6944999 0.34769353 0.05813559 0.07926747 -0.6113146 0.10947762 0.4558469 -0.72412354 1.0752496 -0.7163094 0.07605585 -1.419631 -0.29110616 -1.5359025 0.596187 0.13792409 0.3526936 0.4758547 -0.0041505047
this -0.20430769 2.1808867 -0.38900304 1.9181101 0.9290733 0.7464446 -0.5740452 0.72883826 -0.26687878 0.81012076 -0.19209573 0.8942652 0.22552598 1.059982 -2.0860074 -0.4095597 0.71818316 1.1507655 0.9500867 -0.39175847 0.19521609 -1.1471655 -0.0045136907 0.96967393 -0.024261737 -0.6354623 0.42124364 -0.7735188 -0.87586576 0.17857984 1.1332932 -1.7586417 0.617366 0.67254806 -0.99954695 -0.18292722 0.45577824 -1.22633 1.2723126 1.3740659 -0.6616741 -0.94547397 -1.4487224 1.0459733 -1.7763621 0.024343649 -0.9915034 0.2272086 0.9408351 0.5436637
one -0.4003721 1.2125156 -0.11448872 1.3373874 0.36639863 0.49895906 -0.20413229 0.39723098 -0.2634595 0.39920995 -0.03164355 0.29804513 -0.0729304 0.51536673 -1.3331095 -0.15983169 0.5484998 0.5611415 0.6752515 -0.2262924 0.2413558 -0.796735 -0.099275075 0.32658657 0.039647106 -0.20929372 0.29800147 -0.510918 -0.99473584 0.08409715 0.6065553 -1.1241473 0.38803124 0.30096236 -0.735701 -0.12543626 0.26799956 -0.6817097 0.78739524 0.8477687 -0.18631023 -0.45442578 -0.86175567 0.45833832 -1.1090101 0.19043306 -0.77631396 -0.13388614 0.59810686 0.4066624
last -0.25656238 1.4447795 0.019902725 1.5906261 0.38237756 0.56313944 -0.32996362 0.39187035 -0.11702968 0.5920599 0.008593957 0.28860113 0.049386147 0.7976475 -1.672157 -0.15291986 0.4992956 0.6007182 0.7532853 -0.09676813 0.33746287 -0.76466006 -0.15748745 0.4322108 0.070539616 -0.4026638 0.47078043 -0.5740792 -0.9553639 -0.010565063 0.85477245 -1.1974676 0.66664606 0.39055473 -0.790613 -0.04764093 0.48027542 -1.1494826 0.84332055 0.9809025 -0.3002992 -0.58475524 -1.105327 0.55963373 -1.5686803 0.20597059 -0.8959311 0.09066341 0.49436662 0.30413452
over -0.44107756 1.2429905 0.09005185 1.1617516 0.11408777 0.6297357 -0.24586396 0.12272269 -0.28062126 0.38198468 -0.06557142 -0.10763773 -0.17042468 0.23060626 -1.3634853 -0.13390537 0.28456998 0.29422185 0.8068977 0.057281286 0.3917128 -0.6970598 -0.20380533 0.058477424 0.0907982 -0.1239304 0.33045894 -0.5217971 -1.2343636 -0.09268984 0.6273237 -1.1967509 0.45162016 0.32954004 -0.8899269 -0.16357282 0.338485 -0.72601557 0.67168015 1.0534114 -0.14484231 -0.394422 -1.0077647 0.31792724 -1.3349274 0.16587105 -0.6938473 -0.23289232 0.66092414 0.6109598
government -0.3413624 1.7651075 -0.3345103 1.7056707 0.61953956 0.68922323 -0.46905386 0.56398696 -0.28141168 0.75455606 -0.07122476 0.73666286 0.22538686 0.89530694 -1.6868207 -0.2796031 0.6418908 0.9591199 0.74781084 -0.49977222 0.24696039 -1.0278121 -0.10414087 0.9455695 0.054170698 -0.48470655 0.30592492 -0.68678164 -0.9655379 0.08898584 0.823936 -1.5837419 0.6383955 0.48610303 -1.0734698 -0.15567261 0.42645156 -1.1551661 1.2140923 1.2095821 -0.38975155 -0.87758774 -1.1618896 0.82379204 -1.4010165 0.054072138 -0.89040023 0.044167425 0.8218135 0.7110895
10 -0.57121766 0.7547848 0.34000814 -0.15126143 -0.14260684 0.55514437 0.24804677 -0.26693374 -1.0730157 0.54578453 -0.826639 -1.4065055 -1.1905829 -1.6734198 -0.97453904 -0.5359634 -0.4807288 -1.1109605 1.5906115 1.4070814 0.6821071 -0.15558729 -0.21108565 -1.4543446 0.3411628 0.81627274 -0.46058047 -0.34661663 -0.7795099 -0.53305036 -0.9735983 -1.4406524 -0.2959334 0.6662996 -0.62882835 -0.6505464 0.36015108 0.9620731 0.2067589 1.5490608 -0.25082198 0.20744619 -0.18131946 -0.92857194 -0.79797477 0.43189737 0.3171038 -0.34819946 1.2171117 0.9661634
/ -1.3480321 0.08685417 0.09369003 0.7039965 -0.9163556 -0.16977051 0.7656869 -0.3971713 -1.3471043 0.13349874 -0.35255468 -2.1829033 -1.715165 -1.6999222 -0.62992644 -0.29791257 -0.063214816 -2.242318 1.3381401 0.008781006 0.9647878 -0.6905736 -0.60931814 -2.000743 0.8172754 1.723371 -0.022262385 -0.06211233 -2.8866544 -0.49804667 -1.1192167 -1.7554106 0.06965287 0.0017093569 -1.5155998 -0.20720886 0.07499571 1.0515878 0.7862257 0.809979 1.1482773 0.49929282 0.23278391 -1.3275306 0.22584029 0.30732915 -0.35244033 -1.3132071 1.0812781 1.2151024
against -0.89140296 0.6590394 -0.016019637 1.5627472 -0.04881669 0.3981908 0.1651793 -0.049474783 -0.34155294 0.11702787 0.16971754 -0.17012107 -0.22956888 0.22521839 -1.0804769 0.17192966 0.72193164 0.06509021 0.75356483 -0.66670823 0.39447504 -1.0479041 -0.22259417 -0.0032408775 0.100099124 0.30944413 0.6888727 -0.5125562 -1.7491721 -0.037990198 0.41956043 -1.1506518 0.25926203 0.092347585 -1.2186595 0.07581012 0.31019512 -0.6931037 1.1043199 0.396237 0.65676683 -0.36026847 -0.39546916 0.24148946 -0.6764595 0.43809116 -1.3780307 -0.83611697 0.3284911 0.6671314
9 -1.2162048 0.74339664 0.34643772 -0.2468635 -0.45309967 0.66621464 0.6525624 -0.58842856 -1.7471542 0.53183323 -1.2227956 -2.3426156 -1.9356519 -2.8269029 -1.1838766 -0.5460212 -0.67077476 -1.9861603 2.3600311 1.6831163 1.1089532 -0.5020461 -0.37146786 -2.3683443 0.6011093 1.7048715 -0.5792842 -0.5809199 -1.7925193 -0.7623493 -1.6610267 -2.2428467 -0.522155 0.77239096 -1.2865351 -0.89451975 0.39084846 1.6288728 0.5601771 2.0719767 0.04717932 0.43732342 0.026177555 -1.5743214 -0.65611607 0.50663126 0.32383087 -0.9458483 1.873168 1.7186487
8 -1.2765112 0.9765586 0.2764533 -0.06547055 -0.37807116 0.7222677 0.63974893 -0.5069016 -1.8149656 0.6323821 -1.2450489 -2.2954793 -1.9534726 -2.7752974 -1.3954612 -0.6200957 -0.6078286 -1.9395374 2.4981136 1.6098973 1.1396029 -0.6252078 -0.3929573 -2.3058417 0.6394789 1.6880289 -0.56301075 -0.6410175 -1.9429079 -0.7836095 -1.6085633 -2.4829354 -0.48528337 0.8501212 -1.4316334 -0.92363375 0.43535623 1.5494707 0.736032 2.2407694 0.03859245 0.33329707 -0.08391609 -1.5279396 -0.80598426 0.51779723 0.22586718 -0.94006765 2.0041416 1.8293842
Wednesday -0.6870303 0.50088274 0.41521603 1.1212107 -0.3393742 0.412115 -0.20147967 -0.18785034 -0.11592338 0.609912 -0.15889916 -0.22920224 -0.2069233 0.35138604 -0.8573138 0.15671256 0.3399315 0.18148391 0.5983285 -0.267662 0.83378196 -0.57010084 -0.29209864 0.19655092 0.094291806 0.018273752 0.16235544 -0.80907375 -0.91325504 -0.4917583 -0.5859134 -0.749642 0.6211846 0.11180407 -0.67029697 -0.35224277 0.41288936 -0.96519816 1.1357121 0.85930926 0.32384825 -0.5554325 -0.20806982 -0.2475767 -0.7842833 0.66288465 -0.7729004 -0.019308032 0.09075053 0.8997987
A -0.6025018 0.9799019 -0.21755672 1.1399586 0.16106647 0.2791141 -0.047499053 0.29953295 -0.48628289 0.60330635 -0.21717064 -0.04988293 -0.2764117 0.04885386 -1.1501112 -0.2054092 0.3708248 -0.026100919 0.7930615 -0.26980448 0.37400642 -0.7666621 -0.17809115 0.1467259 0.282171 0.23699148 0.08192308 -0.45456603 -1.1750628 -0.15243395 -0.017734572 -1.3329359 0.37389293 0.30994684 -0.99825394 -0.14296609 0.29594123 -0.42406484 1.0554518 0.9939743 0.07883068 -0.5003355 -0.4001065 0.07178844 -0.62573016 0.15807943 -0.6033847 -0.19090223 0.65394944 0.75704104
also -0.29455927 1.7833453 -0.37069282 1.495008 0.6957382 0.6594278 -0.45889035 0.5922614 -0.38193688 0.7047773 -0.23576055 0.64861983 0.1438168 0.67723274 -1.5952775 -0.39520687 0.5365695 0.9053381 0.8128137 -0.36074314 0.17201102 -0.98876214 -0.005551657 0.75268465 0.012131522 -0.4168304 0.19051968 -0.6319911 -0.7796766 0.08690811 0.6890871 -1.5632468 0.40573752 0.55059385 -0.8880054 -0.24511418 0.35937098 -0.85918367 1.104806 1.2434785 -0.4860019 -0.81709146 -1.0644407 0.711024 -1.3384193 0.033081565 -0.727652 0.07487686 0.8894323 0.71277845
police -0.42105108 1.5132529 -0.36266994 1.5805802 0.5499238 0.52423483 -0.30388096 0.5409285 -0.35272726 0.73266375 -0.15568672 0.70296115 0.1756319 0.65933734 -1.42191 -0.21120706 0.65509677 0.79353416 0.7267771 -0.5455844 0.20912269 -0.99678916 -0.049617387 0.8504273 0.08002914 -0.24773492 0.19899662 -0.58269244 -0.8664414 0.0041625435 0.46764925 -1.4890149 0.43638209 0.4182194 -1.0219988 -0.14280973 0.3951748 -0.98053116 1.2668852 1.142048 -0.27218437 -0.8278435 -0.82352513 0.59926546 -1.0959892 0.11599316 -0.8782353 -0.028883629 0.7427494 0.7735748
second -0.6985972 0.7622807 0.24077345 1.3478928 -0.20092618 0.5095188 -0.110953614 -0.08203165 -0.09748914 0.107951805 0.2395531 -0.21393636 -0.20838636 0.40054896 -1.2460492 0.2191551 0.44777465 0.18543679 0.68788093 -0.29745126 0.50875217 -0.79891133 -0.34586143 -0.020248933 0.08519723 0.03895902 0.5843559 -0.61126554 -1.6714033 -0.08291844 0.672978 -0.96007 0.64005125 0.04010439 -0.95762134 -0.02685578 0.3084551 -1.0077051 0.77473533 0.58934283 0.27963075 -0.28004742 -0.8373334 0.2418425 -1.0856541 0.31408113 -1.0004586 -0.4781654 0.33104813 0.4723954
when -0.2950879 1.8818859 -0.26404113 1.6266478 0.6188888 0.8304585 -0.6206994 0.41688082 -0.2683716 0.681544 -0.20133583 0.6090606 0.25848192 0.78632087 -1.6840155 -0.36156547 0.5166513 1.0005494 0.7949815 -0.33674183 0.24822006 -0.98894095 -0.1297975 0.81459975 -0.036472745 -0.5282328 0.28698096 -0.6538304 -0.9467801 0.038790848 0.8993119 -1.5643871 0.5192099 0.5641878 -1.0253506 -0.16711634 0.36901042 -1.1383337 1.1178237 1.3128524 -0.50903 -0.89767945 -1.2742716 0.85745585 -1.5993766 0.03247781 -0.7983858 0.06009645 0.8623225 0.851539
He -0.45940736 1.5156057 -0.46632072 1.6997197 0.69865066 0.4636676 -0.3231888 0.7168768 -0.36199856 0.8900422 -0.15971613 0.93036526 0.34268618 0.88293934 -1.5082893 -0.15959267 0.755069 0.9700157 0.65773875 -0.713812 0.14717291 -1.083865 -0.014438475 1.1244339 0.16342661 -0.29011562 0.17111664 -0.631537 -0.8196382 0.006935748 0.47370377 -1.478251 0.56452566 0.35729197 -1.0350499 -0.12845436 0.40857428 -1.0712339 1.4408969 1.1156374 -0.3061461 -1.0340542 -0.73952675 0.6922801 -0.9561239 0.060059797 -0.8899173 0.17475367 0.60857266 0.7451205
It -0.42377114 1.6049428 -0.48325422 1.7233763 0.7356661 0.49723616 -0.3431382 0.7392961 -0.365597 0.79687226 -0.1368471 0.8670024 0.27210185 0.914723 -1.558184 -0.21975517 0.73856914 1.0082742 0.6476977 -0.67045873 0.12250129 -1.0730168 -0.009764857 1.0254992 0.10395695 -0.32273456 0.2165307 -0.5694284 -0.9542096 0.088501856 0.71997315 -1.4521042 0.5536488 0.33183816 -1.0107535 -0.12939738 0.31131583 -0.9619796 1.2592329 1.0438342 -0.37044984 -0.97398937 -0.9536398 0.8005877 -1.0251158 -0.006765222 -0.8407895 0.13646677 0.68487555 0.67598885
told -0.5952844 1.7574476 -0.7153039 2.0573914 0.81645554 0.6839975 -0.29284272 0.728112 -0.40960738 0.8118164 -0.14769384 1.0457683 0.4440724 1.0280186 -1.7077175 -0.18066053 0.92371565 1.1177609 0.7660914 -0.9227075 0.10058755 -1.3980354 -0.103312135 1.2861046 0.09982306 -0.2710823 0.3555573 -0.68214196 -1.1058271 0.097818956 0.68370104 -1.7968574 0.64539766 0.4605979 -1.3737345 0.009911096 0.37401637 -1.2156277 1.6480875 1.1557567 -0.2129233 -1.1826562 -0.9008482 0.9870367 -1.1724983 0.037996016 -1.1531199 -0.033773117 0.8407752 0.9489064
three -0.462176 1.154925 0.055353604 1.0965621 0.19557911 0.5545162 -0.14669661 0.18928397 -0.34681943 0.3436621 -0.08454589 -0.05968653 -0.16801804 0.14173047 -1.2510355 -0.17097178 0.35936552 0.28651783 0.85207146 -0.014670331 0.32315508 -0.74647003 -0.10747228 0.03440746 0.053661045 -0.11254098 0.30549276 -0.49682698 -1.0719295 -0.040492922 0.46601814 -1.2100272 0.2862351 0.36581567 -0.7974049 -0.18626453 0.32271615 -0.60829514 0.78959984 1.0167304 -0.10514483 -0.3936816 -0.7598918 0.22681747 -1.1449387 0.24854816 -0.7181543 -0.23816887 0.6350316 0.5653005
15 -0.6893513 0.6989338 0.28489378 -0.20631365 -0.16596574 0.5328821 0.36501804 -0.33512828 -1.1670332 0.47256777 -0.86224246 -1.4856559 -1.2739006 -1.8751109 -0.9237452 -0.49848884 -0.49339974 -1.2345847 1.665101 1.3169848 0.7172017 -0.2729245 -0.22378023 -1.513633 0.38488784 0.988969 -0.45897326 -0.38981146 -0.9308388 -0.53034526 -1.1074382 -1.5431663 -0.3703113 0.66849196 -0.7528732 -0.6677035 0.32850254 1.07863 0.32193068 1.5482378 -0.14120218 0.2550149 -0.057491273 -1.0225978 -0.6520874 0.40241402 0.3002318 -0.47270763 1.2809814 1.0857571
about -0.23652595 1.4968162 -0.21237762 1.1690046 0.528839 0.570521 -0.33715495 0.4424141 -0.46890745 0.6419926 -0.32018143 0.26577824 -0.07504032 0.31263193 -1.3568375 -0.43059015 0.32780665 0.5583231 0.84077823 -0.00071431993 0.22691554 -0.6977434 -0.050918587 0.2879704 0.015811158 -0.22424564 0.06547915 -0.44842088 -0.6823558 0.017952146 0.48244599 -1.339579 0.257283 0.46580884 -0.70336 -0.27948967 0.27042958 -0.43887702 0.72472554 1.1437987 -0.49503702 -0.56800514 -0.9582594 0.44620425 -1.1782651 0.07872789 -0.4615883 0.0485726 0.81674683 0.6228414
Tuesday -0.58775115 0.9388192 0.18621492 1.4043124 -0.049156114 0.4808736 -0.33250257 0.069845855 -0.13804159 0.7377335 -0.14949375 0.11854833 -0.06636175 0.6224834 -1.152782 0.012162875 0.45789662 0.4743783 0.61674523 -0.38441566 0.6688786 -0.7177417 -0.24831907 0.5168542 0.09420323 -0.17206274 0.1700689 -0.776883 -0.8889157 -0.36084044 -0.22656578 -1.0021421 0.6827457 0.22188127 -0.77874476 -0.29412752 0.44651052 -1.0886678 1.1971897 1.0060307 0.079634316 -0.73643285 -0.49192816 0.08069362 -0.99670047 0.526588 -0.8135123 0.0809964 0.26630566 0.8745504
new -0.26051435 1.7772241 -0.27575794 1.4081863 0.6434076 0.67228884 -0.49498457 0.5555284 -0.32819968 0.7492537 -0.20283128 0.5548597 0.10102447 0.6341519 -1.610249 -0.4341594 0.4597777 0.8144076 0.8146878 -0.19694202 0.20436113 -0.86992824 -0.04110891 0.6978048 0.015653376 -0.4345749 0.15954031 -0.5761572 -0.7466364 0.03640768 0.7110346 -1.5085499 0.4358241 0.54494554 -0.8672204 -0.2508053 0.36015734 -0.82882166 0.9759867 1.2907776 -0.52028847 -0.755325 -1.143465 0.69572884 -1.4263189 0.08594057 -0.66702104 0.1233786 0.85967815 0.6513192
or -0.32206383 1.6453769 -0.2640437 1.3722211 0.56682974 0.60729164 -0.34995446 0.48650482 -0.45964575 0.66839975 -0.2568822 0.32711726 -0.047694564 0.390308 -1.5178148 -0.44904938 0.43592367 0.5827582 0.87761414 -0.14693831 0.217724 -0.83868647 -0.066934735 0.4081379 0.041844927 -0.24263462 0.15310566 -0.48105216 -0.86769205 0.013840742 0.5908481 -1.5040414 0.29995835 0.51793426 -0.874536 -0.23186272 0.29978183 -0.5781076 0.8874594 1.1792566 -0.43046108 -0.66048867 -0.98403525 0.5350515 -1.2272353 0.12142995 -0.60650235 -0.017980903 0.8483918 0.70728475
no -0.26909912 1.8346612 -0.4885774 1.545386 0.81506586 0.62610066 -0.4324502 0.7046875 -0.43958464 0.7297478 -0.2424164 0.80568385 0.25767672 0.72464406 -1.5737897 -0.42453194 0.60755086 1.0056062 0.7865291 -0.55749106 0.09905382 -1.0826195 0.017223885 0.9092827 -0.015721746 -0.42021927 0.1966964 -0.5954245 -0.72812146 0.15606055 0.76915807 -1.6698349 0.37011164 0.5579723 -0.953313 -0.22247113 0.32270756 -0.8703306 1.2790506 1.2447125 -0.4933524 -0.9222235 -1.0162272 0.80011106 -1.2489285 -0.020459421 -0.780429 0.09991524 0.9203599 0.7817981
people -0.12229756 1.7215081 -0.27505276 1.2169676 0.7152662 0.63414747 -0.41438204 0.5549562 -0.39748964 0.6634688 -0.24638976 0.59603846 0.14339463 0.52035856 -1.4984138 -0.48093393 0.39935574 0.76446503 0.84597415 -0.13192414 0.102312535 -0.8233443 0.03484673 0.57061464 -0.038272366 -0.45360154 0.17110716 -0.47835848 -0.52010494 0.09051463 0.73131585 -1.4543055 0.25579473 0.5881141 -0.7061414 -0.23889658 0.34434575 -0.70293844 0.89523715 1.2453353 -0.6000693 -0.7138575 -1.0196456 0.62273306 -1.3770169 0.03834221 -0.5832121 0.12491523 0.85712296 0.60767186
more -0.15368977 1.8274856 -0.25857785 1.3235993 0.80589503 0.6361303 -0.4402429 0.5648121 -0.4140389 0.7147895 -0.27963495 0.6159788 0.05615355 0.48721144 -1.5616555 -0.54824144 0.4215922 0.8739561 0.8822997 -0.09504354 0.093778126 -0.8543184 0.07824495 0.60249025 -0.044261407 -0.4434207 0.08804254 -0.5585692 -0.5271048 0.108827844 0.69009763 -1.5686991 0.28725472 0.61126536 -0.7354416 -0.28535292 0.35411617 -0.6600579 0.9072737 1.3450872 -0.6465322 -0.77646327 -1.0766 0.7026446 -1.41757 0.08011568 -0.58894587 0.19893242 0.9360171 0.68591815
In -0.7227268 0.960463 -0.1497251 1.1958836 0.17434448 0.42652112 0.021836745 0.25080776 -0.4777376 0.5649184 -0.19704403 -0.050611056 -0.20150158 0.08212198 -1.2061605 -0.067874044 0.41700134 0.064737275 0.8570241 -0.15728989 0.3650376 -0.81659347 -0.1372296 0.11371462 0.24414434 0.2763549 0.13558593 -0.48470584 -1.2338738 -0.1878033 0.07890942 -1.2357033 0.39872575 0.25889885 -1.0126123 -0.12839466 0.33656406 -0.4604598 0.97034144 0.9795534 0.067554034 -0.55781454 -0.46773994 0.109223604 -0.7482742 0.2354601 -0.7279813 -0.2562675 0.5636577 0.7921868
11 -0.80489683 0.7234355 0.19986796 -0.0041869595 -0.2094803 0.49933738 0.37751287 -0.30872142 -1.1864862 0.4679098 -0.844626 -1.4685334 -1.268909 -1.7773465 -0.98582757 -0.47274485 -0.40697008 -1.2383752 1.6752805 1.1271149 0.74207664 -0.38559508 -0.25822043 -1.4877033 0.41867447 1.0297383 -0.39198935 -0.42356125 -1.1950121 -0.52259445 -1.0382577 -1.6754248 -0.28324962 0.6130582 -0.924392 -0.61565506 0.3372147 0.9805253 0.46897036 1.5413232 -0.026071765 0.19918789 -0.09615963 -0.97782856 -0.6259824 0.36920136 0.16935359 -0.55918175 1.3207964 1.1847762
into -0.38433868 1.6444048 -0.21699518 1.3802022 0.47081703 0.7086499 -0.3769237 0.3829956 -0.37214455 0.5650671 -0.16833724 0.34220532 0.012514673 0.44052354 -1.574113 -0.3057551 0.4178939 0.6271177 0.8664594 -0.15221937 0.2570106 -0.9101877 -0.12039072 0.46999156 0.046805378 -0.2730742 0.26187572 -0.57991654 -1.0697296 0.027708905 0.7722932 -1.5224687 0.43877676 0.48647317 -0.982424 -0.18095122 0.32991838 -0.80101 0.9381697 1.2217194 -0.3876374 -0.6677578 -1.129003 0.6159582 -1.3834895 0.04373535 -0.71904695 -0.10110894 0.8689495 0.7236085
New -0.71322477 0.47339952 -0.015332009 0.7364815 -0.21044073 0.19788383 0.24963118 -0.1140377 -0.6186351 0.23220013 -0.30949262 -0.7309489 -0.7359633 -0.6253999 -0.7953648 -0.15901622 0.07869907 -0.5265105 0.86303085 0.033137046 0.53303844 -0.55896056 -0.24645108 -0.6099536 0.35646236 0.6055779 -0.032733362 -0.33105987 -1.2930716 -0.1963826 -0.27198538 -1.09334 0.0953116 0.13811588 -0.86649156 -0.21993452 0.24708582 0.119517855 0.64018315 0.7315114 0.26336437 -0.02327894 -0.2115584 -0.41559705 -0.40452713 0.16170855 -0.37421247 -0.5785109 0.7442302 0.68995684
won -1.058473 0.44641092 -0.12558647 1.6505055 -0.059157565 0.26560703 0.45072603 -0.04130989 -0.42759445 0.063989975 0.35353583 -0.18650037 -0.18647602 0.11844238 -0.87570727 0.2933024 0.77957726 -0.011149668 0.807802 -0.8650962 0.38484007 -1.251621 -0.2932061 -0.11510409 -0.010539174 0.4616764 0.96964824 -0.44440883 -1.9218975 0.032379895 0.4189664 -1.1546186 0.16701496 0.046814453 -1.3684418 0.09519354 0.28969425 -0.69802874 1.3192893 0.2011741 1.009275 -0.4643872 -0.15803961 0.28172708 -0.37651467 0.5064435 -1.7141001 -1.0366634 0.07875605 0.6750413
Monday -0.5446004 1.0521457 0.18455143 1.4190186 0.0034694201 0.5390335 -0.3754645 0.11754659 -0.17784499 0.70569026 -0.1716777 0.12550832 -0.056731354 0.6050636 -1.2173141 -0.041684862 0.45575565 0.5356323 0.6592369 -0.31760496 0.6345908 -0.71774495 -0.21115966 0.4839442 0.055137876 -0.229575 0.191728 -0.7798187 -0.8939045 -0.31733757 -0.07688398 -1.0564481 0.6356981 0.256313 -0.75891244 -0.3304881 0.4248392 -1.0655438 1.1343305 1.0585233 -0.013384704 -0.6969874 -0.635011 0.15878198 -1.130032 0.49474722 -0.8292889 0.074789606 0.35324082 0.8376735
Saturday -0.7742251 0.35369992 0.38954583 0.93437856 -0.41435936 0.34511647 -0.05857141 -0.27785015 -0.18892081 0.39354017 -0.11500085 -0.4852261 -0.32391807 0.08753223 -0.7258703 0.16790254 0.27548033 -0.095926665 0.6518447 -0.21415801 0.7530446 -0.5799192 -0.32458743 -0.08929343 0.14828546 0.20089962 0.2284573 -0.6766378 -1.147311 -0.41904807 -0.48682556 -0.72755945 0.49390832 0.08831304 -0.72073436 -0.26180786 0.36838233 -0.7188828 0.9980259 0.7121056 0.45171443 -0.39534926 -0.10925862 -0.34538174 -0.58557254 0.5801388 -0.72624886 -0.21004523 0.14170043 0.83528817
13 -0.8728173 0.60023576 0.26702747 -0.17901763 -0.34306553 0.49212956 0.4775493 -0.41400117 -1.315109 0.43413258 -0.890613 -1.7629473 -1.456934 -2.097537 -0.9094361 -0.46293515 -0.5201493 -1.5393672 1.7924219 1.2665743 0.8184565 -0.33469164 -0.29966664 -1.7727029 0.46454772 1.2527246 -0.43570074 -0.36740464 -1.3321143 -0.5928363 -1.2171732 -1.7035253 -0.37411025 0.61750215 -0.94965327 -0.6626579 0.32097134 1.203771 0.40261492 1.5580978 0.03677193 0.32835984 -0.012300045 -1.1739466 -0.5602416 0.40581232 0.25835192 -0.68008447 1.4027388 1.245075
Germany -1.4481953 -0.19669014 -0.1420968 0.86110413 -0.7410117 0.0748578 0.9023618 -0.5001994 -0.9776702 -0.4926773 -0.12834166 -1.4142319 -1.0250874 -1.2538252 -0.33776215 0.3903882 0.31925622 -1.1297413 1.0498494 -0.62038124 0.6693573 -1.1226133 -0.3021217 -1.34812 0.33432016 1.4933 0.5410784 -0.4916797 -2.8409388 -0.10743907 -0.37292182 -1.3491843 -0.14419296 -0.35409933 -1.5594997 -0.19331414 -0.14252509 0.528686 0.88309675 0.23049256 1.1641753 0.36303678 -0.002245366 -0.7158591 0.32281598 0.0718632 -0.9136932 -1.6472721 0.9265722 1.1878698
But -0.46359068 1.5354723 -0.44807565 1.5291814 0.64924556 0.55518025 -0.26060483 0.5913951 -0.38411212 0.6888252 -0.15059201 0.704506 0.2429358 0.6686071 -1.4832135 -0.20690648 0.63979256 0.8033939 0.7209383 -0.5282464 0.11884466 -1.0567176 -0.03499683 0.82820314 0.09978983 -0.19324328 0.24209659 -0.5624422 -0.9992174 0.06453887 0.6521858 -1.4955851 0.46131477 0.40905112 -1.0674232 -0.08368236 0.3245582 -0.8734586 1.2274002 1.0967137 -0.30261207 -0.8927525 -0.8588999 0.70940256 -1.0364912 0.011134992 -0.84764147 -0.013650965 0.7387278 0.7732702
21 -0.8436858 0.9686501 0.33953974 -0.18704 -0.18373407 0.6967098 0.3472698 -0.35645682 -1.434873 0.679219 -1.1002948 -1.7875992 -1.5347588 -2.224328 -1.2568004 -0.66537595 -0.6238888 -1.487999 2.0670013 1.633679 0.91950476 -0.32807806 -0.28023902 -1.7925229 0.4897352 1.1741322 -0.6136528 -0.5148318 -1.1261556 -0.6904808 -1.3483998 -1.9989712 -0.41274068 0.85959303 -0.9665051 -0.81222886 0.45117736 1.2626171 0.45996487 2.0061255 -0.2466018 0.23893914 -0.13051759 -1.2188295 -0.8915891 0.46485838 0.39472914 -0.49563876 1.652446 1.403652
' -0.5537163 0.9939095 -0.23577757 1.1011115 0.2170675 0.35555795 -0.032322675 0.22165625 -0.47597653 0.4095245 -0.1896999 0.002463183 -0.2339976 0.06549988 -1.0781283 -0.1457694 0.3893801 0.14671242 0.7486478 -0.3096014 0.3048166 -0.829133 -0.12832369 0.14935236 0.17918758 0.18071358 0.17372422 -0.45381558 -1.1447494 -0.059548277 0.1470347 -1.3028874 0.29239896 0.28150067 -0.928006 -0.15671611 0.24385509 -0.39876738 0.96979743 0.8652918 0.035794415 -0.44054577 -0.5118554 0.176071 -0.68388057 0.12721016 -0.62760997 -0.30214402 0.693147 0.7362796
week -0.35963255 1.5699905 -0.03825845 1.463517 0.3715183 0.63896036 -0.34745687 0.45915514 -0.28486288 0.7178351 -0.054200854 0.37826496 0.04771392 0.653127 -1.6007413 -0.24593319 0.4711962 0.66803 0.74280626 -0.11532936 0.28865543 -0.81638527 -0.10484592 0.5020955 0.059445627 -0.37975177 0.2931877 -0.57692236 -0.9341373 0.014349973 0.6568969 -1.2912706 0.5847484 0.45212066 -0.8508059 -0.17630078 0.42571858 -0.9589183 0.8504584 1.1963352 -0.3149295 -0.65580964 -1.1739957 0.5463394 -1.5206927 0.22941217 -0.7937887 0.043239027 0.6546699 0.612636
under -0.8643389 0.8060844 -0.14417437 1.4044007 0.02475038 0.4088133 0.1431418 -0.07033783 -0.49764094 0.21408126 0.06997196 -0.1782749 -0.26313043 0.01895877 -0.9839199 0.05919312 0.5546933 0.097139716 0.8564775 -0.53830713 0.44943804 -1.112101 -0.2977462 -0.061228786 0.021836575 0.31002793 0.71609735 -0.5255831 -1.6496485 -0.013084217 0.32778054 -1.2723361 0.20606248 0.21434775 -1.2184585 -0.018443914 0.27703577 -0.6227494 1.1808305 0.5691044 0.5475985 -0.49791378 -0.36260864 0.24762426 -0.5714925 0.33583686 -1.2775627 -0.74811614 0.37015718 0.8103107
we -0.22342001 2.0584857 -0.6219544 1.4636813 1.0220208 0.6723792 -0.5220922 0.72828895 -0.4809787 0.71632814 -0.30354413 0.9564022 0.29630065 0.7063897 -1.6086122 -0.49544862 0.57232624 1.1790559 0.82473445 -0.55364275 0.0006843114 -1.1972275 0.111064866 1.0439403 -0.063825205 -0.52049303 0.1980642 -0.6604546 -0.68271875 0.20195846 0.89055866 -1.7865126 0.24338734 0.69044703 -0.9732258 -0.24794987 0.28462043 -0.77802986 1.3006905 1.3040186 -0.6453922 -0.9574405 -1.1411276 0.9847265 -1.2391436 -0.12258998 -0.7074405 0.11458265 1.0696367 0.8356141
AT -1.2201025 1.0490093 0.15310305 -0.14132132 -0.6334036 0.4654415 0.56878114 -0.46586046 -1.8356862 0.7536047 -1.2305729 -2.6126769 -2.3671927 -2.8404264 -1.4968568 -1.0206704 -0.7488895 -2.76708 2.5678275 1.4871678 1.1587697 -0.40709832 -0.5527625 -2.5857866 0.97608835 1.993136 -0.63038015 -0.47312367 -2.296092 -0.8317983 -1.7902502 -2.893559 -0.17130074 0.8877214 -1.6679083 -0.7544965 0.47707695 1.6745578 0.84317565 2.2314641 0.47054896 0.3758696 0.070096284 -1.7076393 -0.52624863 0.3330796 0.35161904 -1.0042013 2.1672518 1.676132
between -0.42289713 1.0985687 0.0019981079 1.0121592 0.1463926 0.5454698 -0.22093892 0.102561474 -0.31687716 0.37307927 -0.13326903 -0.07809739 -0.20088737 0.1342219 -1.1841353 -0.17113465 0.25189278 0.18829632 0.7975747 -0.02140202 0.36594746 -0.67626554 -0.16670305 0.064726725 0.10328488 -0.033082392 0.21321814 -0.47534707 -1.0934002 -0.09908205 0.41645658 -1.1852739 0.34540313 0.329665 -0.8580082 -0.14817184 0.28260154 -0.55010325 0.71371347 0.99183136 -0.1337937 -0.3847497 -0.80412036 0.22380058 -1.0869911 0.14843887 -0.5980524 -0.21324396 0.69464207 0.6860401
market -0.4090663 1.3305004 -0.15777017 1.3435006 0.36485952 0.52691764 -0.28305885 0.38095906 -0.35070032 0.60539037 -0.17291288 0.23404218 -0.08597422 0.42656413 -1.364226 -0.25152484 0.41817057 0.49241412 0.75247085 -0.19770674 0.33169907 -0.78887254 -0.1301754 0.35807392 0.08444936 -0.15823293 0.1603756 -0.50699735 -0.9537463 -0.04478469 0.41459468 -1.2898511 0.4332466 0.3611844 -0.8450825 -0.19652738 0.30512694 -0.64211774 0.87444323 1.0282183 -0.24279584 -0.59183306 -0.8598948 0.40424833 -1.0822676 0.16219276 -0.66297823 -0.06436146 0.68149114 0.63824457
12 -0.7601098 0.61178 0.281863 -0.17586535 -0.2651568 0.4980763 0.3920196 -0.34902713 -1.1473634 0.45315146 -0.8617342 -1.5548297 -1.3044498 -1.8600494 -0.8937331 -0.4424403 -0.47314236 -1.3156943 1.6361605 1.2680491 0.75149894 -0.26710454 -0.26099 -1.577809 0.40456837 1.0647237 -0.44851068 -0.38238746 -1.0664883 -0.5372507 -1.1261915 -1.5127476 -0.3284069 0.59761757 -0.8012815 -0.6252103 0.32454145 1.0690149 0.3417687 1.4864542 -0.052721195 0.24771357 -0.029476026 -1.0566684 -0.56846774 0.37950215 0.28835398 -0.5059138 1.2672021 1.112043
Australia -1.2389445 -0.016280362 -0.11312335 0.8183286 -0.5820684 0.07985341 0.71550053 -0.37500173 -0.8429006 -0.29365447 -0.11202377 -1.1637385 -0.889135 -1.0095642 -0.4365996 0.28692693 0.29295924 -0.9617424 0.9719243 -0.5159851 0.5706837 -0.992017 -0.27123952 -1.0355259 0.29546872 1.2520565 0.45201212 -0.38505182 -2.4155233 -0.13668223 -0.32381776 -1.2629735 -0.031960305 -0.19443539 -1.3851718 -0.13150826 -0.028710682 0.364679 0.8601774 0.32510856 0.99286836 0.21166249 -0.008053771 -0.59230816 0.13431229 0.14299716 -0.83636254 -1.356945 0.79147035 1.0664114
some -0.28418753 1.5434726 -0.13454685 1.2132461 0.4752354 0.637609 -0.33951968 0.40822548 -0.40650094 0.5896644 -0.23393703 0.25262457 -0.08383232 0.32685325 -1.4790853 -0.38536125 0.3685306 0.56592053 0.8794939 -0.021717988 0.26965103 -0.78133655 -0.07288808 0.31805345 0.020421168 -0.27969825 0.17457563 -0.56230134 -0.8017591 0.031011648 0.55026805 -1.4133705 0.297876 0.510231 -0.7662286 -0.27911752 0.344111 -0.5981536 0.82504666 1.1975198 -0.4205584 -0.5381424 -0.99091876 0.44991267 -1.3062673 0.13797846 -0.5954787 -0.012790312 0.8676837 0.6056378
than -0.1568675 1.7032635 -0.20029038 1.1412972 0.5994992 0.67270297 -0.39731294 0.52234364 -0.4060921 0.6692646 -0.27420813 0.3493073 -0.047844343 0.3504767 -1.592144 -0.57255596 0.28661972 0.62182283 0.92307335 0.09693375 0.19257045 -0.7124746 0.0010073766 0.3520821 -0.0044896235 -0.39504367 0.07313666 -0.4906664 -0.60901916 0.013269955 0.6590669 -1.4101015 0.324298 0.66249675 -0.6767165 -0.24391232 0.3496268 -0.5572046 0.77120805 1.3795369 -0.6269485 -0.6818113 -1.0775194 0.5407433 -1.4677742 0.092535704 -0.48500496 0.13655229 0.8635287 0.6386553
22 -0.92387754 0.8429462 0.3113527 -0.10561761 -0.28575885 0.604138 0.4203677 -0.41211128 -1.4203557 0.5891294 -1.0108584 -1.8350236 -1.5616989 -2.1963155 -1.146949 -0.564962 -0.5490913 -1.5354176 1.9665601 1.4646423 0.937907 -0.3943914 -0.32648245 -1.826103 0.5009966 1.2524253 -0.53178054 -0.4972619 -1.3615549 -0.6568877 -1.3254477 -1.9349325 -0.35873312 0.7665333 -1.032233 -0.7563055 0.3988812 1.2142344 0.50548434 1.8544537 -0.08061471 0.26029748 -0.1005115 -1.2344997 -0.7603744 0.44757727 0.27045646 -0.6340949 1.5758859 1.3923328
her -0.41538393 1.5591489 -0.23168717 1.4144113 0.50143725 0.6319729 -0.37135127 0.4159787 -0.35508084 0.55001813 -0.18215072 0.42625168 0.04810628 0.4693502 -1.4449285 -0.28342494 0.54225105 0.7204577 0.8438903 -0.35418782 0.24819635 -0.9739257 -0.047620896 0.5476558 -0.0038144577 -0.30037165 0.2646285 -0.647677 -0.939402 0.05647857 0.58363 -1.4859679 0.3596139 0.481618 -0.9271604 -0.24144883 0.30449244 -0.791935 1.0971266 1.1319249 -0.27854633 -0.6625595 -0.93676656 0.5714201 -1.2197034 0.11626587 -0.8225884 -0.088940255 0.8252487 0.71794885
14 -0.8126731 0.61052537 0.17796081 -0.02997026 -0.24879152 0.42267454 0.3988251 -0.309585 -1.1491195 0.43010578 -0.77419066 -1.4422495 -1.239166 -1.7357197 -0.86571985 -0.39433822 -0.35499513 -1.2618265 1.5658922 0.95863783 0.71668905 -0.4036472 -0.24593253 -1.4181231 0.42728707 1.0962117 -0.3718408 -0.38551646 -1.2379509 -0.51702654 -1.0616376 -1.5859872 -0.29201967 0.5475639 -0.93430173 -0.5647194 0.2976408 0.9699743 0.5170782 1.402964 0.068564095 0.18733428 -0.0024219048 -0.9726326 -0.48053262 0.3360142 0.12156759 -0.6115478 1.2415501 1.1598564
20 -0.7245902 0.6609848 0.27431902 -0.04021616 -0.21744195 0.48389807 0.3340558 -0.31193802 -1.1184195 0.46881905 -0.7986045 -1.4722917 -1.2367564 -1.706157 -0.9317197 -0.46861538 -0.42565036 -1.225506 1.5872571 1.176831 0.7447733 -0.29848835 -0.268443 -1.4656894 0.39546362 0.9860644 -0.40380996 -0.37822977 -1.0693815 -0.54346603 -1.0356193 -1.5248718 -0.28185478 0.59680784 -0.78537774 -0.5936276 0.33628666 0.9472837 0.3535498 1.4451382 -0.059862852 0.22733171 -0.087414496 -0.98128974 -0.64975613 0.39189655 0.20233689 -0.49037394 1.2233715 1.0696368
before -0.3042508 1.5036502 -0.1680969 1.1939188 0.46079698 0.6415006 -0.38404503 0.35897115 -0.33830193 0.5698006 -0.20412487 0.30453372 0.0004018302 0.40561208 -1.3963227 -0.31314108 0.3693155 0.5816873 0.79990584 -0.11811097 0.23116602 -0.7752016 -0.079248436 0.43811026 0.03602263 -0.29744428 0.16402127 -0.5450087 -0.81817687 -0.00637562 0.5689369 -1.3517625 0.3813529 0.48481953 -0.82108164 -0.21356833 0.33053002 -0.71635205 0.8788435 1.144128 -0.3955887 -0.6285317 -0.93882215 0.51041657 -1.250123 0.09890073 -0.5803171 0.0054433323 0.770805 0.66679823
SOCCER -0.9669414 0.1818091 0.061513975 -0.14512767 -0.5182167 -0.20030949 0.6140025 -0.2387239 -1.2296877 0.50092185 -0.64760375 -1.7869276 -1.5501497 -1.828844 -0.5825654 -0.4910166 -0.4063341 -2.1695638 1.3447497 0.60466415 0.81671673 -0.21725173 -0.40349355 -1.5872915 0.8490877 1.4780618 -0.5348438 0.1032607 -1.7426814 -0.6335857 -1.5512594 -1.5912064 0.04808797 0.44247323 -1.1204447 -0.2518382 0.29069042 1.1295378 0.73274964 1.2179549 0.6937481 0.2911993 0.54643947 -1.3237602 0.15228449 0.35922065 0.16221115 -0.61361146 1.0337 1.0692225
points -0.9374993 -0.21833707 0.10459041 0.7385702 -0.3539759 0.060756322 0.606709 -0.28506744 -0.47047034 -0.17706133 0.09854167 -0.7148344 -0.49343494 -0.5272152 -0.29866555 0.29525056 0.42204124 -0.60465354 0.6499436 -0.35379618 0.35942098 -0.6776118 -0.1766378 -0.662225 0.13026473 0.83841944 0.48812145 -0.2655729 -1.4222264 -0.1477698 -0.2823691 -0.65598077 -0.14998725 -0.09982629 -0.86468875 0.045319665 0.114212394 0.16954097 0.6987011 -0.04013278 0.89996403 0.11862063 0.33136755 -0.34731814 0.15545873 0.4629664 -0.9432082 -1.031177 0.17341219 0.5228827
match -0.6627265 0.56146383 0.3216957 1.1076441 -0.28401032 0.40881982 -0.14420174 -0.19666752 -0.05282395 0.22882055 0.13313077 -0.34970722 -0.17063598 0.29886287 -0.9551624 0.18635866 0.33575216 0.069447055 0.53988314 -0.28244093 0.55873555 -0.62516195 -0.36199412 0.005121628 0.11481703 0.045827348 0.44357818 -0.5324218 -1.4019568 -0.24484704 0.21506698 -0.75192064 0.5524659 0.08980992 -0.8268512 -0.0055588256 0.33965048 -0.89741707 0.81267774 0.5108558 0.39057282 -0.31284472 -0.46415752 0.0026131053 -0.84235144 0.39347672 -0.8412161 -0.34266686 0.19933568 0.5852282
could -0.2784458 1.8182176 -0.49986193 1.336042 0.71617055 0.60896647 -0.47418118 0.49205866 -0.4174983 0.6999869 -0.34697145 0.6951391 0.17732587 0.54448545 -1.5291739 -0.42331806 0.43251538 0.9204746 0.82872117 -0.39435673 0.09357178 -0.9887283 0.021072328 0.8254989 -0.028331712 -0.34232214 0.13778384 -0.5518168 -0.7265677 0.062141076 0.70952797 -1.6294825 0.3060334 0.6234379 -0.9614164 -0.21914399 0.2602165 -0.81761736 1.1880875 1.2662421 -0.5453826 -0.8686779 -1.0078964 0.77696306 -1.2422324 -0.023641279 -0.5967085 0.03207713 0.9681194 0.94428396
France -1.2540427 -0.0074727293 -0.16583766 0.8210777 -0.579148 0.104920745 0.7496637 -0.39505807 -0.88689184 -0.36613166 -0.1332596 -1.1445535 -0.8904345 -1.0642653 -0.41076267 0.28346738 0.27510652 -0.94247484 0.9487022 -0.53789806 0.5684666 -1.029789 -0.27667528 -1.0975381 0.28960097 1.2670797 0.45425576 -0.43800297 -2.4769285 -0.09089522 -0.26678154 -1.3156769 -0.106479846 -0.22995433 -1.4179107 -0.16997112 -0.09071306 0.4388411 0.82475185 0.29538202 0.9506123 0.26204026 -0.07600654 -0.5483583 0.16796596 0.047664784 -0.8122487 -1.4348661 0.8989731 1.0968999
Sunday -0.75408745 0.47245306 0.29904568 0.996392 -0.31715378 0.37346953 -0.056649905 -0.2003638 -0.24604622 0.41304743 -0.12809038 -0.37680164 -0.2970091 0.08799611 -0.8260467 0.13360031 0.28913066 -0.018488044 0.6585883 -0.2334175 0.6921908 -0.6468234 -0.29717582 -0.0123086255 0.15351543 0.19072571 0.2446034 -0.6629449 -1.16303 -0.36815238 -0.36092487 -0.8456226 0.44580373 0.12227693 -0.7951326 -0.2352541 0.3506005 -0.6904618 0.9850425 0.74802804 0.36410046 -0.40297604 -0.21981755 -0.24903113 -0.645417 0.5057604 -0.71864015 -0.24968098 0.25667766 0.84087706
1996-08-28 -0.78579545 0.6112428 -0.02028116 0.50260216 -0.2188283 0.20550498 0.22008798 -0.08989796 -0.80004895 0.43811336 -0.39183754 -0.9404192 -0.88757265 -0.88933545 -0.8944694 -0.30254036 -0.07020884 -0.9695472 1.1001061 0.19093998 0.613754 -0.54226387 -0.3247428 -0.7609923 0.46845648 0.825524 -0.1108736 -0.297341 -1.5032604 -0.36256522 -0.5995596 -1.4581052 0.17600471 0.339418 -1.0693487 -0.2535417 0.27986968 0.26579455 0.8108542 1.0637394 0.3328241 -0.06542688 -0.09939592 -0.5710767 -0.34118146 0.18787722 -0.26268637 -0.48747283 0.8897896 0.9497214
played -1.1624905 0.073697396 0.33088508 1.2425102 -0.5580508 0.21352994 0.3055875 -0.48595893 -0.2784454 0.04624787 0.22445655 -0.7188803 -0.42375642 -0.1309873 -0.62653065 0.4482126 0.49004626 -0.3862062 0.71577716 -0.54627824 0.75539535 -0.93667257 -0.50726557 -0.415009 0.108252816 0.58813095 0.8196445 -0.58876276 -1.8933388 -0.34805733 -0.23431239 -0.8125062 0.32005072 -0.03968816 -1.1472819 0.04020612 0.3452437 -0.7722365 1.2130921 0.21183188 1.1238102 -0.3184423 0.17468782 -0.26759744 -0.22926341 0.7184128 -1.3928422 -0.87983733 -0.1550964 0.83225465
1996-12-06 -0.7894165 0.5198085 -0.0034978373 0.42697448 -0.245321 0.18245557 0.25829214 -0.114145555 -0.81836474 0.4272227 -0.41254517 -0.9961303 -0.9253932 -0.969626 -0.8362047 -0.2881252 -0.1002919 -1.044285 1.0789912 0.25343186 0.64895266 -0.5014546 -0.32328027 -0.8308241 0.48851314 0.8577106 -0.16354762 -0.28346586 -1.4510763 -0.3850162 -0.71866155 -1.3976123 0.14533193 0.33379954 -1.0191463 -0.25148782 0.2744174 0.34909895 0.78111655 1.0504874 0.34751904 -0.036545366 -0.012613385 -0.65605825 -0.28971326 0.23357148 -0.20738143 -0.4774508 0.8679977 0.95909226
time -0.39450464 0.97707444 -0.050985813 1.2072983 0.16470896 0.45669523 -0.20013502 0.22178139 -0.14733112 0.2548078 0.06498992 0.17888474 0.022646122 0.49445212 -1.0827509 -0.00020274101 0.4388116 0.44695345 0.54091835 -0.3350234 0.23954912 -0.7128083 -0.13861446 0.25949997 -0.008650618 -0.16754293 0.40200302 -0.46856594 -1.0721622 0.046393357 0.635698 -0.9464757 0.4253917 0.16797101 -0.7340835 -0.069478385 0.2158383 -0.7630591 0.6751339 0.63127345 -0.014673313 -0.41891918 -0.8184938 0.44267052 -0.9531727 0.116230324 -0.7746243 -0.22828072 0.4492062 0.4360737
years -0.2129852 1.3432027 -0.059242707 1.0858763 0.46321413 0.57599735 -0.33804482 0.41265488 -0.253682 0.54646903 -0.12533772 0.3533358 0.045116168 0.43995953 -1.3098441 -0.30723408 0.36281952 0.60619175 0.68969846 0.0055864346 0.19317636 -0.6474349 -0.03131428 0.3979904 0.0037438348 -0.37224352 0.16544928 -0.4703494 -0.5550015 0.025615009 0.51915026 -1.1107606 0.32845283 0.46212977 -0.58249456 -0.18239363 0.3327231 -0.6791114 0.71223354 1.0444819 -0.39460215 -0.5213707 -0.8703195 0.466432 -1.2021854 0.17612492 -0.5714348 0.08495941 0.5892166 0.42748773
other -0.33925554 1.4327554 -0.20485908 1.168092 0.47064486 0.579509 -0.2820218 0.3701834 -0.42807856 0.5180435 -0.22747844 0.27046302 -0.07310975 0.28486517 -1.3434378 -0.34378523 0.37504923 0.509555 0.8352949 -0.13090158 0.22701065 -0.82017696 -0.039105676 0.32913032 0.051043004 -0.18459198 0.16186917 -0.51506 -0.874566 0.016776903 0.50596285 -1.3905109 0.28003407 0.4675416 -0.8131946 -0.21277899 0.30558133 -0.5643752 0.86447656 1.1334618 -0.3589967 -0.5567003 -0.8872339 0.43434843 -1.1304235 0.08440291 -0.6040251 -0.07362734 0.8318498 0.69120216
all -0.38006523 1.4125122 -0.3354392 1.2279742 0.4963638 0.5378324 -0.28089172 0.35689837 -0.40296343 0.41156396 -0.20275004 0.37554255 -0.00068912783 0.3573537 -1.287094 -0.26656014 0.4453988 0.57970977 0.76468414 -0.34478006 0.18689221 -0.9314927 -0.049874894 0.41993356 -0.0017421285 -0.19155177 0.27458826 -0.535679 -0.9676092 0.087424785 0.614419 -1.3965374 0.2702793 0.42526102 -0.8912204 -0.17916712 0.2284458 -0.6113587 0.95270485 0.9579903 -0.27453685 -0.58845305 -0.8728305 0.5321629 -1.0211091 0.027918886 -0.68787384 -0.18258224 0.8315896 0.6899005
only -0.3325007 1.4132874 -0.23989283 1.2506795 0.49471664 0.58032554 -0.3121424 0.39106032 -0.33476216 0.47500762 -0.16272362 0.37901488 0.035973616 0.4282335 -1.32072 -0.27856886 0.4551588 0.63944095 0.754523 -0.26079908 0.1905234 -0.8604453 -0.05827154 0.47707945 0.0015910781 -0.25806263 0.25512326 -0.5301003 -0.8607738 0.072884314 0.6331602 -1.3315175 0.31218624 0.43148234 -0.8260409 -0.18323858 0.27587524 -0.6592236 0.9190056 0.9976081 -0.30499628 -0.5967438 -0.8868736 0.54945946 -1.1175461 0.068450786 -0.6913006 -0.08747383 0.7531833 0.61916584
group -0.40313366 1.075703 -0.08032292 1.1482295 0.2249427 0.441506 -0.18340078 0.26571155 -0.2972508 0.4596362 -0.06649108 0.11560818 -0.11682869 0.3462157 -1.175572 -0.1489698 0.38125026 0.33024693 0.6692093 -0.1669958 0.30476224 -0.67176956 -0.15676615 0.23322947 0.10548004 -0.091650575 0.2219118 -0.42722768 -0.9528024 -0.03114604 0.4123728 -1.0945076 0.39033663 0.2653749 -0.7903079 -0.122203745 0.2921959 -0.6168198 0.73982435 0.84386075 -0.10928767 -0.4430694 -0.73501104 0.30234548 -0.958755 0.1606077 -0.63725686 -0.12219577 0.5704191 0.5193206
16 -0.72812885 0.62651086 0.25268704 -0.07156889 -0.20949534 0.48473498 0.33709964 -0.31607273 -1.0610859 0.41783795 -0.76274097 -1.3881927 -1.1812717 -1.6634954 -0.8642149 -0.40966842 -0.4116475 -1.147184 1.5075358 1.110216 0.69223803 -0.3241304 -0.23783745 -1.3752645 0.36992335 0.9441455 -0.3626473 -0.39979106 -1.0522462 -0.4840433 -0.98285407 -1.4539133 -0.28609568 0.5630241 -0.7956948 -0.5692984 0.30422223 0.8972701 0.38817367 1.4074628 -0.04893845 0.19797258 -0.07195033 -0.92578566 -0.5975762 0.34467098 0.18758115 -0.50031435 1.174888 1.0625271
since -0.26008376 1.3827697 -0.12423849 1.1312668 0.39861476 0.6217323 -0.37091836 0.2875073 -0.30799422 0.5154634 -0.18712415 0.2520819 0.05457406 0.39127225 -1.3542483 -0.2857563 0.3184914 0.51153404 0.7868458 -0.12172211 0.25943798 -0.7304019 -0.11541468 0.36322775 -0.019662542 -0.30155647 0.248219 -0.49568963 -0.7920849 0.00540891 0.61612153 -1.30244 0.37714067 0.4688376 -0.77815384 -0.21166712 0.33658823 -0.72905874 0.84204507 1.0673599 -0.32810977 -0.567294 -0.91057825 0.46189544 -1.2627248 0.116512425 -0.599723 -0.07241398 0.7253387 0.6295962
there -0.25639963 1.545699 -0.48078424 1.3802537 0.72402555 0.53160334 -0.36687773 0.5691395 -0.34733033 0.5673258 -0.18156616 0.8008375 0.25193396 0.7076985 -1.3292508 -0.28860098 0.6062307 0.96589935 0.6242771 -0.564783 0.060208645 -0.9757973 0.04227872 0.87429667 -0.03279541 -0.37652954 0.21345323 -0.5333666 -0.7008608 0.17031536 0.75038403 -1.3657717 0.30558303 0.45289302 -0.8510844 -0.13389157 0.2511727 -0.79617906 1.1017061 0.9711855 -0.41085014 -0.78219724 -0.8960666 0.7633778 -0.9998304 -0.047672722 -0.7201954 0.025453947 0.75989693 0.6436336
Cup -0.6952553 0.5727031 0.19195329 0.93647724 -0.26257086 0.3626935 0.024866544 -0.16348535 -0.264513 0.11544139 0.04268351 -0.52657485 -0.3880539 -0.017468411 -0.97121626 0.112244874 0.27069676 -0.18031518 0.7257837 -0.13669704 0.5251879 -0.6420654 -0.28393573 -0.27376172 0.19179372 0.22460213 0.3750805 -0.45323548 -1.4973156 -0.15483896 0.21245682 -0.9519527 0.41097024 0.109201126 -0.85001564 -0.07542767 0.2995724 -0.56750506 0.7008694 0.6104875 0.35972694 -0.15027425 -0.50562894 -0.045962885 -0.7686138 0.27456692 -0.6970278 -0.46676433 0.4451461 0.5768327
We -0.30883032 1.5911571 -0.57616025 1.2896637 0.818038 0.4694573 -0.31583363 0.6467751 -0.4331854 0.68051165 -0.24544615 0.82570773 0.27150866 0.60165167 -1.2986418 -0.35261673 0.5510456 0.8687113 0.66445136 -0.60550094 -0.0035959098 -1.0408478 0.06336002 0.9339615 0.04512191 -0.31884134 0.17177992 -0.5083237 -0.6513499 0.1243691 0.56176955 -1.4607654 0.26901287 0.5028104 -0.9033732 -0.14355366 0.2629064 -0.6712171 1.2060454 1.0335704 -0.39352766 -0.9171403 -0.75136584 0.7453792 -0.83505154 -0.0765003 -0.63065904 0.1114039 0.8117543 0.7064187
United -0.5431444 0.6610377 -0.07620134 0.72956187 0.0076605794 0.39912063 0.031998817 0.004348521 -0.3882549 0.2733796 -0.16035257 -0.25770512 -0.3494205 -0.18579195 -0.7987055 -0.03949219 0.24682017 -0.05332741 0.6640443 -0.05172867 0.3917279 -0.5811213 -0.12948895 -0.1224013 0.16679561 0.22942701 0.11065216 -0.46892464 -1.0030144 -0.13864055 -0.016586108 -0.9712063 0.19830027 0.21222629 -0.73270553 -0.16585225 0.23587468 -0.2066596 0.6471187 0.6874958 0.07899033 -0.24068405 -0.38539782 -0.011953079 -0.5599684 0.1954177 -0.42928565 -0.367504 0.60691947 0.62739986
South -1.0635499 0.115283586 0.034156855 0.6140074 -0.502051 0.17048427 0.5308056 -0.34535727 -0.8051491 -0.071912564 -0.20138231 -1.1265551 -0.91591877 -1.0242168 -0.5871892 0.10589416 0.12757732 -0.97358507 0.9894222 -0.09944267 0.5887816 -0.74631953 -0.2759593 -1.0249876 0.3237144 1.0905341 0.22514057 -0.3612634 -1.974552 -0.23976792 -0.45616344 -1.2332344 0.008710753 -0.0018946129 -1.1614914 -0.21782587 0.110129155 0.37520882 0.756154 0.5666495 0.70895326 0.17157297 0.0019158332 -0.6019025 -0.059652127 0.21670932 -0.5643056 -0.99786717 0.7895071 0.9610398
England -0.70093566 0.25046104 0.021199716 0.55100834 -0.2800964 0.12783566 0.23806591 -0.16748047 -0.5115408 0.06279927 -0.12242168 -0.7000026 -0.56334925 -0.522772 -0.5447657 -0.004367548 0.13395923 -0.5789254 0.7178841 -0.11429699 0.43131328 -0.5314634 -0.20879802 -0.5527795 0.25108266 0.6185912 0.15049653 -0.27092466 -1.3593962 -0.16338131 -0.2497136 -0.9240416 0.119305156 0.086024374 -0.8422942 -0.12158736 0.13335814 0.073987536 0.62472236 0.50972676 0.45160446 0.021954868 -0.07595431 -0.3522378 -0.20806561 0.19549258 -0.46076322 -0.61308837 0.55090207 0.6740414
Minister -0.53575516 1.1239735 -0.28873935 1.059029 0.25676516 0.42872503 -0.038926926 0.22085287 -0.5960243 0.51309395 -0.29786134 -0.029610708 -0.30545673 -0.09446744 -1.1564008 -0.22684306 0.3603881 0.09308435 0.9077217 -0.26948008 0.34762812 -0.8860956 -0.11864439 0.18647893 0.16019593 0.17952044 0.06675839 -0.57351255 -1.0921355 -0.107112736 0.022251392 -1.549224 0.24066435 0.39774808 -1.0868713 -0.22806507 0.31923184 -0.34980264 1.100084 1.0656078 0.008481508 -0.46131402 -0.49752355 0.12703349 -0.77325165 0.14474766 -0.6410899 -0.26967195 0.8962614 0.93503344
next -0.28034604 1.2572149 -0.15166412 1.1809103 0.3583176 0.4400929 -0.27926588 0.3296267 -0.21845132 0.48007464 -0.09127257 0.27881142 -0.012898772 0.5149705 -1.2565452 -0.22586207 0.37122592 0.4872791 0.6118071 -0.19566253 0.23264502 -0.70827883 -0.09484437 0.43625423 0.081406176 -0.23390934 0.25186038 -0.47964266 -0.8245278 -0.0072043003 0.5516744 -1.1084608 0.44475096 0.363261 -0.73764575 -0.08721717 0.3230691 -0.72174895 0.78090054 0.85625523 -0.2506962 -0.50449 -0.8314453 0.46477968 -1.0506965 0.09696595 -0.61158496 0.0135080945 0.56314313 0.44101873
Britain -0.9853444 0.19210973 -0.1421011 0.8461864 -0.39572644 0.18379134 0.46151417 -0.27133003 -0.669695 -0.1949859 -0.11435386 -0.8013195 -0.64700294 -0.6699995 -0.50035954 0.20090841 0.30037874 -0.5523915 0.7872046 -0.49980986 0.50197667 -0.91451275 -0.21115364 -0.70116144 0.20676841 0.8715184 0.39384648 -0.471162 -2.0242515 -0.07496325 -0.10415989 -1.1387801 0.012829769 -0.13449359 -1.2045357 -0.16782819 -0.03914748 0.14840338 0.78185976 0.35891005 0.6886594 0.08912942 -0.22069272 -0.31984916 -0.03284413 0.044887792 -0.73746645 -1.0552713 0.7584986 0.92733765
company -0.32359475 1.1929753 -0.25343478 1.2617131 0.39470804 0.42809168 -0.2643132 0.37693727 -0.30215502 0.5749027 -0.10450348 0.38872218 0.009467767 0.5132765 -1.1931362 -0.22777995 0.42882225 0.5577744 0.5864113 -0.2867225 0.25046793 -0.7176205 -0.108502336 0.4869017 0.07000128 -0.18112251 0.15805824 -0.43334296 -0.79256916 0.0025028992 0.42023438 -1.1278462 0.40897173 0.28852522 -0.76789296 -0.12357744 0.29123318 -0.6591372 0.80126715 0.8097442 -0.24979082 -0.57393956 -0.7829249 0.4884558 -0.91728175 0.10635468 -0.58582026 -0.018144317 0.5824148 0.52920157
officials -0.38061267 1.2668532 -0.34791285 1.2194831 0.46185338 0.4280134 -0.2363836 0.3971462 -0.388469 0.58492714 -0.19654728 0.4669636 0.07936541 0.38784933 -1.1680205 -0.23033993 0.47911295 0.5818903 0.6718326 -0.42678472 0.19984682 -0.85813373 -0.044983786 0.5926817 0.08172578 -0.14433008 0.1442822 -0.49390563 -0.7709161 0.023117937 0.32689968 -1.3119061 0.31343222 0.37210795 -0.8741236 -0.16911294 0.3042335 -0.67617023 1.0757484 0.9562618 -0.22729449 -0.6602998 -0.6557536 0.42964524 -0.84807986 0.06803861 -0.63843834 -0.054767627 0.6922379 0.7268842
four -0.49332023 1.139506 -0.10500604 1.1203421 0.25058293 0.51743495 -0.11333335 0.24263567 -0.45099354 0.40155083 -0.16686808 0.015019768 -0.19803843 0.08364833 -1.2026801 -0.21556547 0.37192374 0.23001099 0.8469092 -0.121651106 0.31194592 -0.793505 -0.08511022 0.08802681 0.10670276 0.026950905 0.22386461 -0.4946914 -1.0629879 -0.037808154 0.32580268 -1.2870138 0.2533173 0.33971837 -0.86999714 -0.187785 0.276645 -0.44911504 0.8327284 0.97704273 -0.10077258 -0.4014263 -0.7144872 0.23303743 -0.96061856 0.16574718 -0.6714567 -0.26174566 0.73708653 0.6548266
NEW -0.821261 0.49995488 0.1363815 -0.24002108 -0.4989208 0.15785147 0.39707407 -0.2794529 -1.172775 0.4756033 -0.7726573 -1.7963169 -1.6452594 -1.9482342 -0.89233226 -0.5781199 -0.60566163 -2.03114 1.6371776 1.0298551 0.8617235 -0.15161145 -0.4237129 -1.7801849 0.7279139 1.3766555 -0.47534707 -0.2268188 -1.5221332 -0.57738817 -1.3272498 -1.7483879 -0.035670526 0.5197501 -1.0019091 -0.5007854 0.30816302 1.1200316 0.52329856 1.4547645 0.38171646 0.3196181 0.24189937 -1.2567581 -0.16783999 0.23829076 0.2851083 -0.62480944 1.266362 1.107714
Italy -1.2700789 -0.0973011 -0.11010757 0.7259208 -0.6349189 0.11869354 0.76487315 -0.47244644 -0.9129243 -0.38061884 -0.1776888 -1.2786183 -0.93464243 -1.1782821 -0.35714534 0.31004253 0.2290116 -1.0032952 1.0057565 -0.45368096 0.6211085 -0.9890393 -0.29060006 -1.2123123 0.29731497 1.3356133 0.4290198 -0.4666587 -2.4535015 -0.12301632 -0.38188896 -1.272185 -0.12510683 -0.24760588 -1.3808708 -0.21424337 -0.089174435 0.50769985 0.78773594 0.31187505 0.9632336 0.28397995 -0.01367561 -0.64269567 0.22537151 0.08380849 -0.75780493 -1.4353865 0.8706146 1.1318572
state -0.42026868 1.1732985 -0.14967418 1.1036782 0.29340354 0.50741434 -0.19034164 0.27402258 -0.3707653 0.510375 -0.17642626 0.12520081 -0.13580152 0.21540509 -1.2309542 -0.21872096 0.35174787 0.30943468 0.7551858 -0.11759004 0.29098904 -0.7450796 -0.12475026 0.26696235 0.12006279 -0.034104235 0.15021636 -0.48782653 -0.91463 -0.047509033 0.2882345 -1.2587528 0.33579293 0.37929422 -0.86186135 -0.17305152 0.29733765 -0.5411353 0.86593926 0.9977328 -0.16190329 -0.50254965 -0.6973548 0.29540512 -0.9599279 0.15206993 -0.5920994 -0.12237035 0.7100802 0.643292
round -0.67984086 0.2712889 0.25976664 0.7677615 -0.41317958 0.26550186 0.09753737 -0.21530505 -0.20445794 -0.015366919 0.08123817 -0.6903207 -0.42533568 -0.16457477 -0.6895555 0.20452645 0.20604476 -0.32339066 0.5782455 -0.11718591 0.48331997 -0.49085718 -0.29984292 -0.4841806 0.13278863 0.32073188 0.37165472 -0.41641274 -1.4861766 -0.13424009 0.080490634 -0.6540969 0.35693052 -0.02966786 -0.700297 -0.05307868 0.19552316 -0.37276083 0.48349747 0.35355648 0.48075724 0.044556256 -0.3710908 -0.21392557 -0.53701574 0.24786861 -0.63194793 -0.5414116 0.3173748 0.43296874
him -0.27615762 1.3852726 -0.22979861 1.15519 0.49376643 0.5638201 -0.35501227 0.40494603 -0.28589323 0.46772918 -0.13428222 0.43066835 0.0802265 0.45355588 -1.245319 -0.2741031 0.4194174 0.64714575 0.6714504 -0.2786263 0.15677588 -0.7693561 -0.026915802 0.52687097 -0.0031026665 -0.33484817 0.20401464 -0.49931934 -0.74263537 0.06412612 0.61685914 -1.2422973 0.32259497 0.4197687 -0.7581174 -0.18442015 0.2523404 -0.6740324 0.84663033 0.9596241 -0.32309407 -0.5923081 -0.87805355 0.5506742 -1.081081 0.0443056 -0.6445512 -0.023651104 0.69272107 0.55594385
President -0.49823657 1.1323901 -0.15597862 1.0650868 0.20431693 0.47079504 -0.12451024 0.20564635 -0.4764726 0.5003782 -0.25032824 -0.011829415 -0.24401292 0.048886485 -1.1845418 -0.22790773 0.3238935 0.16988225 0.8418244 -0.16003673 0.3799427 -0.780135 -0.14920503 0.13191669 0.15385577 0.08627017 0.1466027 -0.5267149 -1.0474445 -0.09520916 0.16365932 -1.3808069 0.2907239 0.368595 -0.94748944 -0.21798943 0.29053456 -0.43287867 0.95294595 1.055622 -0.058392953 -0.4478037 -0.63032186 0.18403469 -0.88502043 0.13609692 -0.60042787 -0.22925971 0.78982574 0.8035348
off -0.35745174 1.1829079 -0.13188301 0.95361835 0.28785512 0.54046994 -0.2321619 0.21088873 -0.40726498 0.42032787 -0.21998093 0.019964697 -0.18167791 0.0758251 -1.1592219 -0.2866691 0.24369447 0.28452823 0.7976934 -0.016912943 0.28048953 -0.65869534 -0.09578872 0.10828325 0.069963664 -0.07089178 0.11822639 -0.45614493 -0.89491576 -0.04465985 0.37794286 -1.2163154 0.23238444 0.38334706 -0.7602774 -0.20945118 0.24850236 -0.3878945 0.68689924 0.9933105 -0.2569448 -0.40213162 -0.7708087 0.27459827 -0.97856253 0.08354105 -0.47211167 -0.1440506 0.75953734 0.6402274
five -0.41351372 0.9713027 -0.017534016 0.92271185 0.15741415 0.4484336 -0.08333265 0.17526144 -0.3658595 0.3063074 -0.122358836 -0.13006666 -0.27040824 0.018305471 -1.0696988 -0.1890417 0.2842612 0.11809121 0.76741654 0.015086401 0.3018058 -0.6195091 -0.094725154 -0.08516032 0.083156735 0.02396576 0.2136673 -0.42457366 -0.9617214 -0.033174597 0.3077926 -1.0724455 0.21608715 0.2927524 -0.7118781 -0.18154329 0.24296801 -0.3469137 0.6165161 0.84822917 -0.07867876 -0.266364 -0.6494415 0.15092486 -0.8987289 0.18810104 -0.5587225 -0.2524708 0.63387847 0.48322788
because -0.28931695 1.5648037 -0.27885267 1.2096854 0.5543242 0.6249398 -0.38431627 0.4002102 -0.39664117 0.5426628 -0.24195033 0.4072022 0.061075713 0.40778154 -1.3994443 -0.35232037 0.38157925 0.67997825 0.7899953 -0.22272186 0.20201813 -0.8629818 -0.039694995 0.49684098 0.01042336 -0.2746966 0.17606808 -0.5436967 -0.8227538 0.059473194 0.62124175 -1.4231714 0.2914036 0.51675004 -0.8579419 -0.22567433 0.29229352 -0.6695607 0.9487112 1.1446031 -0.42205095 -0.659521 -0.96667767 0.5672343 -1.2132639 0.022231132 -0.5964556 -0.031399574 0.85754466 0.7200771
down -0.39111838 1.0732957 -0.018409485 1.0156348 0.19329704 0.43630373 -0.17229189 0.24810818 -0.42503294 0.5090168 -0.23030268 -0.110857345 -0.25253305 0.08424395 -1.1214842 -0.28200263 0.267483 0.17744274 0.77426404 0.021218514 0.3441619 -0.59810454 -0.1256366 -0.00096516707 0.118102595 0.017563641 0.0909069 -0.39912158 -0.85146415 -0.107652135 0.15677854 -1.142212 0.2701898 0.32126015 -0.6969213 -0.24259944 0.25578526 -0.32482433 0.6446874 0.9439222 -0.16527462 -0.37201387 -0.67680943 0.14760497 -0.92971253 0.20565218 -0.47534463 -0.09088426 0.6517538 0.5956383
1996 -0.4859698 0.76591235 0.03323167 0.69735545 0.020258531 0.32779387 0.017597495 0.07087472 -0.55583483 0.41742915 -0.3007367 -0.5129701 -0.5407685 -0.3719771 -0.9358694 -0.27007005 0.08092824 -0.293926 0.90087783 0.2612368 0.43566248 -0.48120147 -0.17887421 -0.44488645 0.20969504 0.3420473 -0.012977376 -0.33704764 -0.9604456 -0.21236292 -0.16426706 -1.0678445 0.13362068 0.28856593 -0.657809 -0.25688422 0.23734649 0.056478005 0.49983552 0.8652437 -0.012561474 -0.13328461 -0.41198203 -0.19683258 -0.67667425 0.25225192 -0.29879263 -0.2659688 0.67232615 0.61197215
Japan -0.99220216 0.06339385 -0.042963542 0.5077716 -0.47404504 0.12591888 0.5769969 -0.34106055 -0.8085234 -0.1166392 -0.25155294 -1.1117009 -0.8687478 -1.0579464 -0.4296148 0.11169313 0.09253291 -0.9442031 0.92341644 -0.13927494 0.5462472 -0.7152742 -0.25000933 -1.0334295 0.30549958 1.0749199 0.19011474 -0.34237736 -1.8964312 -0.18348883 -0.44196546 -1.1409826 -0.06610962 -0.06390966 -1.1033351 -0.20504788 0.014500431 0.4724075 0.6508904 0.4642573 0.6853899 0.21126184 -0.005905753 -0.60182345 0.05049249 0.11985496 -0.47913098 -1.021202 0.78578 0.9272695
lost -0.92045766 0.5934023 -0.249436 1.7440112 0.17821608 0.26015523 0.31365475 0.16594733 -0.3345949 0.07757202 0.36903998 0.20570628 0.028177189 0.45980477 -0.90471804 0.2374677 0.9303545 0.30151096 0.6667841 -1.0189426 0.1988568 -1.2595309 -0.19357227 0.2602087 -0.044133104 0.2526413 0.94598114 -0.4394525 -1.5853692 0.14815348 0.58872026 -1.0796161 0.17050995 0.040951535 -1.2341001 0.17486237 0.2655439 -0.8136293 1.3030378 0.0920943 0.8491502 -0.53256935 -0.1815812 0.5433118 -0.37238204 0.4805614 -1.7523408 -0.93959445 0.051477388 0.5220621
home -0.49346504 0.9114527 0.025820864 1.1200932 0.06928429 0.40918827 -0.1595805 0.13075225 -0.24777782 0.37112424 -0.06115558 -0.060777795 -0.15213491 0.25965187 -1.048635 -0.06371302 0.35733595 0.24179156 0.6387248 -0.2100997 0.36816028 -0.6780111 -0.16315198 0.12193746 0.092231706 -0.031020803 0.2730915 -0.5124306 -1.0694406 -0.10956909 0.27403697 -1.0182142 0.38611084 0.22077969 -0.77170914 -0.1581123 0.25925857 -0.63625455 0.79575235 0.78683615 0.048117593 -0.4067844 -0.62615407 0.17153792 -0.87842757 0.22054864 -0.7009253 -0.19131869 0.48167002 0.5755073
spokesman -0.4131711 0.999877 -0.41290984 1.2654749 0.37902665 0.33383778 -0.13972722 0.35821542 -0.3071196 0.53337526 -0.09320793 0.55765134 0.12821358 0.5032221 -1.0226665 -0.07839515 0.57511413 0.5265518 0.5046578 -0.59763837 0.19037056 -0.8561864 -0.11126714 0.6823138 0.12429305 -0.057629906 0.17459941 -0.44849837 -0.79611045 0.032222986 0.25286058 -1.1404971 0.39554697 0.2242156 -0.9218199 -0.020970019 0.29819366 -0.7295778 1.0715897 0.707025 -0.05928282 -0.63963586 -0.47371864 0.45438632 -0.5985776 0.07440247 -0.70492595 -0.13629793 0.5350724 0.6098783
China -0.7081388 0.5189621 -0.1131698 0.8610835 -0.14267105 0.21424699 0.20852953 -0.032704018 -0.517165 0.106216386 -0.1363494 -0.43061158 -0.42656645 -0.27938086 -0.7283269 0.01941549 0.29533392 -0.23890437 0.7189337 -0.33556235 0.40683007 -0.7341077 -0.17362833 -0.30753183 0.17622738 0.48529357 0.26039806 -0.4176331 -1.4575416 -0.060711227 0.009644612 -1.0852453 0.16701213 0.043037213 -0.9574602 -0.157669 0.09740682 -0.112857826 0.7579725 0.5592085 0.34039003 -0.12939252 -0.34141538 -0.12339067 -0.3397673 0.089837715 -0.6033388 -0.59106886 0.63344246 0.7244288
official -0.36143234 1.0531884 -0.27971146 1.2466037 0.34520316 0.38161796 -0.21074776 0.3129036 -0.2617971 0.5614171 -0.08008159 0.4673849 0.09564275 0.530902 -1.0910062 -0.12226664 0.48936412 0.5355667 0.51754993 -0.4487878 0.22851329 -0.75910366 -0.13302502 0.63552296 0.10373032 -0.12559442 0.17059006 -0.45168352 -0.75392133 -0.023518115 0.29284248 -1.0883092 0.43713862 0.26955834 -0.83627987 -0.06499018 0.31021082 -0.7785383 0.9677322 0.7450818 -0.10593487 -0.62383485 -0.5774598 0.4508011 -0.77661085 0.118949905 -0.67348784 -0.053487632 0.47942844 0.5752099
six -0.45266312 0.9948767 -0.011967573 0.9686018 0.1435123 0.44563493 -0.10678663 0.17724049 -0.3979462 0.3655721 -0.1426167 -0.13696209 -0.27274555 0.0032929077 -1.1098955 -0.1897284 0.28213397 0.10280997 0.8023939 -0.003896834 0.32994655 -0.6414079 -0.11771485 -0.061083976 0.10905372 0.045992874 0.20090006 -0.42928824 -1.0220907 -0.07828129 0.26728743 -1.1519101 0.23891242 0.30593732 -0.7553074 -0.18840013 0.26565796 -0.37660828 0.67722017 0.9089235 -0.060423005 -0.2914384 -0.65290475 0.11691348 -0.92883337 0.18738379 -0.5927107 -0.26439065 0.6388734 0.5561914
made -0.3410522 1.2469119 -0.19678424 1.2022024 0.39515784 0.5268875 -0.31526038 0.31021222 -0.28498593 0.48704532 -0.15074208 0.35527092 0.10448541 0.46399114 -1.214108 -0.20624115 0.41298708 0.5677348 0.660241 -0.30115113 0.21722183 -0.7893466 -0.07591197 0.47124863 0.003853824 -0.24340494 0.23004232 -0.49846298 -0.8103091 0.0025942083 0.5291491 -1.2079595 0.36664316 0.35482857 -0.7938065 -0.14409782 0.27084446 -0.7428296 0.91089606 0.9357527 -0.22667702 -0.6247244 -0.7954657 0.47861227 -1.0544242 0.09865645 -0.6655562 -0.07489919 0.6295634 0.66254914
do -0.21955822 1.7607182 -0.68435025 1.2973155 0.96652114 0.55431074 -0.45973647 0.6166826 -0.4589045 0.6242714 -0.30922654 0.95352125 0.32527456 0.57867956 -1.2977034 -0.4248939 0.5263897 1.0287366 0.6455084 -0.63502324 -0.03089073 -1.0760344 0.09918685 1.0230931 -0.039161306 -0.42105895 0.13998485 -0.56435454 -0.6066906 0.19835734 0.682583 -1.5422914 0.19073375 0.5656494 -0.9239316 -0.16018282 0.19305064 -0.62982976 1.2183124 1.0746355 -0.55975103 -0.92471397 -0.892651 0.9093478 -0.8454405 -0.19047442 -0.58815956 0.09504037 0.9479929 0.82251453
Spain -1.2023715 -0.059686467 -0.11741017 0.63169515 -0.5739278 0.10145063 0.7514225 -0.4058412 -0.9112458 -0.31264582 -0.18404147 -1.2286974 -0.95980364 -1.1799045 -0.35829097 0.22717842 0.22968577 -1.0336261 0.99251723 -0.38260472 0.5588882 -0.91901165 -0.24795929 -1.1589584 0.31618914 1.331232 0.35164663 -0.38695264 -2.2892349 -0.13254854 -0.42661506 -1.2679647 -0.16527472 -0.18744342 -1.3366971 -0.18793802 -0.05750042 0.5452707 0.78643435 0.3330242 0.9088219 0.29680508 0.03700587 -0.64002645 0.19715235 0.11408037 -0.71367216 -1.3531768 0.86747915 1.0593219
DIVISION -1.0561146 0.48318228 0.13670139 -0.0738359 -0.53280175 0.09063309 0.57560587 -0.36669374 -1.3955493 0.4501394 -0.7801083 -2.0351214 -1.7521962 -2.1138687 -0.8163955 -0.61990345 -0.48590073 -2.2335055 1.6769543 0.7745291 0.9037954 -0.4162606 -0.49027196 -1.8800951 0.7944367 1.556468 -0.45945612 -0.094615474 -1.9841298 -0.6021549 -1.445147 -1.9324841 -0.09323311 0.56900823 -1.3137242 -0.4079655 0.2724253 1.1959227 0.7697884 1.4219213 0.57392406 0.32363737 0.2545813 -1.3256302 -0.16281745 0.31492826 0.14696819 -0.82056737 1.3384322 1.313853
17 -0.6392705 0.5001925 0.18420534 -0.109150425 -0.19017805 0.40507185 0.31027335 -0.3019632 -0.95314604 0.3293071 -0.6710091 -1.2043167 -1.0172665 -1.5171287 -0.69987637 -0.34530726 -0.3652484 -1.0267826 1.3011969 0.91070867 0.5985384 -0.2984754 -0.19367252 -1.2097583 0.31051457 0.8669386 -0.31834698 -0.33528006 -0.9259316 -0.41853166 -0.87311673 -1.2977836 -0.2868413 0.48908362 -0.72261333 -0.4914549 0.24368204 0.8461677 0.3651887 1.197207 -0.013888395 0.20517938 -0.0113974195 -0.81194556 -0.43929872 0.25897557 0.17078635 -0.49089387 1.0674127 0.97372097
games -0.7114647 0.251092 0.26867238 0.810347 -0.31670132 0.22290778 0.16587092 -0.21001847 -0.23628168 0.13025238 0.105881535 -0.5166304 -0.35182336 -0.15135686 -0.5957136 0.143454 0.23441324 -0.26216438 0.5858871 -0.12854062 0.4993514 -0.56154364 -0.29713932 -0.31836826 0.10930027 0.32268554 0.45368478 -0.3724606 -1.2300973 -0.2188177 -0.09845885 -0.67523795 0.22195604 0.05994748 -0.74588406 -0.052089024 0.2552504 -0.45574018 0.7194827 0.3988266 0.5502032 -0.16015813 -0.09377791 -0.18461256 -0.4281271 0.41518697 -0.8324872 -0.4872393 0.07762067 0.52442324
day -0.43247837 0.8579698 0.088694505 1.0800906 0.030856898 0.4056169 -0.20425531 0.132182 -0.17599371 0.3903659 -0.0027880797 -0.013783427 -0.11570578 0.37478223 -1.0334151 -0.04411588 0.34039718 0.26514536 0.5660568 -0.14675377 0.34508955 -0.5584566 -0.20394424 0.17302446 0.08934019 -0.08451595 0.2528883 -0.43077502 -0.977197 -0.090130754 0.3402633 -0.8667476 0.45033002 0.16892338 -0.68057394 -0.102036506 0.270415 -0.6791658 0.6569367 0.70894843 0.013636964 -0.39229146 -0.6740555 0.216735 -0.92341065 0.22200452 -0.6120852 -0.10891502 0.3943513 0.48125732
n't -0.24401677 1.8439451 -0.71902037 1.4041461 1.0155218 0.5832182 -0.44978288 0.67700434 -0.5077718 0.6523424 -0.34390146 0.95536023 0.32884306 0.6585965 -1.4170002 -0.43015543 0.57785094 1.054835 0.70950145 -0.64708585 -0.00041399585 -1.1475538 0.08756686 1.0284928 0.017064743 -0.43230757 0.14163306 -0.57436997 -0.65006244 0.18168683 0.7214092 -1.6784303 0.27308992 0.6249236 -0.9945254 -0.18701534 0.21664263 -0.6740991 1.2971071 1.1526245 -0.5673626 -0.9689573 -0.90123284 0.9267333 -0.97023064 -0.19751045 -0.630886 0.103643425 0.99147475 0.8253241
former -0.50496364 1.0006679 -0.17047332 0.9989839 0.19279231 0.45380825 -0.06997524 0.1849706 -0.42303005 0.34648088 -0.14620215 -0.040140554 -0.21151327 0.04386773 -1.0847776 -0.15699324 0.3369424 0.1371283 0.7766169 -0.18552567 0.29875597 -0.75977534 -0.13156244 0.05286344 0.11654591 0.09912281 0.20449665 -0.440103 -1.085651 -0.03582326 0.29473048 -1.2501193 0.2606241 0.30911988 -0.89272237 -0.16311863 0.24334037 -0.40135038 0.7915145 0.8645405 -0.017933508 -0.3763858 -0.6219302 0.20346296 -0.8178713 0.100309245 -0.6267175 -0.32615393 0.71740735 0.66552985
